-3.724156,-1.0369301,0.0128388405,2.32755,2.0668163,-2.086821,1.0372744,-1.2549245,3.7797136,1.629457,-4.7215624,1.1652699,-1.5738506,-3.4340668,2.5314617,-1.3807874,2.8336363,4.7924995,-3.825463,2.2242045,-0.98093414,2.2965436,2.9680233,-1.0607309,4.811022,1.6661735,3.3373919,2.4833608,-0.8703699,-0.43619537,-0.6993389,0.3768406,-1.7005146,0.69461584,2.0350451,-4.830056,-4.885423,-4.5856595,-1.4917207,-0.87847996,-3.1602573,3.8551493,1.949502,0.9963012,-0.3038621,-3.9714856,0.10527992,1.8873625,-4.674275,-2.0697112,-3.224135,0.57752323,-4.642263,1.5297632,-4.1531944,3.3328362,4.7250404,1.7229514,-0.1000638,2.8202515,2.8664918,-3.4846048,4.7813883,0.5014887,1.0326385,-3.1743836,-0.1501112,0.28168774,-3.9130616,-1.2660689,-1.3956385,-3.298318,0.46947575,-1.6541357,-3.094192,4.1306324,2.8539534,-3.4957933,-3.7138753,-2.4707603,-4.6675396,2.7394276,-1.7930751,2.140737,0.69046736,4.357176,2.790792,-3.985207,-3.835193,-4.4654346,-2.8247876,-3.1619966,4.2826433,1.0642624,-2.0216436,0.85797024,1.2298989,-2.7258368,-3.9016647,-4.3032446,3.6714487,-0.3047657,2.5880098,2.183783,1.3585005,-4.55527,-4.023065,-1.124794,-0.37558985,-1.6213589,-4.491229,-4.3044624,3.6374893,-0.8007841,0.031416893,0.87466335,1.663516,4.9111805,1.4573722,-2.6039762,-2.1891088,4.1835346,2.0277972,2.7556276,-4.210848,-0.9333229,-0.9779806,-0.55187273,-4.007211,-0.9241638,-3.8079822,3.0181484,-1.3924222,1.5831575,-4.568282,0.9386592,-3.8731682,1.5463877,3.4440832,-0.8978586,2.0817037,-2.1772294,-3.6071782,-2.874391,3.8102121,1.798306,3.6559668,-1.2564337,-0.46434832,1.3002963,0.14446354,-2.1678185,3.1069574,1.9551282,1.3422928,-2.0302284,-4.6993275,-2.4267073,3.0618563,-2.474422,3.8540936,-0.050559998,-1.849585,0.8313799,0.5893655,-4.387683,2.7632241,-4.199033,4.5796146,-3.051014,0.22170639,-1.1408103,3.0300446,-4.0310307,-0.2899189,-0.5977955,4.4594564,-1.1010277,-3.0573022,0.4526024,4.976922,4.4945745,-4.416847,-0.5707507,3.152794,-2.3256898,-4.044934,2.1024294,-0.5496831,1.0155277,-2.3117905,-3.3448262,0.99255276,4.0770216,-4.9570236,-3.4187694,-2.353826,3.6362543,4.0243473,-1.0467834,-1.0574098,-3.9010673,1.0094156,-1.7825623,-1.5349233,-2.124024,1.2265439,4.3975887,-1.2070489,-2.0007563,-1.6905117,-2.8999412,-4.569965,-1.6698723,-3.1683044,0.29581738,-0.45044804,-2.2344577,1.8297582,-0.8825631,-0.80554676,1.3261561,-4.3497996,4.282563,3.4519024,-1.9455314,-4.4129076,1.0274954,4.4913054,-3.074191,2.4295292,-0.23534536,3.9052668,1.6070223,-3.4414,-0.22792435,-2.964377,4.6317616,-4.600833,-2.0319467,-2.3839478,1.4768624,4.4159184,-1.0516071,-0.6438427,-4.0296454,-2.6877522,4.9207,-2.239079,2.4705248,4.954028,-3.2258666,4.773546,0.8183298,-2.3242693,-0.9378867,-3.974663,-4.2618246,-0.9539356,-4.0797205,1.6063204,3.4670181,-2.3736358,2.3587437,2.0964546,-2.9661913,0.22867107,1.672267,1.410924,3.5227194,3.382392,0.95343685,-0.74807215,3.7779932,-3.3404417,-1.8495202,0.82381344,-0.6565771,-1.475079,-4.235739,3.2511349,-4.88082,-0.11583853,-1.8789768,-3.9439404,1.4574108,1.6980767,3.8078566,3.0724955,-4.019988,4.025837,-4.755916,2.7569351,0.5067105,-0.6602292,-4.3074894,-2.3243766,-2.174881,2.9102855,-3.6383014,0.8254719,2.486206,2.4338627,1.4071345,-3.8277965,-4.641866,-4.8170815,3.0114708,-4.747366,-0.8645191,-1.6711164,2.5294762,3.22655,2.210186,1.098876,4.0022144,0.72563887,-0.2901082,4.4881506,-4.4579535,-1.974715,2.9593778,-3.2755494,3.4134293,-0.7319875,-0.2628355,3.9105835,-3.3830714,-2.441535,-3.5602002,2.4629202,-1.5220606,4.082327,-1.1581116,-0.77140284,-2.2286642,-3.0348337,-3.3415933,-4.7300186,3.4815512,3.4852142,-4.313395,0.09303284,-2.0499122,-0.8113613,-0.9563608,4.284006,0.26581478,-2.841562,-2.5397074,4.745346,-0.3094411,0.65732,3.4450903,-3.1001174,2.3144474,-2.5472121,3.0363836,-0.7824254,-2.6850271,2.7994509,-2.887528,-3.2459927,-1.5358286,1.9097366,4.009506,-2.133094,-2.2393699,1.8098059,3.743761,1.8958974,2.6569433,0.55238295,4.408229,-4.695482,-1.3993931,4.871456,0.88138866,0.62047863,-3.6514175,2.942483,2.179822,0.3204322,-3.5224056,2.0602388,-3.834697,3.090107,2.37962,-0.15320063,-0.42602968,-2.429945,-1.3013446,3.9788237,-4.617892,4.9431543,-0.5999651,4.52042,4.9383383,-3.3604412,4.866743,-4.5587683,3.436678,-0.22509098,3.9510603,2.4774065,1.4840546,-4.5961356,2.6015615,-1.3063288,-4.798071,-4.3402843,-4.999008,-0.9640546,3.8847017,3.8643637,0.19510984,1.2156534,2.046266,-0.06662321,2.3576164,-2.3086662,1.2222743,-1.1819637,2.460806,-3.9271152,2.8659172,-3.6264694,-3.881237,2.9957304,4.802603,0.26293707,-1.5082026,4.1238775,4.647028,1.7304621,-0.45167875,2.2839694,-3.1206298,1.7729225,-0.23191643,0.6884632,-1.6040583,2.8585186,0.81788826,4.4926605,4.1189203,1.2956004,-1.842833,-2.3693085,0.41931534,-2.77802,3.36666,-0.40564442,-0.7069154,4.732768,2.7661223,-3.2818956,0.26536942,-0.79079914,-2.1161866,-0.07168341,0.50553846,2.4494748,1.3135242,1.2404242,3.2610798,-1.1975174,1.7117395,4.5712404,1.78442,0.97263145,3.8933935,3.2697277,-0.5431962,2.787446,-0.1298995,-2.3390484,-2.5219722,-0.6561003,-3.322174,2.3022084,-4.532476,4.354271,-1.7852712,-0.7350297,0.1593132,0.76859236,-4.950609,3.6520548,-4.4513874,3.8474236,3.656622,-2.7778869,4.066991,-1.5732889,-1.903997,2.5542808,-0.96372986,-1.6679721,-1.3537045,-4.674151,-0.6489892,-4.264392,-3.3136039,-3.024006,0.5261688,2.571866,2.5304947,1.0960956,-4.9149714,-3.117909,4.2137327,3.897396,-3.136458,-1.4684172,0.044370174,4.438801,-3.4384024,4.8195086,2.1057134,-1.9010787,2.3199754,-3.464511,3.8997974,3.295597,-4.4183307,1.9265413,3.5552893,1.3563814,-0.66838074,1.6144662,-4.6584516,-3.1650705,-2.3877673,0.6974454,1.7423143,-1.353693,-2.167253,-1.7588031,0.15369225,4.1116505,-0.011432171,3.6276035,3.5371704,-0.9371815,3.690793,1.3667035,-4.6831393,4.6701803,2.4096513,-4.4338446,-1.9580631,3.9214935,0.17733526,2.487338,2.171578,4.8061237,1.018137,-4.2524652,-2.5010653,3.250455,-4.7567997,3.3263884,-2.1257627,-4.2813854,4.0163164,2.4790788,1.5537033,1.7386646,3.9395008,-1.5749974,4.776664,3.12916,-2.4219437,1.656179,4.2147055,1.5816545,3.7674952,-3.2345378,-1.4836712,2.5555997,-4.0156703,3.3866634,3.2017498,-0.71480227,-1.3024969,4.887541,-3.9725966,-1.0129356,-0.5683398,-2.4517007,-2.0844464,1.3045697,-3.4578867,1.3224244,-4.9113493,1.346684,-0.22626829,3.354124,1.9307065,0.4536295,-0.43995762,-2.1861916,-4.2199273,-0.15754795,-0.30878735,-4.583267,-0.20238638,3.5507307,4.5053997,-3.5665102,-1.9760709,4.3476696,-1.1144276,3.8473501,2.3225236,2.814972,-3.7833734,1.2143922,-1.1537242,4.065975,3.8937607,-0.23603487,-0.978446,0.71134806,4.608095,1.9598126,2.4704409,-1.1737621,1.1338401,0.45503044,1.0539284,-2.3083138,-3.1211038,4.380187,-4.3550797,0.7951946,0.36148024,-3.5710323,2.9842653,1.2707143,3.4305677,-4.8149114,2.7641268,1.7114763,1.55446,-3.2064664,-4.1362567,-0.64228296,0.95498323,3.3322592,-1.002444,-0.59619665,-3.3571215,-0.9815254,-0.75224686,-0.7298393,-2.1924706,-0.3285923,-1.0153687,0.0927825,2.9707294,-0.072086334,2.9685097,-1.2930803,3.979331,-3.75042,3.0178137,-4.7032585,-0.07351208,-1.2961512,3.7163048,0.84373426,3.6145058,4.3247976,-3.77912,-2.691193,-0.8331518,-4.4301205,3.675928,1.196435,-2.2182388,3.9835224,-1.6779857,-1.081595,-1.7782509,3.3242884,-1.9035268,-1.8862689,-3.700049,-4.253549,1.2976522,0.6272845,4.2287884,1.9403801,4.543788,-4.4756513,1.5411329,1.7473311,-0.2791953,-0.121341705,-3.098557,-2.8658743,-3.144576,2.8277016,2.7973566,-2.47899,-1.226428,0.76496077,-4.6120906,-1.1015499,3.697854,-0.53096724,2.5801277,2.5617604,1.2145958,2.0619097,0.89557076,1.8209963,-4.435936,3.0559587,-2.6351638,1.4687986,2.8345041,0.47049522,-3.4584422,-1.1470056,-0.62857723,2.519598,3.2963629,0.67780495,0.03358078,4.7470236,1.0350184,-1.1919231,-0.8529482,-1.8482685,0.94240475,-2.7354777,4.4741907,-0.58061886,3.8903103,4.1768484,-0.627151,1.9666872,-1.2417107,4.416851,3.440545,0.29547167,2.8159375,2.7065058,-2.2894073,2.204296,3.749567,4.360099,1.2038302,-1.4412284,-0.31377697,-3.0934768,-1.6072397,-1.7289896,2.7169423,4.2298203,-1.1309795,-4.6587276,-2.4802577,1.0023918,-3.323282,1.3859091,-0.948153,-3.0915916,-1.7277341,3.719799,-4.7977724,-2.0950127,4.0748224,-2.3577023,1.1639671,1.4459558,-2.1908116,-3.23947,-3.9886546,-0.3388524,-4.2782984
3.0857553,-0.19813013,2.858368,4.1849213,2.5361137,-2.5912075,-2.1855748,-1.160363,3.2828283,4.9425993,1.6060996,4.744318,-1.5033464,0.37981033,-4.8695154,0.15463924,2.360435,1.4508924,1.9568405,1.0762396,4.2386427,3.7867746,4.2292795,1.0921068,-0.4966507,0.08712196,-1.5462618,0.38952112,-0.31812954,2.2595358,1.8915205,-0.77095747,-2.7900171,-2.6389694,1.2922754,2.6531277,-0.41055202,-0.5859413,-0.18964767,1.5794568,0.5075617,1.5229645,-2.1997995,1.2820077,-2.8817093,1.0819254,1.2070456,1.4799995,0.95262575,4.0314856,0.75909185,-3.5389953,0.048379898,2.234232,1.6490412,-3.4220486,2.9137297,-1.6079795,-4.7799344,-4.4802833,-3.0661373,3.44703,2.1464295,-0.19162178,4.1499367,-0.39445305,-4.008107,-1.7297614,-1.0720873,0.37783575,3.9334936,3.3764524,-1.795917,-1.4277287,-2.6422758,4.335436,1.9008346,-0.4992385,-0.9514165,1.7468262,3.6475153,3.611353,-2.7110763,3.685196,1.1762228,2.9438229,2.4296618,-3.1804228,-2.4119096,-3.1400573,-0.8599081,-2.3028529,0.7953081,-4.9767785,-0.15467548,3.2215347,2.087874,-2.4187355,-3.7443895,-3.9530218,-1.0414624,3.1124563,-3.6599584,-2.08318,-1.267324,3.7014065,0.82940197,-3.8154304,-3.2949007,4.7308636,-3.7096334,2.2878141,1.5830321,-3.8378477,1.8417082,2.29922,2.9127975,4.226137,-1.9031243,1.5785365,4.1247873,1.1496024,0.9591603,0.17077827,0.9721985,4.86436,-3.8865018,-4.333489,4.070256,-0.42524052,3.2349272,3.5252743,4.4025116,4.784027,-0.17114353,-3.2293367,-1.8505855,2.9982138,-1.7620826,0.31285,3.1019125,-2.4643927,0.05234337,1.5724082,4.0111046,0.12908506,-1.3217664,4.2781143,2.2239661,0.85982895,-4.3512697,-2.8363376,-2.7125173,1.3407011,-1.4094055,3.1446648,1.1306977,-3.033495,1.5208812,-0.4338274,3.7733278,-0.8238764,-2.5947075,0.85062885,1.746582,-3.5047615,-1.4674604,-4.6303463,1.2646399,3.6171083,4.794012,-3.0051649,1.5550623,2.1292834,-2.0775561,2.2038841,2.4055119,2.3483534,4.5423307,-2.4967961,0.69301605,-3.396018,-1.8005733,-3.3760297,3.1868563,0.116443634,-0.4746542,-0.74698067,-3.5532146,2.8277087,0.8810377,4.3563204,2.1729822,-4.7957115,-4.703913,0.050869465,0.4981494,-0.2611966,1.9959016,-3.423245,-2.247662,-2.7623158,1.4211626,0.042067528,2.0311456,1.2116456,-1.5458763,0.5399437,-0.27255487,3.1134691,-4.7026978,-3.3130126,4.3264017,-3.0553663,3.8025932,1.1384349,-1.2160511,-3.0901647,1.4284682,3.299634,-0.8936305,3.0945854,-3.2082903,-0.1801796,4.8413057,4.872693,-4.4670124,0.2769699,-4.8875194,0.5885649,3.4056492,-3.5421562,-4.441154,-4.3610053,1.6617718,0.5789428,4.63801,-1.7831445,4.89849,3.8164663,-2.014193,0.6741495,-3.8849592,-2.5903714,2.4802742,1.1553383,-0.6855383,-4.2414503,1.3597441,1.7730546,4.793681,2.354823,4.4767857,-3.9926248,-3.673787,0.11820555,3.959816,-2.5880444,4.06129,-3.3762872,1.3842254,2.4637346,-0.77296495,1.5462122,3.2497587,3.549265,-1.4002872,-2.701068,2.88807,2.120586,3.5942326,2.3623228,3.2739296,3.7331467,3.2982607,-2.6999962,-4.593292,1.2589407,3.172904,4.9786577,0.8789749,4.3350954,1.5524015,-1.1527495,3.3627062,3.6692562,2.6959581,-2.0758069,0.789166,-4.7935276,2.1828022,-1.1036968,3.115386,-4.2121325,3.3654966,-0.55771255,-1.4533515,1.861651,-1.8612182,-4.27392,1.1556168,-3.0966787,4.075967,-2.8412848,-3.041995,3.7088928,-1.1245346,-2.5796545,-1.5241747,-0.014845848,3.4015427,-0.95386934,-3.0487502,-3.426479,3.5124216,-0.71849775,1.8755798,1.80054,4.1849146,4.196414,1.3209839,2.981059,0.41049528,-3.8744636,-4.0983877,-4.965994,3.7397518,-3.2957644,-1.5016806,0.6788578,-3.8643913,3.448989,1.762795,1.7687807,-1.2171264,0.98954296,1.4436855,1.4414787,3.7269936,-1.021812,-0.5854778,1.2043567,-2.2082992,3.3488302,-2.9682207,-3.207118,2.0893383,-2.3662925,-3.2638228,-0.76852894,-4.519382,3.716917,-2.855699,-2.4266272,2.798142,1.2601757,1.7130461,-3.1273513,-0.07884264,-3.8967204,-0.89904976,-2.3510516,-2.5767863,4.0966473,2.0492134,3.462181,-2.3533523,-3.4633522,-2.0148306,2.5603604,2.8854203,4.980958,1.7278299,1.8257284,3.7165813,2.7443972,0.02596426,-3.6395824,1.2289214,1.6663604,1.9891572,-3.2939816,1.8800373,-1.2102013,4.9748964,0.59551334,-0.2567191,4.157715,-4.4910192,3.5380592,1.2237196,-2.3296297,0.33014488,-2.7391868,0.5371723,1.1121817,-1.2393432,-1.9785242,-3.6761928,2.7631416,-2.219904,4.991024,-1.743567,3.726489,1.0464244,0.3559265,1.3511491,4.707449,0.9229021,3.354124,1.7971158,3.2401047,-0.022769928,1.4684429,2.568211,-3.0261726,3.2087927,1.4649987,4.275094,-2.9249482,-2.1128817,-3.987708,-2.087882,-0.26979685,0.18777084,0.0050992966,-4.383659,3.9042835,-2.6286178,-2.3619251,2.3333907,2.9380412,-3.4525883,-4.8118253,3.2751417,3.888753,2.5534697,-1.1869435,-2.7294536,-0.022545815,-0.88885546,-1.5348105,-2.3545694,-3.2650833,4.1038914,4.512848,4.547283,3.6290274,0.57430077,4.3185215,-0.99241304,-2.6674824,0.71827507,-0.4102497,2.34343,1.7153902,-2.9008508,3.8436842,-0.25317574,-0.97176933,-3.7862968,1.8031931,-0.1867981,4.6754007,2.554912,-3.8505638,-4.3007956,-4.705889,-3.0183053,1.7945457,2.786746,2.2274523,-1.417747,0.6279564,0.5721326,4.8444357,-1.7149222,-3.9415245,-2.1009898,0.8520918,-2.0382853,-2.3475564,3.3814173,-3.928328,-4.766724,-0.60410213,-0.916893,0.047100067,4.750224,-1.3378615,-4.1599584,-0.48807907,1.0680571,1.150054,-4.2869396,-4.9779797,-0.8576889,3.3748837,3.9268837,0.2669711,4.6468935,-4.5446105,-3.7377696,0.7053356,-0.37805748,-1.2841754,-4.84587,4.0199575,-3.3559089,2.1473246,-0.59195995,-1.317039,-0.16767883,3.7353,4.5125046,-4.350555,-4.380847,3.9956722,2.0030518,4.5840635,2.8435416,-3.596857,-1.6451077,-2.50484,-3.442883,-2.4472678,-0.15137005,-1.4389105,3.9389982,4.6357527,-0.08093071,0.74775696,0.33217335,2.4595518,-3.5540771,-2.644055,2.3948073,2.4990969,-1.1032939,4.166375,-1.9922276,-3.9402003,2.0645828,-4.725597,-0.3203907,0.9636822,4.565052,1.4544082,-4.112289,1.1281958,-0.75453997,-1.2094522,-2.0027125,4.042287,-4.991681,-2.238719,-4.3710713,3.6368456,-3.4017265,-1.786725,-3.4780293,-1.6168165,-2.2514434,-0.8503194,-1.280837,-1.3426912,2.957901,2.9951105,3.8649826,1.6903629,-4.492074,-0.9354086,-4.8024616,-4.2125516,2.790544,-2.0198913,-3.080119,4.425991,-2.1567225,0.98838806,-4.111343,2.6587667,-4.581735,3.6098824,3.8964949,-3.4988177,3.0293093,2.1742744,-3.3407986,-2.9543746,3.2122211,-1.0064614,0.43241978,1.0892224,1.5096531,1.5818596,0.22592735,-4.57321,3.0771904,-4.0586147,0.54774666,0.43666935,0.2361989,-3.100828,-1.202246,0.7526398,-3.7531316,-2.403047,2.234682,-1.353414,-4.4066467,-1.3182516,-1.7134869,-3.4249907,2.3847055,0.11551809,-3.4415615,-0.56460285,-4.8758497,4.1417904,0.38313293,-3.3096867,2.7476668,2.6904154,-1.7229514,-0.8094716,-0.04281473,0.950315,3.8475819,-3.4863758,-4.338546,-0.8149743,3.9033146,-2.7988684,-4.16197,-2.9840035,2.9846025,0.105820656,-2.6821752,3.9745579,-1.150521,-4.030772,-3.4795892,-4.851031,-4.279594,2.6169214,1.3462157,3.8298492,1.1907902,0.57608986,-2.4352117,-4.2666206,3.2590046,0.83094835,-2.2149782,4.03551,-0.7585001,2.8007174,3.9337616,0.43282413,2.0091438,0.60103035,3.7540998,3.8187294,-0.15102339,-2.7682054,1.740387,-1.2903147,1.1604309,-3.7134223,0.8503609,-1.5088625,4.4397764,-2.464584,0.7970376,-2.619201,-3.445233,-1.5210366,4.7520742,-4.158817,4.315482,2.5943131,-0.4951806,-2.8550239,-2.4853766,4.253621,0.5161247,-0.107824326,-1.4641929,-0.46816826,-4.744339,-0.97495365,-3.4631734,-3.2081044,-1.7679417,-1.9720654,-3.438918,3.9723454,-4.255947,1.1569614,-1.6647172,4.310499,0.3112073,0.90302086,3.8951797,-1.3220663,-2.0088136,-4.7087917,2.762066,1.5125756,-4.0153794,-2.8113346,0.5044975,3.397046,-1.3434892,2.4083729,-0.5269728,-2.6284027,3.921236,-0.6113949,-2.9170632,-3.3361793,-3.135208,3.1196213,4.200946,1.8641977,4.3831997,-3.00149,-0.87882423,1.2195101,-0.33929777,2.427784,-0.24131346,0.39749813,0.36653805,2.8854823,-4.2282352,-1.259809,-1.3733106,-4.301279,-3.0560744,1.4045238,3.2012138,1.575757,2.0019016,2.156157,1.6399341,0.23476124,-4.8368444,1.3205042,-2.495402,-0.2587595,-2.1936293,2.643662,-4.8894477,1.4614959,-0.72215176,3.201476,4.512665,-4.3315797,3.8218765,0.3964386,-4.45516,-3.722095,3.097827,-0.7716751,4.8782635,3.403202,3.6811457,4.2974873,2.9128928,0.4389429,-2.0579119,-3.710279,4.6557865,2.2554512,0.13965225,0.46946907,-0.63210726,2.8759837,-0.77922344,0.5220599,-3.450212,-2.233194
-1.3044958,-3.0340867,2.7453384,-4.5480833,-2.5033844,-3.7250524,-1.7414498,1.5404291,4.490879,1.8957338,0.72190714,2.3817348,4.4076576,-2.933312,0.4419117,-0.5279045,1.619544,-0.30644464,-1.1734991,1.2351155,4.3229446,2.1786547,-3.109748,2.8754292,-2.1001463,4.080118,2.0958557,3.0651054,0.14345598,4.8393593,1.602788,-2.8793244,0.7201462,-3.6058319,-2.2026129,4.868389,1.24049,-4.3267274,4.802495,-2.4076672,2.4205484,0.33799458,3.7564888,0.33587742,-3.8997424,-4.8167896,4.68478,-3.1469667,0.39387274,-4.5681887,1.3049898,-2.634232,4.7674055,3.3112059,-1.0380077,3.7556992,1.5871906,2.9612517,-3.35312,-4.8300114,-3.2569396,4.9782524,3.4440403,-1.8006384,-1.7910867,-4.7438474,2.0882425,0.76800823,-1.914202,-3.3293343,-0.01614666,4.9708195,4.510723,-0.5819802,-0.0231781,3.7247229,4.8780003,0.7815733,-4.048261,-3.8575392,-4.2830606,0.6110673,0.05892229,2.8893166,3.1103134,-1.2805152,-4.971476,1.5619516,0.8820677,1.5877409,-2.7110314,-1.5539491,-1.875835,2.3803372,-4.260039,2.0775032,0.5189204,2.0425148,-2.8611655,-1.5675597,2.8176756,2.332942,-2.3546886,1.031271,2.194296,0.57702446,-4.9929247,2.098609,-4.278719,-3.3114762,4.4342813,-3.7338476,-3.2817006,4.672537,3.3540344,-4.6062813,-0.8555412,-0.95282745,-3.9443798,2.321422,-2.3701417,-3.7088537,-1.7826324,-4.918231,-2.4424453,-3.9818792,-1.5456998,-1.6948156,3.5627022,-3.5104675,-4.03967,0.8232236,-3.0462508,1.855259,2.2861872,-1.9836192,-0.7096243,-0.2430768,-2.3745823,3.1868582,0.36043358,1.5989347,-0.703485,1.6320825,2.658629,4.632656,-4.4048967,-0.32694244,-2.3309464,-3.5596485,-4.1466618,-3.643765,4.1965284,0.35245228,4.654421,-4.1427927,2.6453185,-2.011739,4.072319,2.2404485,-2.824304,-0.17407465,4.567836,1.9791846,0.6665063,-3.2433224,-4.9905186,2.5774813,2.7774334,-3.5182424,3.4582767,1.5235052,-0.026169777,-3.4115803,1.2904654,2.7560806,0.9042635,-1.6961813,0.17969084,4.397255,-0.19812632,4.0413303,-2.0075595,-0.40148258,4.728361,3.5785265,-2.4088163,0.85634804,0.66820335,3.0052443,2.9690385,0.5671234,2.915277,3.312603,3.002531,-4.6897955,-3.4330158,2.8089194,1.8916893,-2.7908087,-0.3285904,-2.472561,2.354393,3.4416723,-0.28987503,-0.8470912,4.9214315,-1.7834787,4.804179,-4.147928,-4.4669323,-3.1910486,1.1051469,0.4465251,-4.4780693,-2.5147963,1.6904907,-3.1766891,-2.774456,-1.8827271,-3.5021389,-1.8312664,-1.9861598,-1.8954678,-0.5494971,1.588789,-0.7899084,0.3187647,-4.3736105,0.3462243,4.8066025,1.5532594,-4.7428274,0.8323364,-2.5254707,3.6400394,-0.7073517,2.0009923,1.0212831,-2.9949367,-1.5743291,-4.6559744,2.201528,-4.3713512,3.27606,-4.0738945,4.6587486,0.1845274,0.021549225,-4.1627626,-3.6073446,3.643919,-3.5883932,-2.0510788,1.286109,2.1605926,0.80212307,4.2272377,0.4201436,-4.0903864,2.3403254,0.4102192,-2.722379,-4.727133,2.0989747,1.8489866,-3.1224012,4.959547,-3.8324137,-4.7738357,2.5185356,-0.20144844,0.2767949,0.41349363,-1.1679709,-0.39058733,-1.485631,0.8705716,-3.3356042,0.28650188,3.2229939,-3.9546947,-1.1661296,-4.057393,1.4077768,-2.568429,-3.162942,-0.40133286,3.6457891,-4.537571,-0.4410367,-4.7947245,3.0089512,-2.053895,1.2400775,-4.955271,4.506934,1.6505003,3.2213345,4.223675,3.589138,3.1807127,2.7868133,-2.7819877,1.041143,0.5727291,3.7674704,4.739233,-4.293986,3.2129803,-1.640867,-3.8618934,-4.3977447,0.96235085,2.402093,3.1814375,-2.3646462,2.9117165,-0.1234107,1.0910692,4.3363676,4.8309584,4.1974344,-2.4369068,4.066454,-2.9947317,3.9881964,-3.5412776,4.836233,-3.8319225,3.6057558,-0.66186,3.5688534,3.1916199,-2.933169,0.87482405,4.843704,-1.8224776,-1.1176114,4.195614,0.013443947,-1.2892771,1.3442903,1.0803509,-0.7956338,1.0190277,-4.2096357,-1.8468041,-4.545141,3.5263977,-1.0694945,-4.432336,-0.6669111,0.58856297,-3.8744485,-4.559405,-1.4287472,2.8408098,-2.6816015,1.0024996,-2.1648884,2.931922,0.87859535,0.26446867,-3.0636187,-3.9371395,-0.86215925,-4.006848,-2.9811382,-4.4698377,-0.77242184,0.7256031,-4.9920654,0.6703181,4.2742014,0.27874565,-3.8088636,2.112114,1.6723485,1.4320374,-3.3765597,4.522565,-3.4687269,0.7523041,-2.8026044,-4.8883247,-1.3635802,-4.8907003,1.2162066,3.5838537,-2.3426247,-3.0063272,-4.608209,4.643305,-3.501635,-1.9614248,4.030381,-2.2236733,3.1110086,2.4986959,-1.9903655,-2.6481671,2.6323662,2.4246979,0.30679512,4.104741,2.7234178,4.6434774,-0.9247217,-4.9921923,2.2800102,1.8261805,2.590735,1.0029168,1.9512005,4.9798183,-1.4164412,-0.6152816,0.64712334,3.1625671,-2.921989,2.3642802,0.087115765,-2.4564207,1.7070513,3.7456846,-3.3007379,3.8967686,-0.17682981,-1.156394,1.8454928,-0.91593504,1.179182,-0.6167984,-2.6517844,2.7719603,-1.6504872,3.6729202,0.41287327,-2.5563889,2.4802113,0.92244244,-1.7005725,-2.3346305,-0.04094839,-0.7227683,-4.9332423,0.5543809,4.9144087,-4.8022056,-2.6932101,2.1650434,-3.9267385,-0.43143082,-1.2543929,3.6655693,0.032517433,-1.6583343,1.7535315,2.4100332,0.5084467,-1.1555023,1.4641662,-1.8230331,2.6092153,-4.0934343,-1.4568667,-2.1086156,-0.9902959,-4.2717175,-0.11269617,-2.653925,2.4382591,2.9701233,-4.7812834,-0.79979944,2.5271378,1.6133394,1.8596225,-4.4238806,-1.2127585,4.8399153,4.2875843,1.9875975,-1.9961934,3.9219503,2.1971092,-1.8882017,2.0213423,4.985279,1.1680694,-4.8915377,3.4958477,-0.6466193,-1.3777721,3.8787498,2.6860814,2.1157937,3.8053331,-4.296009,-4.2864995,3.7593079,-0.4309249,-2.9070525,0.28402138,-3.9611697,-1.129796,-1.9796758,4.3738194,0.010586262,2.795555,-3.0973208,4.976552,-3.756947,0.5699997,-3.8973618,-2.6709933,3.880147,-0.8591056,-2.702179,-1.8024373,-4.046489,-2.082107,-2.8470874,4.9675035,-3.9795737,-3.7945092,0.9837589,0.77149343,3.5761576,2.1759505,4.6962824,1.1347866,-1.4958417,-1.0193491,4.347396,1.2930675,3.8314877,0.65185595,-4.227499,-3.9824991,0.57677364,1.3892102,0.5291438,-0.6116581,-2.7307594,-4.3844867,4.61594,-3.3225722,-4.4389133,3.701435,-2.236219,2.0667763,0.5706029,4.6499643,-3.0465448,-2.321424,4.1847935,-3.0588257,4.578928,2.0155616,4.939288,-3.8917737,-0.19338179,-1.0962558,1.6211791,-3.7471461,3.05729,-2.0782094,3.6821566,-0.7220912,-1.0445857,3.4003296,0.9638586,-1.0657053,-2.5452595,3.0606375,-1.8559914,-3.923109,-4.0106273,4.2550106,1.4916201,-4.797664,4.4744043,-2.0133228,0.115168095,0.188725,-2.0058715,-1.6704292,2.1000175,-1.4269714,-3.364712,4.549844,1.511786,3.845808,4.335083,1.3980684,2.0516052,0.71858025,-0.5336757,-1.0924406,-0.5654788,2.2206922,4.823908,2.2816935,4.31229,-1.6830568,2.1437492,-3.358502,-0.09771061,-3.634004,-0.6641321,2.2712493,-3.4227614,-2.2100508,4.784587,-1.5334697,-2.8921027,4.528167,-2.2626495,0.7640028,2.2851,-4.0355034,-2.3721755,2.719945,0.5850649,-1.9434791,-2.6160555,1.9955993,-0.12134647,4.784811,-1.5220726,4.821165,-4.3177776,-2.9285383,4.536875,-3.8079405,-2.1405149,-0.97681284,3.3405714,-1.4420199,1.8733511,-3.8211484,-4.4145613,-1.5686452,2.9458623,2.3960629,0.41190052,-4.955149,3.3251057,-1.066848,3.6485262,3.8328638,2.8207707,2.0736403,-0.59879875,-2.4035425,-4.8277807,0.94446135,4.1922054,0.44797516,1.7800064,-4.9680586,-1.7260098,1.685936,1.9390526,1.5791793,3.0706253,-1.998651,4.450657,-1.2618656,-0.67527676,-4.8332906,-4.729211,2.390687,-1.7070222,-4.971489,-0.4851284,4.8859024,-1.8166256,1.7704482,4.930794,4.883975,1.0423012,-1.041354,1.9108801,4.4559565,-4.1061716,0.74616003,-3.1591034,1.4701071,-0.47410727,0.7135353,3.6943045,3.1756659,-0.6959753,-2.0062594,-4.610574,-2.3989236,-3.9994526,-2.0983088,-0.42701912,-1.8879199,0.53503466,2.3416305,-4.9872327,-3.546368,-4.9123974,3.9645138,-4.6615524,-1.4580698,1.9832897,-0.59756947,-4.852099,2.2198462,2.6555686,-4.009735,-1.1631036,-3.930068,-0.94317055,3.5454855,3.488985,2.4738388,-3.2373178,0.04718399,-3.5370994,2.531808,-2.9459472,2.2854366,2.1769562,-3.5654802,3.249012,3.1060781,1.0827074,0.85074186,-0.90156794,1.3134537,4.657154,-3.9189653,3.9793758,2.641871,-4.9173822,-1.1814141,4.100706,-0.933383,-0.6169548,1.4703388,3.864337,-0.16299772,1.0623398,-0.77779484,-4.941657,-3.0746408,0.34514475,0.41790724,1.7940478,2.2324424,1.3485484,-0.7280259,-4.5920773,2.1874285,-1.3689404,1.3388548,3.1778479,2.7777348,2.904611,3.0158224,0.8774667,-3.912928,4.0833607,-3.2990117,-2.3995376,-2.085991,-3.5194178,-0.40279293,-4.224792,2.392397,-4.8744783,3.6351824,0.63638115,-2.9287982,3.0346622,2.3800416,2.0219717
-2.043178,3.7290678,-3.4034252,-3.4241831,-3.1807513,1.8173008,-3.1941926,-0.58928585,4.928563,-1.7658544,0.1942997,-0.6937194,-3.365881,1.1257262,-2.9378061,1.869215,2.059402,-2.6558566,0.55827236,-3.7119513,1.1515245,-2.475971,0.71452856,2.9706264,0.32980633,4.453269,2.6840143,-0.020544529,-2.362523,0.36377192,-1.2472458,4.579714,-1.4864719,-3.1717873,-4.626923,1.2498779,-0.58187485,-4.174957,-1.9571633,0.7652211,-2.9701483,-1.5627785,3.6610718,-4.0379148,0.71996784,0.49571466,4.2193613,0.6364589,-0.6396189,-2.8634214,3.160225,-1.234057,-0.08925676,4.317525,-1.5757613,-0.82473516,-2.427448,0.99712753,3.1607008,-0.21944046,1.3883438,1.2134714,0.7365532,-1.8789988,2.3259883,1.7153172,-2.934391,4.8772,2.6222715,4.113783,-2.8539896,-3.5843778,-1.5215163,-4.8313503,4.9741755,3.871251,4.621563,0.19321537,1.5752974,-0.030266762,4.821268,-4.7060513,0.01492691,0.92618465,4.87045,0.012646198,4.489601,3.9583912,-1.2123609,4.8597937,4.0022964,-1.5137815,-3.999641,-4.2898583,-4.1737165,-3.6637282,-3.7968273,-3.004139,1.3490686,-0.42427254,2.0722656,0.799078,-3.6685605,1.8878641,3.971509,2.864118,3.346756,-1.2424898,2.0316882,-1.5950191,0.13032484,-1.1911464,4.470237,-0.36357784,0.7737036,-1.0408397,-3.4348571,-4.8639865,-4.5214767,2.884729,2.1056418,-1.2242837,-1.1656766,-3.3581643,-1.2297254,-2.8069382,-3.3511238,4.863614,-3.9457698,-2.141015,-1.6696441,-1.1464632,-1.4810097,-3.931564,0.77046394,3.6405382,-4.826283,3.185567,-0.5259657,-2.661789,-2.8396626,-2.449919,0.57005835,4.613062,2.5769262,2.468257,2.087913,1.8913107,-1.4158721,-3.804289,-3.630997,-4.264112,-1.6238613,-4.216399,-0.5138688,-2.0040603,4.6726646,4.054242,2.5014071,-2.2173798,3.8587294,0.26998472,-4.2267523,1.3617449,3.6929455,4.0089703,1.0182357,-2.317208,-2.352602,1.7033505,2.2794209,1.2570591,0.5185704,4.8024607,1.9551954,0.5785475,-1.5337996,-3.5294752,0.21754456,-3.403412,3.72676,-1.7934985,4.48878,1.3144183,-3.1548321,2.7725291,-2.2916162,-3.997447,1.3443942,2.8385968,2.6334524,3.749257,-4.070976,-0.45070696,0.21162748,-0.08979845,-2.9432635,4.8343563,3.1016235,0.800962,4.0103664,3.5555592,-0.64963865,4.1300783,0.084766865,4.8042173,-3.683527,2.825224,-4.2595234,1.6060925,2.805069,4.0434723,2.2021923,2.0675344,2.37571,3.9746628,2.6975355,3.5370703,-2.19558,-3.1967478,-4.791771,3.711318,-2.0093238,2.5076303,4.204174,4.2381725,-0.8604808,-1.3141048,-3.4896338,2.9995866,-4.422372,1.4752512,0.7906914,-2.1845555,-1.8068194,1.8881536,4.020034,-3.7492466,-1.8503618,-4.811289,2.060556,3.03306,1.2560263,0.9339161,-2.6057541,2.9941473,4.248806,-0.90889835,1.4344664,-2.0064723,-0.41089058,3.0471878,3.8369837,-4.320902,3.696166,-3.919032,1.451592,3.1997442,3.7608986,4.7113094,3.6850014,4.3387585,3.2743063,-2.5870042,-2.7502608,0.5103016,-0.0637207,-1.0104358,-0.2377348,-4.8472395,4.0055656,3.8161488,4.236042,1.3751945,2.1114683,2.1033025,3.600029,-1.5502405,-3.7402196,1.1999612,-2.5547786,1.5035572,-1.8083417,0.41934204,-3.1590347,-0.086827755,2.9159899,2.6636772,-3.8122594,1.9130664,-0.18879986,-0.14217615,1.4972734,-1.3034868,0.42199087,4.9176874,-1.4299078,3.5303507,-3.4935367,4.623637,-0.47698498,4.3386335,-4.280648,-0.2675228,-0.50664043,0.09690046,3.8403597,-4.7839074,2.2097044,1.2522435,4.0024357,-4.2300434,-1.5728874,4.3745356,-1.7377532,-1.0675769,-3.7793446,-1.2369604,-1.8142314,2.2783275,4.168501,-3.5530174,0.1166029,0.17327118,-0.60391665,-3.7388258,3.7550564,-4.4346995,1.1790533,2.4604392,-3.7757916,3.739832,0.7792988,0.34147692,2.7252603,0.047247887,1.9586277,4.865572,1.5696564,-2.2614372,3.2444115,2.871985,-0.43911266,1.4611902,0.70059586,-2.2592072,4.4502687,2.1886969,0.19007921,1.9315395,-3.2262206,3.3482866,3.1172543,1.7054758,-4.254646,3.7592154,0.23810959,0.50982094,2.9582114,2.6156006,-4.817423,-4.0160065,-3.5272336,2.7668638,-1.9401197,0.682209,-2.019651,-0.3829856,0.9380436,1.0022888,2.9408941,-1.1960263,-3.2692022,1.654222,-3.6183798,-2.1697025,-0.030403614,0.5518141,-1.2765627,-2.8601074,2.0446777,0.6950102,-2.6614237,-4.788492,3.9857397,3.5864677,-0.27598286,-4.5865364,1.6176825,0.6289048,-3.356411,2.723977,3.1281967,-1.5018578,0.054203987,-2.410534,1.3553123,-1.9002318,-3.8026428,-3.1437016,0.2021389,-4.018896,-3.6290603,2.4633694,3.0678205,3.4808779,-0.61866045,3.7970276,3.1189709,0.69875336,-2.358185,2.8849654,-3.0907798,-2.36651,1.1948318,-3.2432156,0.6502619,-3.4583628,-4.5686765,-3.6964202,3.5004816,0.58975315,-0.16717052,3.2609138,1.4547758,-0.10074043,-4.0380425,-0.04756546,3.217022,2.8398438,-2.0988588,-3.3638132,-0.44646454,3.4183683,1.2951479,2.927226,-1.1687231,-2.6922183,-3.062572,-0.78388405,-0.6945033,-3.9609468,1.8072529,-2.9355307,-3.6426008,4.118844,-3.206821,4.816638,4.840494,-0.39846468,2.0928378,2.8960376,-2.0226974,-1.3072288,3.9778814,0.7882242,0.8904047,2.2323236,0.1471467,4.117179,-1.2705576,-2.3344235,0.6553979,1.4965873,0.5879159,0.41592884,-0.23586082,-2.090755,2.8131905,-0.89006424,-3.035994,3.5449657,0.9017701,-2.9946117,-0.3262024,-1.0011542,-1.7375631,-3.9890118,4.313616,-2.4907815,-1.3839328,4.205721,-2.1522021,-1.8307769,-1.8354626,3.664793,1.8810425,-0.046178818,-2.6128726,1.7700033,-3.3040988,1.165659,-1.9384747,0.69020176,-1.7386937,4.621565,-4.212622,1.5363646,2.0034795,-1.9940691,-3.9318514,4.3946247,-4.85632,3.4766579,4.3561926,2.16285,-3.6981006,-0.3346758,3.0207138,4.275735,0.9292774,4.302809,-0.040657997,-3.1205983,3.4655933,-4.2174625,-4.5058384,4.5615997,1.8351192,4.4528446,4.0486507,0.79534006,-0.120744705,-0.12502766,-0.65140295,-3.4176075,3.3602867,-2.6882565,1.8489604,-1.6709483,-0.061466217,1.2824912,-2.5045686,1.4520068,-3.0071223,-4.7618856,-1.5546799,-0.7703743,1.173708,1.3705616,2.5018587,3.0179825,3.0368538,-1.706146,0.089202404,-4.609874,-4.1244593,-4.1791315,-4.496455,-4.8052015,0.726089,-4.7697906,2.8350754,-0.0057287216,-1.3854318,4.6284256,4.505293,3.855031,-3.0708961,-0.22427034,-1.0919654,-3.3512437,2.3100939,-0.5692744,-3.6624217,-3.074398,-4.6089005,-3.356225,4.3527966,-2.109617,2.6105204,-2.0918238,3.6079903,2.7520943,4.76453,3.4509249,-0.11505365,3.5934477,2.3787823,-3.3526146,-1.3371742,4.419179,-2.6416187,0.38803864,0.10325241,0.45266867,2.6911068,-2.7757561,2.4157352,4.6564426,-0.040701866,-2.1971364,-4.223958,3.6411743,-0.9365654,4.87945,-0.44303226,2.8311596,-3.4582596,-3.5161018,-2.0267506,0.28074026,-1.9736409,-0.7024803,-0.7694669,-1.5045638,1.0354557,0.8505392,-3.7665582,2.2224464,-4.8334446,1.4447279,3.9254503,2.3412504,3.1206093,2.3080215,-4.6068134,4.590193,-1.6617923,0.5302763,2.0089874,3.0595455,-4.934421,3.5848427,-4.658914,4.8388586,2.660708,-2.1305084,-4.246612,-1.7508924,2.3891683,-1.6666956,2.1945028,-3.2322316,0.4678669,-2.4172096,-0.056636333,-2.5596035,-2.7266657,-0.2548623,3.261201,2.1630945,3.0949478,-2.3865204,-3.3261657,-2.3878555,-0.36483765,-0.38133526,-2.589507,-2.8841734,0.9724512,4.4242926,3.8863726,-3.929509,-0.062354088,4.030801,2.4634323,-4.742058,2.3725405,-0.07810402,2.9093513,1.9099302,1.6768274,-3.3762927,3.1425724,-3.8968258,-0.12822056,-3.889554,2.8554382,4.770153,1.2980266,-2.3132408,0.6721592,-4.645794,-0.30898333,4.450039,2.323833,1.637116,0.27570772,1.129065,2.0427818,3.2298841,-1.5121489,-2.4900472,0.8221226,3.6120834,-3.0913067,3.065484,1.1830654,-2.334485,-4.1695094,4.9956255,2.8432746,-4.0501547,4.202545,4.6006784,-2.23273,1.7530508,3.46101,0.112397194,-3.8844914,-0.91417265,-4.5768714,-2.76255,2.8206706,0.9437394,1.6623259,-0.85158396,-0.605423,-0.81994295,2.2198677,4.4817867,1.7338276,1.7877679,-1.0707974,-1.322865,3.7011929,-1.7609258,-1.4080124,-2.8143353,-3.0473046,0.5927205,4.5245237,-1.1288822,-3.909319,-1.5520716,-0.2177763,-2.165774,2.5102715,-4.033735,-1.4850032,0.77431965,-3.4980054,2.8310165,-2.084422,-4.7142057,3.1565428,-3.0010695,-4.6030912,-1.7397487,4.204671,1.7969217,2.67025,-1.2894721,-1.8212068,-4.585741,0.5921273,3.6845026,-0.96214485,-4.375144,4.9412746,-0.85775805,-2.0570092,4.090888,-0.859478,4.0459642,4.7452927,2.0593553,-3.1774216,0.96138716,-2.823513,-3.3638115,-4.750242,1.3012657,-2.9540296,-0.5973172,-3.3678913,2.108996,4.998148,1.4583488,-1.6781914,-2.9407454,4.762294,-0.54031134,1.8300371,2.4849987,2.0583243,1.3764029,2.6253915,1.8229775,-2.8491545,1.1606984,3.384241,0.10267782
-4.055161,-2.4610376,-4.5912476,2.9872637,3.6167564,0.048784733,-3.233759,4.211685,1.8818212,-2.5122957,0.90329266,-4.450472,-4.8084707,-1.74492,3.2739172,-1.3857226,1.3821816,-1.2242227,3.81182,-0.04146099,0.9794922,-0.28779507,-1.4627624,-0.78159094,0.9922576,-3.3072705,4.6465254,-0.14725208,-2.1912599,2.741096,-2.3731494,-1.0317092,0.82206297,-1.2601328,0.6274071,0.07886124,4.827219,0.88669777,2.5349097,-3.2300205,-1.3343363,-3.3001738,-3.9144034,-1.7917638,3.911602,-1.3771944,-1.4436412,0.10576153,-4.641812,1.3683243,-0.21950293,3.1804323,1.2341571,3.1918964,4.3687105,3.1308746,-0.24399757,4.707247,3.5973892,-2.9291773,4.6359234,-0.42940426,2.2576098,0.30387402,0.5042596,0.07464218,-1.5699716,0.8040514,3.3387794,-2.3925376,1.3613062,3.592475,3.5261154,3.8333836,-4.648902,-2.0543134,-4.8447967,0.36669064,2.2877507,-2.6466603,2.638259,3.4089212,3.4798326,0.6631508,-2.2577577,-3.5236228,-0.13027954,-4.240484,2.3853636,-2.63843,2.2184591,2.0153952,0.34103394,2.795765,-4.224762,1.9278045,2.4925513,-2.8440337,-2.0206647,3.1655703,-1.557678,3.762806,-3.3288784,2.2567058,-1.7427201,-3.5076637,-1.5214682,-0.40986443,3.2254152,-3.6429214,-0.112648964,-4.9541197,-3.832893,3.314579,-1.8189244,4.0079155,-3.6495514,-0.41542006,-0.31127644,-2.1222754,0.85849094,-3.5700297,0.45045948,-2.2246337,3.0938263,-0.6523838,4.541871,2.5022087,3.8461056,-2.266056,3.666584,-0.982327,-4.8215394,2.1270947,0.42002583,-3.0137968,1.1357899,-1.6400261,-4.008938,-3.219564,-1.6558571,0.6899543,-4.136438,-3.2847726,0.9148016,-1.3096452,1.2242341,-2.387309,-0.9757414,-4.7167435,3.9704618,-4.4227486,-3.2114255,3.935441,3.4706774,0.2710495,1.2687354,3.4426594,-2.767046,4.710207,3.3106022,-0.65935564,0.463583,-4.702706,3.2574959,-1.2395363,2.7123022,-1.7052941,2.5779529,0.06289768,-4.238946,-2.988618,3.6990347,1.4444761,-4.5133977,-0.96028996,-4.391089,-4.375495,-0.86789894,1.4775867,1.1994958,4.963707,-1.554081,0.8962498,-2.7513373,1.6465402,-1.1684823,-1.4422345,1.0272355,-3.9955163,2.0002437,-3.0039632,1.4726982,-2.2354758,-4.3164616,1.7086797,0.11628723,-4.7744937,-2.0247746,-2.0899897,4.183264,2.8938923,-4.7430964,-1.8631654,-2.542665,-3.5681653,1.8803415,-2.7872097,3.179081,-4.461949,-3.660112,-0.93397903,-1.8604083,-4.7881656,2.851007,4.988433,0.3353982,-3.1565075,-4.522683,0.7655568,-1.2404895,2.0611706,-3.7073202,1.6808991,4.380249,3.7313423,3.046321,2.9718251,-0.6038513,4.979353,2.869255,0.5514474,3.8623657,-1.5518494,-3.0401814,0.6239939,1.7853217,1.2570496,3.4010038,-0.031442642,1.8740301,3.2841854,-1.7684424,3.9147463,-1.360951,3.0246487,0.016647339,3.286789,2.4221983,-1.7142582,1.0843172,-2.1563048,-3.4314227,-3.6468573,-2.8762221,-1.0316019,-1.3376336,2.2250323,3.5033321,-4.9269915,-3.6141777,3.0543098,-2.7752805,3.2076035,-0.7566767,3.2361345,-0.5524483,-0.74646044,-0.939775,4.5178957,1.7685008,4.09704,-0.16200542,3.1035366,-3.6010349,-0.8652854,-1.2053227,-0.7670021,-4.201052,4.377412,1.7965722,-4.614583,0.5111785,3.060896,4.2846603,2.7807407,2.996511,-2.8247166,3.0318441,-1.1240482,1.9470739,1.3923335,-0.16211462,4.418296,1.8444424,-1.5426998,-4.194362,-0.31251907,-1.5408831,4.1590576,-4.81622,4.138542,2.3224025,-1.5731537,-3.6309476,-3.437695,1.4011946,4.771206,4.9689884,-2.060254,4.4632645,3.5091095,-4.273266,-2.2670646,4.0532885,2.8004174,1.5209951,-0.50746393,2.161313,2.2141733,-1.3833678,1.1951504,-4.557972,-0.50788593,4.1439342,-2.9389863,-0.770411,0.43260813,3.3545103,-0.8737707,0.7063093,0.58025885,3.3037624,3.4391012,4.1294165,-1.0539353,0.7137251,-2.850598,-0.8973937,1.5573196,4.5350666,-1.9043362,-0.77667904,-2.2075896,-4.4897575,1.1508508,-1.5259111,-4.999872,0.86465645,1.4140186,-3.703826,2.3113275,2.764711,2.9638424,-0.21561813,-0.6711917,3.909934,1.2794919,-2.2124104,-2.396441,4.609376,4.5135717,3.270135,4.947159,-1.1105275,1.1381779,-1.5934782,-3.6789865,1.611845,2.1387472,-4.988654,-1.5206747,2.2981625,2.2235436,0.11725426,3.0611181,1.9918251,-4.3759546,3.9271088,1.6373539,-4.182332,0.91675663,-0.030454636,3.7554188,-0.19389725,-0.50333023,0.080935955,-3.6930346,2.2512202,1.8615985,-1.5111284,-2.1628876,-3.1956677,2.6560726,-0.7610092,-1.1402357,4.932023,0.6019969,2.5874681,-1.6521459,-2.3793607,3.782446,-2.371314,3.716217,2.6494365,-1.4417613,1.2237649,2.7271042,-2.2173405,-1.117276,-0.8087926,-3.5972166,-0.7184639,2.5686336,3.1543722,2.214469,0.7212219,4.2036467,-0.74955416,-2.654975,3.2077131,-0.73828936,-3.7968283,-0.5001397,4.6026955,-0.7153797,0.714273,3.5131607,-3.9464974,3.3812895,-4.981851,2.0846405,-1.5585728,-2.6711006,1.2196074,2.4341922,-0.31062174,2.220673,4.287628,1.3008218,-0.8676715,-2.9336839,-1.6028833,0.0028028488,-3.3202343,4.0909004,2.2670646,3.8147612,-4.909322,-1.3681479,-0.49398994,-4.425137,3.5253887,2.146626,-2.5004501,-3.4217,2.6788707,4.918336,-2.9498613,-3.8640666,-1.2368774,3.6756601,-2.660638,-2.931202,4.1284237,-4.555172,2.5148911,4.2034874,-4.627278,-0.42693806,2.511702,4.7950525,-2.1487231,-4.203353,-0.5127759,-4.9804516,-1.4501154,-2.9636698,-4.349967,3.4075575,0.19379663,-2.8717542,-3.9940798,3.7107658,-0.35061646,-1.1141438,-3.700388,1.7093921,2.9666662,-2.5253491,3.5451574,-2.392522,1.4262958,-0.7814956,2.6416273,-4.3998413,1.4834952,-2.6913726,-0.45784283,0.024914742,4.205552,0.94672155,1.3601971,-0.48589897,0.36829424,-1.0003061,-4.791505,4.180929,-4.5725546,3.572669,2.308402,0.2633028,-3.4477162,1.1523151,4.1372213,1.1044092,1.2778721,-0.8568902,1.6882706,1.9914818,-0.7814684,0.755146,-2.6032972,1.6049147,2.8481488,-1.9351106,-1.0664444,1.1413813,0.9452257,0.91279936,2.6297007,-1.593014,-0.88873625,2.8416133,3.3891659,-3.7081761,-3.7006454,-4.3697734,0.48034763,4.2944546,-4.8599577,0.48303318,-0.5488167,2.787465,-2.4053173,-0.7718544,2.2945733,2.9790444,1.1999474,-2.4003255,-2.649331,-3.8342333,-3.8945084,-2.3525333,3.5685072,1.1628218,-1.8203962,-0.90397835,-4.095991,-4.098745,4.538869,-3.3684034,0.8833828,-3.68753,-1.8806231,2.2421288,3.5515795,-0.24982405,1.079195,2.1495147,0.48140144,4.5907125,-1.8976307,-2.6451235,4.2424784,-3.1717892,-0.9846425,2.9861488,-3.726838,2.8384395,-4.8317614,-4.8466372,0.6554122,-0.811553,4.4869795,-4.4692144,-4.1212654,-1.7676246,0.36415148,0.5175686,-1.735961,3.2597103,-2.004497,3.353778,-3.8619566,2.7840948,4.6875906,-0.8164382,4.5681057,-2.8948903,4.752079,1.8088937,-2.2928457,1.3139668,2.1504765,-4.211687,0.12199211,1.5045524,-0.07498789,-2.8467202,-3.4973173,-0.23475647,3.0241966,-0.09029341,-1.3526177,4.2434263,1.4390888,1.3387623,4.904977,-4.101083,1.083641,-4.1020546,-2.011758,1.2025018,3.9941425,-2.0463765,4.6523685,2.599968,4.2655897,0.24591398,-4.9077363,-0.06915283,-1.1967993,2.3997393,-1.5177715,4.9945173,3.8526993,-0.88609743,-3.3355231,3.272294,3.783557,-3.6140437,0.32016802,-3.3345156,-0.30980158,1.9544182,-3.341885,1.5226145,-2.8742962,1.0765071,-0.3794012,3.653718,-3.198843,-1.5331607,3.9544077,-4.2804203,-2.703381,-2.0063086,-1.4447999,-2.4899697,-0.34472656,0.81627464,1.4153109,2.4642134,3.2471018,0.06502628,-3.0643086,4.2542486,0.8011265,-0.82018757,-1.7590201,-4.978423,2.8923697,3.3782616,-0.80291796,2.5905418,-2.8851862,4.005986,-4.1476755,-4.5769267,2.3418288,-3.1429,-4.941916,2.8148499,4.472456,-2.1079683,-4.5302224,-3.0676234,-1.9232483,-2.0773296,4.190977,3.199129,-1.3012469,-2.543118,4.753728,-2.9299283,1.6316533,-4.303521,-2.70105,-4.888992,1.0091953,4.60314,1.100287,1.255364,-1.592979,0.09144497,3.8289871,0.005505085,0.67767906,-0.31314802,3.5392752,-0.62245846,-0.6558156,-2.4333043,4.9579105,1.4645867,-1.8188822,4.4882526,4.334174,-1.2098098,1.5742917,3.1630297,-2.575121,1.6693592,4.613291,0.62139416,-1.2561541,4.8629465,-2.2310472,-4.3982277,-3.0171704,-3.2180066,-1.7012548,3.6493692,1.9908886,-0.7631769,-2.0499992,-0.6465769,2.16888,2.3672276,3.2161198,0.7895398,4.1074743,-2.9649253,4.3707075,1.8859663,3.235546,-1.8146534,-3.6502533,-4.920933,4.8415623,1.873178,1.3687973,3.0242863,2.6709948,3.7906322,1.2780118,3.7699308,-4.6686535,1.5269823,-1.6178393,4.4713697,-1.3007593,2.161725,-2.7124887,-0.9790869,-1.2964463,4.302326,-1.7005944,4.695942,-2.7361119,3.0017748,0.5807905,-3.3378923,-3.0341578,2.0016441,3.342104,0.11053562,3.813161,-4.9650126,3.6045609,1.5564184,-2.3764844,0.97139406
0.66766834,2.5159798,-1.6958971,1.6665797,0.84981537,2.9263825,-3.12983,3.8213215,1.7222075,3.1930866,-3.4580536,4.6169386,0.17382526,2.0237818,-4.229465,4.5756893,4.499525,3.7331038,4.757511,-3.206116,3.4128942,3.2074976,1.1375065,-4.1124845,3.6077318,-3.9212978,3.451213,3.962759,-0.16867399,3.456152,-3.526286,0.3288374,-0.06940794,-1.6767735,-2.2430062,-1.6787004,3.0473223,-3.6005073,1.5978675,1.8309455,-2.9545565,-4.0611405,-1.3186562,2.6906624,-2.7098207,-4.2610955,0.42434692,-3.9024258,-1.0746574,-4.956851,-2.9891062,-0.47123003,-2.9420352,1.930687,-1.6890407,1.1599612,-0.56406546,-2.8665698,1.1650972,3.7957897,3.7444592,-1.3385277,-2.5678582,-3.1887956,2.558526,2.6300712,0.21449804,1.9151587,-3.2003129,1.777935,-0.9039459,2.0237775,1.7372041,-3.0732398,-0.020975113,-3.4623742,3.624463,1.4908843,-2.475313,-1.4464855,-2.4405031,4.814316,4.056485,1.5355787,-0.6096678,-3.1357217,-4.191091,0.35097647,1.5032196,-3.5682392,2.4131103,4.4039145,1.9755344,-3.0245793,2.022663,-1.5717638,4.9570303,-4.4077826,0.33349037,0.29740524,4.753315,4.5814314,-4.8024635,-2.4901998,-0.2766919,2.0181851,-0.5998521,3.197073,1.0751414,-4.366879,-2.5010042,3.728588,2.3239937,2.5817108,-2.6210546,-3.962812,0.82449055,2.0129442,-1.1045957,-2.3997796,-3.3880436,-3.375463,0.34701633,-3.571291,-3.629979,-3.2889361,-2.4354434,-3.5570657,0.8593564,3.7982712,-1.5373297,2.2255993,-4.1212754,0.857687,-1.2798059,0.119849205,-2.0455046,-3.0155282,2.6424656,3.8556938,-3.089844,4.7232723,0.2247119,-4.0490513,-1.8849568,2.5404787,1.4742002,2.0047789,2.5984077,4.6820536,3.391348,0.26863527,0.3486328,-2.0497913,-1.888166,-4.284643,-2.5905132,-0.48138094,-1.9717109,4.283353,0.3307867,0.837553,1.3124223,3.6792145,1.8501544,2.9472356,-3.2336593,3.057293,4.7058983,-3.63666,1.137784,-2.0472126,-1.2866724,-3.4850192,-3.6687498,-0.36997032,-2.5579333,2.5572367,-4.422893,3.3433304,-1.0611248,-0.4273486,2.4664454,0.24226189,-1.939631,4.6129503,-3.4943218,-0.023286343,-2.6618457,-3.0311127,3.5167608,-4.946895,2.4067235,-0.5823612,3.2187223,1.9102926,2.179472,-1.0027261,-0.9000149,0.20401716,3.5550385,-1.8953013,3.333869,2.4390812,-0.07259607,1.8975444,-1.0027945,4.1036434,-0.6385565,-3.0688148,1.3502355,-1.2314887,1.9933519,-4.1972775,-4.1399856,3.9427547,-2.5294638,-1.880585,3.8733969,2.0090532,-1.7373376,0.071764946,-2.1401644,-4.6716123,0.7650566,-1.9611752,-1.2681746,3.7009249,2.247486,-4.419115,0.22003412,1.7039247,0.8667784,0.2729993,-1.4689808,-0.91228056,0.5841179,-1.5824854,2.7797089,4.7401123,1.5819144,-1.0509431,0.15463114,-4.958835,-2.3265023,1.298522,4.44104,4.819454,-0.56016064,-4.241563,-0.31193495,4.0963917,1.1752949,1.1038375,1.5499353,-1.2291682,-3.1510746,4.7630424,-1.0592313,-4.5376463,3.528596,-1.7089486,0.5182085,2.011427,4.55023,0.6906791,-2.7141695,-2.5857472,-0.7852073,-0.36884737,-4.992551,-4.0159845,-3.0322278,-0.4381466,3.299612,2.9844527,-3.836351,-2.0817928,2.7464104,1.1445684,-3.9327855,1.6889734,-1.383738,-3.553431,3.7578478,4.888811,-3.4858263,2.4457097,1.9919901,-2.3938198,0.90850115,3.3604984,-4.9661484,0.02666235,-0.8342118,4.770047,-0.3583727,-2.165705,-4.4201794,2.478613,-3.182003,-0.18802738,-1.5451221,-4.3654923,-4.07246,-2.354418,2.6488166,-0.08641529,-3.4047675,4.903631,-4.606138,-4.790416,0.67189264,4.4051857,-1.5264039,-2.214754,2.6671925,-0.067839146,3.0556555,3.9889507,1.3058586,4.9395275,3.6012993,0.38591337,4.413891,1.2918758,-0.97507524,-1.9181676,4.08615,4.360505,-4.506598,0.64083576,-4.5497017,2.1707458,0.31962013,0.1267891,4.1928425,-1.5556324,-0.8718662,0.4233389,-2.002815,2.3584247,-3.4410012,2.5656457,4.4362335,-0.29063606,2.4104319,2.6265478,-2.0776315,-2.147419,-4.2279153,2.1099186,3.3837996,-0.8059778,3.1744423,-3.5269463,-4.44411,-2.445094,0.2539959,4.739954,0.78210926,3.8138933,1.5081339,-3.0394936,-1.6367288,-3.029389,0.4429798,3.3518581,0.22908497,-4.5764627,1.8509417,1.5141082,-4.4169407,2.7999477,1.7789621,-2.6249754,-3.41722,-2.1530156,-2.3487997,1.374754,-3.0380154,3.6345186,3.3549519,0.5550842,-1.3667865,1.6041718,3.6834202,3.7923164,2.2802253,-0.16968727,2.2873497,-4.737257,2.1709466,1.5732765,-4.452433,0.37601042,-1.5357356,2.262208,-3.4457664,-3.4805326,1.8991442,-2.786584,-0.3778,3.1754904,0.4604287,-0.9413748,-0.36170197,-3.4876256,-1.8124266,-1.9106185,-4.6054974,3.8098278,1.3182831,3.6901913,-1.4394279,4.05295,3.2010155,3.5552073,4.1904545,-1.0753589,0.2629571,2.174172,-0.19820261,-1.7132664,-0.6951313,-2.3601508,-4.2780704,-0.88204956,2.6385546,4.3067703,0.91360617,1.0567374,2.78551,1.9694052,-2.4791284,-1.5422444,-0.7567501,-2.872837,-3.247116,2.226851,1.4332018,1.4612913,1.6423802,-1.4125557,-1.2767851,-0.28065586,-4.562273,3.1333914,-4.0189843,-0.8686857,-1.4040751,3.1162052,2.4154496,1.5518575,-2.6617372,-4.478941,-3.8155103,-3.110538,-2.0333087,-2.184544,3.1801767,2.6617918,1.4877849,0.68224,-1.1753893,-1.3539486,4.898903,-3.6125689,-1.4617114,-0.049507618,-0.2891512,-3.9281428,-1.1826568,3.2983818,-2.0382261,4.829582,0.9638696,1.2794857,-0.2890706,-4.5066624,-3.7639248,-0.9500785,0.0028409958,-3.2783997,2.3958116,1.204639,-4.626646,-1.9246006,2.3469028,-2.1060495,-1.1013329,4.501999,-1.2350826,0.96356773,1.908145,3.9626818,-2.4179487,-3.0304635,-4.6496325,0.9384923,1.3231497,0.88949776,1.3247442,2.3032007,0.25019693,3.5163174,-4.966698,3.220089,1.8352318,3.2716007,3.7126608,-2.81148,1.2289329,-3.8528113,-2.5910723,-2.6414127,1.6310034,-2.4701376,4.0982513,-2.282453,0.07107639,2.0858169,2.386467,-4.9769287,-3.095796,0.15581131,-0.99835825,-0.10419369,-2.162422,2.24297,1.2175589,4.155139,3.2056236,-2.3759782,0.4280038,-4.261248,3.6955671,-2.8972936,3.7333956,-4.490909,-2.310421,2.6539345,0.655735,-0.2854023,-1.821907,-1.1659527,-0.7376523,2.2265248,2.8233252,-1.4564455,-4.6054463,-4.3535714,-1.1266451,-0.7826228,2.9684343,-3.2919378,3.7113848,3.1469145,-4.030881,-2.0812476,-1.4897668,4.2546186,0.15413332,4.3385706,1.5570445,1.1308107,0.1369505,-1.2600226,2.2384434,3.08959,-4.5325146,-2.4277437,1.7965894,0.8937664,0.085091114,-0.2577505,1.1345248,-4.487177,-2.0968938,4.2697134,1.9732766,4.006158,2.6593442,-4.0055065,2.1782055,-0.011124611,-3.4741158,0.11323738,2.1514225,-1.1289597,2.7347279,3.3466825,-1.6448474,3.2332506,1.097785,-1.7717171,2.2438722,-3.2284915,2.288937,-4.4084806,3.4441872,-3.1277812,0.88327694,-2.459358,0.5469589,2.4096937,1.86234,4.2432394,2.4579282,-1.198535,1.3733382,2.8412733,-3.6769242,-4.022232,1.4197392,4.4603815,-3.5060096,-0.7123747,-0.64972496,-2.5445867,0.46034575,2.1437454,4.2015276,-4.8549786,-0.5224705,2.1736388,-2.0147085,-0.61782885,1.3598042,3.859786,-1.7086954,4.660638,1.3860035,0.34106445,-1.5180719,-2.6310892,-3.5195928,-3.04891,-4.20639,3.5882206,1.268683,2.1955414,-2.1188307,3.2568254,-1.1497264,3.68719,0.67619514,-2.8463626,0.36892843,3.2102556,-3.7968774,0.3201728,3.7163725,4.9123726,1.1535735,-4.1616755,1.6222334,-2.7493906,1.5487552,3.363058,-4.1608696,3.7085733,2.288365,4.846509,-0.74956036,0.5037379,-3.8833385,-0.1326971,4.600481,1.032743,3.8995094,3.2805786,2.5879664,-1.8217416,-2.3390632,4.8644314,3.6157837,1.2062798,-1.584609,-2.5109916,-0.47103357,-3.6989884,-4.37679,-4.2499394,2.4513335,-3.3540535,-3.955679,2.840652,-1.012367,3.9137402,-1.3085885,-4.4760046,1.5609736,-2.3993778,2.8357263,2.5257201,-0.682601,0.9524765,-3.4890337,1.6475687,0.0115942955,4.59606,-3.031025,1.1798577,-1.4736981,-4.60778,-0.6999707,3.6527815,-3.0427825,-3.73977,-4.2569027,0.83481884,4.3853493,-1.8198233,0.7962389,-2.6895876,-1.5521252,-0.34061718,4.613551,3.2958212,1.9075418,-4.6093726,1.6424427,0.103366375,0.02797699,-0.5232611,-1.9479072,-4.471274,1.5601139,-2.8978276,-0.6093526,4.074498,4.929818,-4.2112613,-0.011646271,-0.43031168,3.7662458,2.5254054,1.6734743,-4.253627,0.8417673,-4.413926,-0.32476854,-0.47921276,0.5651779,0.42237568,-3.0274582,-1.1232452,-3.081963,2.1832156,-0.98680925,-1.5712404,-2.5643783,0.75579405,1.7673421,-3.2478304,-4.7968574,4.871957,2.2394905,-2.7436936,4.6853447,4.8921747,-0.767149,1.9770045,1.0941815,-2.1254497,1.345315,2.5277352,-3.1919556,-2.0868087,-2.2786264,0.1600833,4.020855,-1.6943784,-0.8895006,3.2523928,4.022135,-2.7781467,3.194149,1.5713811,-2.4621506,3.32617,-1.457767,1.5009122
-1.1119528,4.67647,-2.819796,4.881117,-0.4553895,-2.2178364,4.3854294,3.1829767,3.5690699,0.19641829,-4.4071255,1.2022667,-0.16636848,4.801112,-2.2099662,-1.7965751,-0.4250908,-0.5723429,-3.8735409,-1.9900126,-4.482707,2.7091384,-0.52342606,-4.031559,-3.0909605,2.8183699,1.0349841,-4.0229516,3.2957563,4.7917185,-1.1185436,-2.7302778,2.0607166,2.3965783,-3.793987,1.431613,3.971383,-4.8037786,1.6654043,-3.5892944,-4.198495,3.9088354,-1.7496438,-2.4292052,0.86278343,-4.9998116,-0.15223026,-3.8243861,-1.7199211,-1.6053855,1.735342,-2.124979,0.30099297,-3.0987601,0.66300964,-1.1461444,3.6048288,-4.3175416,3.754284,2.8829346,1.9131966,1.5971608,3.6314182,0.94378424,1.4323769,1.402092,-0.2726388,1.0004883,-4.394436,3.0826778,-2.0469565,4.9284277,-1.5569675,4.863764,2.299841,-1.0186763,4.965397,-1.350441,-2.6264186,1.6974688,4.3138847,-0.9480953,-4.3292713,-2.2092052,4.722308,1.2827206,-1.9032025,-2.5566864,0.4685526,-1.4934678,-3.762123,-3.2013702,-1.7408662,1.1591744,-3.346796,-2.5433588,-1.5522356,2.3707542,-1.1717768,-4.1606035,2.9996214,-3.710513,0.99197626,-3.8326323,-4.9087377,-0.26048422,-2.8796065,-2.6062627,-0.069270134,1.0078373,-4.3191457,3.3714113,-2.098955,-3.620326,4.7506933,4.187235,1.0388155,-1.4335995,-2.0273347,-3.8471818,-4.154098,4.0205774,-0.8671994,3.613843,4.570202,-3.5509455,-1.1726606,-0.09184885,-1.6371381,0.039611816,-0.55387306,0.9583478,-2.0596886,2.5279703,-2.1415086,-4.807644,2.7494216,1.4710994,0.010177612,-4.8626113,3.0548334,0.45463514,4.1224384,-2.23045,2.8018956,1.3433194,2.5737534,3.801053,2.8164282,4.8912096,-1.0115151,-1.6894984,2.659576,-2.76474,0.51528883,-1.4407706,-4.1967726,4.210106,2.9638033,-3.1944275,4.2721357,3.9078407,0.65417576,-4.344709,3.1073837,-4.92311,1.9889088,-1.6231108,-1.9655519,-2.2256136,1.3067889,-2.7287507,-4.9722157,3.47719,-2.5318937,1.2799735,-0.8965688,-1.0961266,-1.0016828,0.90990305,3.2382774,2.804656,-3.9279695,4.3090105,4.3010254,-2.527678,2.1040797,-0.96970654,-3.890994,-0.118335724,-1.5393705,-4.183504,4.158781,0.21138573,-3.2766068,1.9759846,-4.2016478,3.309184,2.0130997,0.85998344,-1.0141361,-1.4609861,-2.2295518,-0.5094137,-2.7834308,-0.13298702,-3.7460828,-1.2392049,4.8076954,-1.0326505,2.9601068,0.2760005,-2.3197417,2.438528,3.0918522,-2.531103,-0.8886223,1.286293,-3.6231322,-3.4479368,-2.363956,-0.43907547,4.9986553,-3.4069824,4.1932316,4.3432913,0.062077522,-4.907582,4.2038336,-0.35852146,4.9991255,0.6656976,-4.4340754,-3.9126778,2.2180424,4.529746,3.7721634,-0.062197685,1.7051172,4.083642,4.455638,1.0748429,-3.0571246,1.1887846,-1.7449105,-3.481607,2.5253544,-3.3299816,-0.09254694,1.1572309,3.3081589,2.8544207,-1.3836355,0.68087053,2.3461199,2.576198,4.5290136,-2.0053518,4.1257553,-0.4721408,3.3775883,-2.8140883,0.21449327,-3.129599,-1.8172944,2.6458826,-0.48158264,2.8105783,-3.495298,2.2968416,2.466343,-1.0584259,-4.012105,-1.755374,1.4163046,4.05737,3.6622667,4.0745525,-3.9507623,4.6492233,-2.8429608,-4.422187,-3.1918335,2.8661442,1.9543924,-2.4866164,-0.0637393,0.1808567,0.3607788,3.6923542,-2.3158164,4.5067587,1.59834,-4.465662,1.9799442,3.0009995,4.1432543,2.9526606,-4.2029257,-3.8866072,-2.7555008,2.975378,3.109209,-3.6238933,0.48742533,2.9765549,-1.1050177,0.7426567,-2.456942,-2.934816,4.174143,3.461814,4.1432133,1.6639881,-0.19765806,-3.7886543,-3.4149277,-2.6992524,-2.2214441,1.2954893,0.43914843,-3.6159806,2.479926,-2.7328348,3.4122791,-2.1279144,-0.4578371,2.151342,-1.4300191,4.9659004,1.973638,-4.9836946,3.4859,0.3424015,-2.8541355,-0.9717126,-3.9382434,-2.443524,0.5070348,-0.058219433,-0.075242996,2.3100805,-0.109726906,-4.119726,1.5317268,1.4744434,0.2591629,0.8883829,0.34065056,-3.6889963,3.9097443,4.9895897,0.5315466,2.6965432,3.6441984,-3.9682734,3.3344173,-0.35207224,-0.9623766,2.6376529,0.749465,-1.5685248,0.24243832,-1.080267,4.1996326,0.7614641,3.8982925,4.7074738,-2.9100804,-2.2712774,-4.8712187,-3.9542217,-0.071495056,3.3570347,-0.022571564,-0.081367016,1.2202616,2.1587496,0.39052963,-4.4135337,-2.2661562,-2.9962258,4.421241,3.0636482,-1.3759785,0.7025385,3.920064,4.205639,-0.06370306,0.27609444,-2.393198,-1.2015314,-2.4002624,2.5988827,-1.4361358,-3.9707189,4.0360975,3.4331627,-3.20899,-3.673944,0.7661538,3.7225523,-2.9360807,-2.1360822,-4.0409617,0.7908635,4.2788944,-4.6617107,-1.6067462,-4.634879,-0.30800104,-3.985136,3.6326103,-0.15241098,-1.3866563,-3.1406898,3.994607,-0.12506104,2.1579237,-1.8149734,-3.3583717,4.7669325,-1.5607834,3.1068401,0.00089645386,-4.3961487,3.6102142,-0.59988546,0.56040335,3.047841,-0.2295661,-0.8434324,3.5469837,3.725771,1.9998784,2.1128774,1.534822,-2.6484437,1.7555103,0.59400654,-2.2152762,2.4916,0.39090347,1.4360628,3.6391573,-0.8826394,-3.276742,0.61027765,-2.4454463,-0.48727703,4.4297867,-4.1721106,-3.3599865,0.3123455,0.58027697,2.7549148,-4.882699,-2.8130305,4.013242,3.9940004,1.7105937,4.581707,-0.41205692,3.6662064,3.1100388,-1.2447762,-4.425705,3.814702,3.057476,-0.32590294,-1.8618078,-2.5667315,3.4932537,-2.3029118,4.842223,-0.21368551,3.9662046,-3.6679995,-4.643941,2.08045,-2.6536732,-1.8422632,2.8860083,2.261085,2.9991207,3.4560337,2.972474,4.2934084,-0.9416437,0.20784664,-1.9299932,-1.5935731,0.28973532,2.0335321,1.4260168,-0.80040216,4.566368,3.205803,2.1512914,1.1645274,-1.1302023,0.9885082,-1.4654131,2.16649,0.43793106,3.9233723,3.0256615,-1.2748961,-2.5519621,3.001937,-3.8131185,4.9898014,0.6102152,-0.70285845,3.4740753,4.682932,1.0350041,-0.24141216,-1.5328729,0.08738613,-0.88178205,-3.9719617,-0.023064137,-2.0673513,2.1193972,-4.9186096,3.7500553,3.2723703,-2.9028363,3.3357058,3.6496534,3.014699,-4.129803,-0.375762,0.0057525635,-0.1753354,1.8536563,3.1661205,1.3786435,3.5179367,2.4610863,-3.5948868,-3.7642407,4.749772,-4.892749,-1.253463,4.957962,-1.0364747,4.4419374,-0.14312696,-1.7570109,-4.069086,-4.046807,3.1895742,-4.4270425,-1.1457567,1.993227,3.4294615,-2.9338837,-0.7518096,-1.5599661,-0.4399681,-1.8949604,2.4218264,3.7454605,0.49336863,-0.43970013,0.57154894,-4.804933,2.9293184,-1.8075247,-3.0331504,-1.1834903,-0.8746424,-1.9216216,-4.485721,1.8387308,-4.804993,-3.3860617,-2.280842,3.0611982,-1.0115285,-4.7752104,-0.009658337,-2.2451262,4.3158207,-4.9484053,3.7145128,2.634912,1.514854,1.4005284,-0.29368687,-2.1255918,2.7809381,4.012067,2.5753264,-0.03392744,-2.7372885,2.6303935,-4.4126153,1.5946302,2.8066354,0.8017454,0.36947632,1.2487335,-0.19175625,-2.0313156,-0.84949446,-3.565725,-4.2924113,4.203766,-0.48180866,-3.2900524,3.3556795,-0.41563225,1.5954981,4.190565,4.7592144,-2.0003538,1.0523324,2.6794996,4.015583,-0.42800808,0.14904499,-3.946237,-4.5945272,-3.6180062,0.86838245,-2.8093147,1.0571117,0.29237318,-1.120156,-2.951659,0.57121754,-3.8646693,-0.76676416,0.6125312,0.11550474,-2.000165,-3.4907956,1.8233485,-3.4344597,-4.0612435,1.8466148,-0.8016658,-2.4543695,-2.3214145,2.827888,-4.029872,-1.2525134,2.449214,-0.42192173,2.2190404,-3.0742292,-1.2322669,3.58667,4.1042223,4.311887,1.6051488,-2.0473905,-0.51688194,1.8401699,-2.9081607,-3.612628,-1.467737,4.114485,3.1457815,1.6736097,0.6275759,-3.1843781,3.7443323,-0.842041,2.2258396,-1.6030126,2.5313883,-1.7658544,-1.776957,-0.6392689,2.2481937,3.910945,-1.5832133,-1.3619864,3.2353134,3.3767853,2.6090355,0.7924123,2.5126095,2.0564933,2.255127,-3.3630311,-1.994484,0.4428239,-2.9372072,0.7217674,-4.682672,4.9260826,4.5917473,4.4824657,1.402134,2.4889202,4.6879234,-3.3657484,2.5185914,3.913559,1.771781,-4.3856945,4.137274,-2.9187572,-4.2360897,3.2371254,-4.0127897,-1.073873,0.1936245,1.3411422,-3.5884266,0.47301197,0.7859583,-4.9152064,0.8669672,4.3278084,-1.8407793,4.5788918,1.8737726,2.945918,-3.947134,-2.7911396,-1.0773368,3.2491302,4.4446344,2.3472652,3.8359318,-1.1934566,0.24449778,-1.9177997,1.9508944,0.35924006,1.7801852,-3.8522208,3.8481503,0.43304253,-0.34089804,3.3756523,3.4815674,-1.988337,2.1403842,0.291214,0.25823212,1.0217547,-1.8262796,-0.6525736,-3.735559,-0.27428722,1.991972,2.2780542,-1.5812576,3.4813175,-2.408198,-4.0439076,4.214772,0.042341232,3.013483,-3.7525373,4.9301634,2.0581598,1.2170258,2.363037,1.3876371,0.16804314,-3.3099186,4.816845,-2.192368,3.806841,2.841341,-2.390757,-4.7227316,-2.8126156,4.4302387,3.8314552,-0.851707,-3.7521672,3.363679,-1.046987,3.2527342,-3.721974
1.8250461,-4.438848,-1.2960882,-3.3185678,-1.1078815,3.759552,2.7424603,-0.57735014,2.2121334,3.3610125,-4.846942,-1.9529891,2.4204206,4.765025,-2.180851,-3.1550927,4.6556234,3.0767593,2.209012,-1.0298276,2.7611713,2.9322872,3.0434875,-0.6617365,0.28423738,4.333082,-3.5952,1.6363716,-3.7593346,-2.1707046,0.6807871,3.7452183,-2.0511973,0.42653847,-3.9512181,-2.8622198,-3.1092758,3.2095366,-4.302761,2.0488186,3.378831,0.01860094,0.09674549,4.409384,-1.2219863,-0.8697834,-0.60250235,-4.270249,0.5690427,-3.0919285,0.34455395,-2.7832918,1.7896867,-3.4376204,-3.1720467,-4.8481297,-0.0024023056,-1.3969784,-4.3733115,-0.10212135,-2.0769696,-1.8074303,1.003664,-0.7247915,-0.96430874,-3.0180306,4.6055126,-0.96027803,2.2871447,2.0467377,-0.5728731,-4.142819,0.80713177,4.68692,-4.5909185,-3.9732015,-0.80389404,-3.378005,2.4907827,3.519763,1.414885,2.538868,0.024359703,2.8928967,4.7556095,0.5119219,0.7761817,-1.1794949,-0.3303666,4.955057,-4.259048,-0.4262781,2.4761624,3.6274529,2.3559103,-1.3222075,2.4210649,4.1416845,4.6567574,-1.5945749,-3.9009328,-1.0752316,0.12774086,2.2487688,0.015455246,-3.916903,3.2622194,-4.295754,-4.089757,-3.9764965,-2.7738929,-0.11610556,3.9824924,2.9421158,0.008322716,2.8885775,-3.2435524,-1.50317,-2.3153849,-0.49317837,-3.5411584,4.2410336,-2.7595341,4.529296,3.6628036,3.6689482,0.23099661,-3.245613,-0.9665723,-2.9971652,-2.399863,0.09888077,0.08422279,-4.549121,4.3325253,-4.9437118,-2.3621988,2.9456954,-3.663437,-2.5094497,-1.2285275,-0.8424921,-1.2056499,0.29253864,-4.0247993,0.36344242,4.9289722,-0.5619602,-4.252407,-0.77235126,-0.8414278,-1.1984472,0.48132467,-4.7937527,1.6149912,-4.972192,-4.431884,-0.25231886,-4.9667068,-0.28165722,-0.45699644,-0.6237917,-0.5903778,3.0320444,-2.5550401,0.19813776,-4.9562,1.2749939,1.6556692,-1.059906,-1.7656608,2.2017026,-3.3286858,-1.042527,-2.8470964,-2.0762503,0.8361397,3.6814423,0.5902481,1.6268535,0.6316848,-3.8024354,4.477564,-1.8159266,-3.6420517,3.0314217,-3.9237232,4.222212,4.9390535,0.78424835,-2.9116726,-2.4135423,-1.2912166,-0.4852972,0.57705975,4.9538956,-2.187498,-4.9265246,-2.1705346,1.5657258,1.4541206,-0.64420223,4.5259666,-0.9307666,1.6301446,-4.8965797,-3.545528,4.017185,2.9628797,-3.246895,0.9840555,-4.520711,0.8571358,-2.8327851,-3.472693,-1.4144051,-4.492085,4.518173,-4.711122,-3.011858,-4.5470123,-3.4080606,-4.436556,-0.018648624,0.10623646,-2.379356,0.027303696,-0.32621908,1.2449703,-0.61902523,3.282301,-0.03072071,-4.920172,-2.721682,-2.8985107,-1.0114021,3.2728386,-2.1422255,-1.6296287,4.5535383,4.601473,3.2361526,0.80636215,-4.8676963,-2.9262495,1.3432226,3.6073608,3.4103146,-4.6926875,-0.97864103,4.443655,2.9840565,-3.7112904,1.7738109,0.3594675,0.44466305,0.24327326,-0.5714941,-4.159324,2.7953444,-1.7863762,-2.6749218,-2.3050141,2.2317605,-1.4781749,4.97136,-3.096937,-3.6289692,-3.6902428,-0.32418346,-3.010794,-3.3090239,3.4590778,2.415009,-1.1457806,0.4136839,1.8179722,-2.2790372,4.1289034,-3.6187286,-2.8051834,-0.3738284,-1.770999,2.7941065,-4.963914,0.54353666,3.6404715,-2.0187001,-2.9320753,2.0783234,-4.6386156,-0.29476118,3.4862537,-0.42142344,-0.48927784,-4.627321,-3.4787881,0.4836297,4.509982,-0.5407467,0.9646597,-0.32979488,1.8915157,0.5315585,-3.0761719,-0.9218192,4.885045,1.7762766,0.8568425,-1.8493533,0.07322979,-1.4940162,-4.403537,-1.2550049,1.0797596,4.672411,2.6495686,-4.98007,3.0974798,2.2970438,2.6282616,4.30354,-1.06848,0.04619217,1.812582,1.2541418,-4.0079956,3.204607,-0.5530095,-0.7484889,0.66406155,1.9629626,2.1869445,3.5993185,4.23905,-3.7912273,-0.37904644,0.09707165,3.913107,4.6809225,-3.3077078,-0.29601002,2.6620255,1.1811547,0.105210304,2.455278,-3.1128378,-4.495062,3.6602993,-1.8854289,1.704648,-4.6666527,-3.6019726,-0.08707094,0.7235632,2.36939,2.6027303,-1.8870211,3.3508158,-4.5675707,0.3392415,-3.3379383,-1.6081424,-2.9738903,3.8334236,-1.2885423,-0.37004852,-2.266847,3.3449955,-3.611405,0.41694927,4.952712,0.7317705,2.6572943,-4.632246,1.9469643,-3.4151645,4.474865,3.0598087,-3.585453,-4.710106,3.1048098,2.7865047,-1.7425895,-4.3234043,-2.8581457,4.3319063,-0.1565175,4.3043156,-0.2681837,-1.3170104,3.9154377,0.45168877,-3.5339718,-4.046569,2.3643394,-1.803134,-3.854909,4.11668,-4.746667,2.494533,1.0728674,4.1220293,0.21179152,-4.8265953,0.92355156,1.9222708,-0.58209896,-0.46777487,1.4699907,3.215579,-0.16516781,1.6563058,-4.9701,-1.9465244,-1.4242542,0.29022932,-2.7440925,-0.7120919,2.1142364,-1.7190547,1.7538633,3.6318922,3.8428059,-0.8817873,-4.78792,-1.2626739,4.1682158,3.082469,2.3367758,2.975852,3.023573,-0.8793974,-1.3001394,1.7502565,4.404689,-1.5894139,-4.992724,0.80700684,1.6204357,-0.21949291,3.825799,-2.0550835,-1.8273568,-4.2490454,-1.1980872,-2.3570108,2.2667212,-3.3812566,-3.2188482,-4.82333,1.6051154,3.556592,-3.335802,-4.4856653,-0.5986695,-3.1933904,-2.6501691,-4.3820786,3.2405167,-1.712774,-0.16332674,-0.9547825,1.9528298,-3.565133,-1.4197044,3.4929018,-1.8182397,-0.082449436,3.565052,2.2850838,1.1633301,-4.9983125,4.3155594,-4.4126897,2.2979355,-3.6906278,-2.1502864,0.9571209,-4.3150215,0.9936805,-3.717205,-1.95081,-3.7803662,-0.08689308,3.0048695,2.008224,0.78805065,4.27197,4.3633432,-0.4329133,3.9056559,1.6320252,3.0359697,-1.5790248,2.714274,-4.261229,0.54411936,4.4004154,-2.8910275,-2.7406268,-1.7451668,-0.85915947,0.28273773,-2.536409,-3.1542575,-1.2921429,-0.07488251,-3.490634,-2.194068,-4.6526623,-1.6800518,4.792424,3.1454544,-1.3512528,0.16585636,4.534052,1.9965672,3.7372532,-0.05032921,-3.4724731,1.8704262,-4.944432,-2.1178353,-2.892239,-2.1103048,-2.8929234,3.5568743,-0.6788702,-3.6546195,-4.949727,-2.0908153,0.6009078,-0.22858858,3.2864552,-1.7823815,4.0741663,-3.51727,0.5632186,-2.4319708,2.0074663,3.1631927,3.5665817,-4.2459555,1.9849606,-0.2150178,3.5958252,4.395548,-3.6925912,4.291547,2.972495,3.8770342,-3.5206203,0.2897048,3.9861507,3.3618698,-0.86300564,0.60761166,0.77625084,-3.45446,-0.87678146,-4.4965353,2.5419993,-4.9559593,1.2618656,1.8002691,4.5908318,-2.6385813,4.867241,0.74427223,1.0765386,-4.4946413,-2.509766,0.15747118,-2.4724126,-2.4144368,3.7278671,-3.411767,4.228018,-2.2415476,-0.5329132,4.055046,-1.57148,-2.969563,-4.87159,-1.331809,1.4248095,4.8910465,3.3310757,1.2725134,2.2007422,-3.2730973,2.4412866,4.1148624,-0.77783775,-4.4586606,-0.35568666,1.3574915,0.51164436,0.57240534,-2.5047421,-3.144219,3.666232,-4.557784,-4.2293787,4.984749,-4.5418077,3.6672516,-4.1258817,4.9913664,4.780678,3.4100447,-0.83583546,-3.8026767,3.2833824,0.32229042,-1.0772026,2.875821,0.16706514,-1.5789776,3.2780151,3.9377136,-4.3624086,4.6158676,2.9494934,3.1655807,-1.5676312,2.7857227,0.08825779,-3.8976634,0.24697351,-2.3974848,3.286438,-4.975943,1.8064175,2.0119596,2.5510702,4.178399,0.5474005,4.3343105,-4.5042963,-0.10575867,4.502384,-4.278751,-3.9249456,-2.3236604,-1.9164224,-1.7651641,2.8173552,-1.8021874,2.0794983,-1.1854715,2.367,2.5535069,-4.197466,-2.2617335,-1.5213668,-3.9197564,-0.98780537,-4.2313833,3.4294043,2.8773932,-2.891245,2.289487,-0.70475054,2.9537992,-1.9422269,-1.0043299,-3.9752455,-3.640675,4.7633724,3.7909546,2.0478673,-4.18025,-4.7957473,1.7051268,-0.8619509,4.824505,-4.9237757,-4.0817738,0.30977154,1.6429229,0.85104656,-2.3438673,-0.032154083,-0.5233054,3.74965,-1.6925745,-3.2885587,-2.7935612,3.8057823,-2.7685266,3.603135,0.9004755,-2.0294106,-0.89935255,-2.600565,-4.400483,4.723235,-3.2399945,1.9360018,4.945633,1.8671255,-2.0345604,-0.036854744,-4.69033,-1.530046,1.7099113,4.392661,-0.87840986,4.8207073,-0.7941513,-4.8340454,-4.27194,1.2910404,-1.1998153,3.2199516,0.5304885,2.2544408,-3.4934444,-4.9429936,4.3687706,1.315423,-0.29653168,3.0415993,-4.322407,3.034462,4.535082,4.5036774,4.221758,-3.0694752,4.181387,-2.0033522,2.621089,-2.9819977,-0.29705095,-0.20603085,1.2466545,-3.8725777,4.542473,-0.17737341,-2.2856073,-4.2289495,-0.5445843,3.9653654,-3.4994884,-2.0779662,-4.743099,-0.20083141,-4.9101267,2.4281745,-2.8760772,3.0437565,-4.801055,-1.2065859,2.3023272,0.26542616,2.5905604,2.164216,-3.5811229,-4.535644,-4.458434,1.8718472,1.5136232,-2.701909,-4.4925156,2.043631,0.47417212,1.8826094,-0.079442024,-4.7084503,1.6984549,-0.8441601,2.7940226,-2.5072165,2.207501,4.4663124,4.98232,-0.07846546,-0.89226437,-0.45276356,-0.9079957,4.7794123,3.601387
2.1111732,-1.2369776,1.6021733,-3.191557,2.2765875,1.198946,4.751828,-2.936718,-0.72722006,3.0765533,-2.1436393,3.7644653,0.8093548,4.0611277,-1.7593293,4.1305103,1.2048669,2.3608456,4.4915295,-3.9423437,-4.4134474,3.8744812,-4.4478393,-3.8989818,-3.2962031,-4.205856,0.9412937,2.619657,3.0902328,-4.7779937,3.993722,-3.4774714,1.1471963,-0.38427162,-1.5491076,-2.2415395,1.0089331,4.1629286,1.2125826,3.3543758,1.0166812,1.6557498,4.7812824,4.6231546,1.8680787,-2.2937603,-4.0747256,-2.531176,4.376692,2.1456294,-2.0230663,3.266036,4.055873,-4.7354894,3.4602404,3.9762592,-4.3103037,-0.294899,-0.64451456,-2.806559,0.22108841,-4.499083,2.4040027,-1.0726786,3.2135077,0.9522395,1.9835672,-1.0634923,0.122813225,-4.506365,-4.3955283,2.9546618,-2.7354412,1.3809566,3.425332,1.9419508,-3.5127044,-4.3746285,1.9217243,-2.420026,-2.7460134,4.6523466,-1.0509176,-1.9659023,-1.5177827,1.6069751,-2.542373,-2.089818,4.8167152,3.1404533,3.2648964,-1.826657,-1.3876457,0.5476165,1.2763271,-1.4561749,4.2012806,1.720521,3.2178583,-1.4263339,3.3754816,-0.76741123,4.814989,2.6830335,-0.9812994,-2.9778016,-3.3729215,-4.4028683,3.380662,-0.9871621,0.34503508,-1.3210595,-4.0184827,2.7850304,4.7807035,4.900819,1.9881201,4.1055346,1.5857911,3.147129,-0.65873146,2.1044016,0.0951004,0.99346066,-4.380961,-1.4266462,-0.09759331,-0.19397163,-1.4296241,0.3418784,-3.9679563,-4.1528835,-1.9860787,4.5348234,-0.39115858,-2.9415274,-1.2909918,-4.8807263,3.1897526,-0.23727322,1.9510717,1.0910797,-4.273062,1.129086,-2.0854516,2.356792,-0.208107,-0.27802467,0.89515257,-3.9502435,2.669702,0.057005882,2.1811886,-2.3869336,1.3841796,2.3841314,2.3153691,-1.7259574,-0.62885475,-2.954845,-3.0902827,-2.9302597,-1.7049961,-0.8736081,3.6975079,-2.06181,4.493246,-4.662464,1.5315256,-4.101193,0.70867825,2.6520896,-0.29779863,4.229602,0.36396885,1.0738697,0.1117506,0.84603405,-3.7465847,-0.30420494,0.26676416,4.77804,3.8735046,-3.9325094,-2.5048141,3.4124813,1.5913558,-4.10201,-3.4018147,3.52563,2.152769,-4.3201,2.6841855,-4.4528203,-2.067936,-2.2826295,-1.0339427,4.2734604,-3.5229583,1.3284402,-2.6929288,-1.2328987,1.189167,-2.069155,-4.377778,2.6821733,4.163453,-4.843339,1.408319,-4.7421093,-2.0008028,-3.0728388,-0.42513275,-1.2381549,0.9896383,-2.5193691,-4.1165733,-1.9132447,-3.9848595,0.00042438507,-2.747922,-1.9594235,0.2346344,-3.0724115,-0.6739998,0.36697388,-0.10313082,-0.7435794,-3.8904166,-2.4464936,-3.118885,1.0151153,1.4674044,0.08052921,3.2872086,-4.7513394,0.4914875,4.149826,2.8954597,-3.9634867,2.998416,-2.3219032,4.631382,2.0261698,1.4964657,-4.79219,-0.14635181,3.5968132,-2.6849585,-3.4958725,-2.5955124,-3.8192904,1.6801662,0.8746872,-0.93120813,-3.0246525,-4.9294424,3.173708,3.2640772,4.584879,-0.87276363,0.80007124,-4.905308,3.8153467,-0.22615337,3.2313604,-0.3351183,4.4321766,-3.1651354,4.7327356,0.89694214,1.9833941,-0.043632984,-1.7665398,0.059214592,1.017509,-2.6426303,2.416387,-2.6650774,3.622425,4.447197,-0.21825552,4.047039,2.0231094,-4.0540433,-3.0779076,4.2065115,-1.3308806,0.33006907,4.5035734,-4.3369174,0.4926958,1.4850264,2.563653,2.8925114,-2.9237037,-0.9935546,4.7709618,-3.4339242,-2.0027966,-2.6547976,4.762657,-2.2170234,3.2153978,4.4776144,-4.2894263,-2.883494,-0.5502653,2.712103,-2.990456,3.5481443,-0.0826931,1.3155861,-1.1004364,-2.9727042,-0.39587116,0.53662205,-0.8707309,1.2901344,-3.0275881,-0.19483137,-1.6668649,4.017618,4.75264,-0.6648712,-0.63098717,4.527219,4.662181,-2.0768757,2.029048,2.29076,-4.7850995,-3.7195516,4.2758017,-1.1772294,-3.5612817,2.948236,-2.0865173,-3.6275017,-2.8802938,1.0519266,1.3434181,-2.3567586,0.7551904,-3.6005604,2.6156654,-3.5372937,-0.64347315,1.2065706,-4.502731,-4.2108197,4.8216906,4.918046,3.7470436,-3.8520956,-1.7390604,-3.3645086,4.838706,-4.7196794,-0.5297642,-3.0471528,-1.1881685,0.008533478,0.9288149,1.6336412,-3.9967382,4.324604,1.224515,-4.593558,-3.4859986,-1.401161,-4.1163616,0.92812824,2.1122932,-3.717063,2.8957658,3.252739,-2.236486,1.052391,-2.4801354,0.798295,-0.8786578,-3.5172873,-4.8661146,-0.9521985,-3.3623624,-2.6852374,-3.8720794,0.6471834,1.6282969,-0.47558832,-2.0169406,2.767332,-3.615189,-4.7974153,4.9733706,-0.9234972,4.966316,4.9697466,1.4432502,-2.8083367,2.804504,3.5626335,-3.0244155,-4.9130516,0.9703188,1.1912804,2.0524116,-2.5513494,-2.2011847,-4.3976564,-1.5296102,3.67373,4.043111,-3.9631672,3.2422304,-1.3877196,-2.3295422,4.2913876,-4.1081696,-2.79572,-2.2144694,0.25078678,0.8232937,2.2825646,-2.6877422,0.17847538,4.988697,3.6900778,3.531106,2.6345043,-1.645556,2.3982286,3.8088713,-0.76648045,0.37166595,1.6617155,-4.216851,-4.320958,-4.987647,3.9000034,-2.2723036,3.3767052,-4.7568755,-1.9150157,-4.187104,0.72677326,-1.2443762,3.9792995,-3.5808754,-4.840586,-4.991987,-2.5590122,2.9214869,1.2551017,-2.3519301,-1.2537379,-4.2832665,-4.6513124,1.3686185,3.8077679,0.42207718,-0.7623248,4.498268,-2.5516176,-1.7006354,-1.0118842,-2.4903564,4.511998,0.11979771,3.3807316,-4.6341047,-2.9864388,2.0423293,-0.75773,4.780134,-0.9412627,-0.8008628,2.133408,1.6556044,1.075458,0.68328094,4.5557423,3.257412,1.1434269,4.031537,0.7120104,3.3083715,-2.1538591,2.970038,-3.0714183,2.0218964,4.5251827,0.7376213,-2.2796674,-1.661408,2.3861074,-0.66902685,-0.8832879,3.0815563,-0.44121265,1.1322384,-2.2098827,-0.59466934,-0.4072466,2.9938178,-3.380546,0.041347504,0.18382597,-4.3314495,-1.7077315,-0.56206703,-2.1366735,3.198516,4.333791,1.3635626,2.5254273,0.32392406,2.7545767,3.9905176,0.81559944,-3.2314205,-0.05769682,2.094233,-2.8637,0.13627434,-2.9238634,-1.3351691,-0.4805379,-3.1795244,0.98458767,-0.41509533,3.0572996,-4.435763,-4.634833,-4.638066,4.602234,-4.4842553,2.5422678,-0.16623116,3.9354153,4.3278427,1.572629,-4.51136,2.0547361,-0.26512814,-0.76135635,-3.4714847,3.3244705,1.3314443,1.6113081,-1.1943359,1.8188815,-2.7142417,1.1796112,3.4335852,-4.2290072,2.4841313,4.351514,-1.0525489,-3.1457615,4.0999565,-2.3518026,0.12827969,-1.41559,-1.1914492,3.0873213,-0.037217617,0.4611025,-4.7146206,-1.4767671,-2.5631733,2.9403062,-2.2822332,3.2060375,-2.5752516,3.2481833,-3.9107232,-1.0812092,-2.8013082,-4.947004,-2.0784812,4.0551414,-1.1322737,0.7470255,0.7636585,-1.0059447,-2.5244613,-4.965944,2.854671,-3.5745013,4.7006874,2.8960953,-3.1358397,-1.241004,-2.978568,-2.2370548,0.18629599,3.7658272,-1.1383033,2.0601373,4.628028,0.6662059,4.4834843,3.020359,-4.8565526,3.746871,3.8149605,-0.2750635,-4.232463,0.65587234,-4.059915,-3.4292102,0.95403767,0.03676653,-3.9015536,-4.1926103,0.25922823,-2.002505,-0.74039173,4.990081,1.3688097,-2.721209,1.9796133,-3.3962579,-3.6520374,2.6334214,-0.38873625,4.4831448,-2.0126052,-1.5662603,-3.224842,-2.1605349,1.0404034,0.09611845,-1.031915,1.6708808,-0.97015667,2.7096133,1.1030383,-3.805781,0.35254765,-1.0811138,3.1298952,-4.430406,-3.7626255,3.7542076,-0.42779207,3.7830143,-0.486228,-1.3759696,-2.391274,-0.200593,-4.629602,3.7389774,2.8524752,-2.4717724,3.2748222,-3.6949615,-4.551323,0.8138132,-0.9663539,-1.2072415,0.6233492,2.6823382,-1.086318,1.0026355,-1.5295167,-4.2641954,-3.0211897,1.8683524,4.581579,2.0300918,-2.5166261,-4.295059,-1.2575686,-3.2070823,1.0769548,4.428605,-4.9616146,1.1338191,-1.8431096,-1.623174,-1.029933,-0.6231065,-4.0396967,-1.134129,3.3280144,-3.4411912,4.916361,2.619154,3.8534746,-2.5127916,-4.75634,-4.8355365,0.81998396,-4.5661373,1.8961544,-2.013647,-3.9391482,0.923192,4.336858,-1.2206995,-0.6658306,2.940177,3.0021563,-1.1828904,-1.6840796,0.35074663,0.6387625,-4.2923546,0.9884367,-0.95783424,3.0560036,-3.632328,1.1449356,3.7723293,-1.7796354,0.20037651,-0.03717661,3.7600718,-2.0461326,-4.3814497,2.9888911,-1.5174329,-3.3513105,-0.010838985,-3.4035897,4.624077,3.4705687,-0.4972763,2.9332333,3.9947147,-4.1099124,-0.9013691,0.6238823,2.7088733,0.08672714,4.6255207,-3.5650861,-0.36203957,2.7476292,-4.5662208,-2.4858851,1.5283785,4.4663105,-1.9336658,2.941226,-0.6627207,4.3794975,-0.2937746,3.8172312,-4.709215,2.5406408,-3.1867166,3.829646,3.9470663,-0.7324896,1.3335538,-0.7865286,0.60407066,0.63418293,0.20255566,-1.9901853,-3.209455,-4.605364,-3.4215152,4.3833904,0.21289062,-2.397288,-1.128531,-4.1012883,2.6697607,1.332295,-1.4874859,-1.3702178,-3.756895,0.96594524,-0.69052935,0.31073475,4.8426075,1.7297697,4.3504353,-3.6459231
-2.5149183,2.0284586,3.6011086,2.5122051,-1.7186041,-2.3907053,2.4485655,3.7813234,2.9401798,1.8266206,0.4180851,-3.3718967,-1.7342484,-4.297731,-2.1907334,3.5801048,-0.18151522,1.5921044,-1.5546613,1.9291286,3.6407957,-3.7424994,-1.7553461,-2.352765,-4.394798,-3.4854996,-3.4269714,0.5415349,2.2157407,0.079668045,1.3473134,-0.21295309,-1.5526831,4.778124,0.04714918,0.616519,1.3058882,0.42463303,4.4464293,4.2185583,-0.655612,-0.6766901,-0.55726814,-4.975452,4.902357,-3.8102448,-0.7189727,-2.7227652,-3.5476298,4.7763386,-0.7250347,-4.88875,4.428035,-4.5313206,-4.0886145,0.38270426,1.9598408,3.2286463,0.55302143,2.0203104,1.013793,-4.807832,4.331912,3.6011534,-3.6274898,-1.670032,1.1838775,0.12041807,-0.4085474,1.3818111,0.90065,-4.6188803,-0.8639388,4.893036,1.0937586,-3.4711413,1.0845523,-0.69776726,-1.4430051,-2.0793157,-3.1927757,-0.05178213,1.9657421,-0.20498228,3.0581722,-4.6157827,-2.911669,-2.7983725,1.3184271,2.3828812,1.1472301,-2.7443373,0.28641415,2.642929,-1.0176802,-4.1905136,1.0444589,2.3994346,-3.301558,3.4366627,-0.2394228,1.3843684,-3.0121322,4.481057,4.170866,-2.123167,-4.150601,-1.9414079,2.1424084,2.5411181,-3.7682915,1.7751303,-2.7899938,-4.428516,-3.5072298,2.5525837,3.9108105,0.7371721,1.3708277,1.4287715,4.8607044,-1.3341136,2.3861833,2.7886004,3.0113468,4.3706083,-4.9971623,1.5759029,3.5185595,-0.24471712,1.654521,-3.407786,-2.4169974,1.1581731,3.2033405,3.493226,-3.3161001,-4.864436,-3.811717,-1.941936,-3.9275682,-1.0576952,3.53222,-1.7532039,0.63671017,-3.2344933,-2.1890478,3.998806,-2.6894534,-1.1507845,-4.2295666,-4.8448353,-4.9053764,-3.400668,0.51433325,0.23493385,-2.8996718,4.163368,-0.66383934,-2.7302408,-4.566319,2.377954,-0.63074875,-3.449583,-3.329866,-4.9556236,-0.75774574,-1.6815126,-3.844573,4.516488,0.7409291,4.8469563,0.476161,-3.809322,4.773551,-4.4629884,-4.3791485,2.7799077,4.8975916,0.92343044,4.4528694,-1.8931227,3.7587118,-4.584255,-3.2789474,-1.3609676,-2.7678795,1.0611606,-3.7918086,4.884899,-0.50465584,-1.056171,-4.954509,-0.05817175,-2.673822,-0.36564636,-2.530961,1.5794806,-1.2326889,2.5415058,-0.1132431,-0.10706806,4.156275,4.16537,1.3230443,2.238428,-3.5919456,-0.19103813,4.1365757,-0.058945656,-3.6674027,4.5892744,1.928184,0.07574558,-3.3013475,-4.622488,-0.32576132,-3.3301954,-2.2023277,3.6484728,-0.46788788,-3.6098254,-3.8124366,-0.38903475,-0.3730588,-3.4738064,-4.499495,2.5101986,4.744261,3.5383663,-3.9307678,-0.43673086,4.9461193,3.8100262,-2.0735698,1.7367039,3.789359,-1.5430622,3.7019844,4.123687,3.6489477,-4.9082065,3.9628296,-1.8635654,-0.09729481,3.7080488,1.0428901,-0.9556837,2.8651867,1.3346934,2.9829092,1.5525227,-3.056997,0.10463333,3.6268024,3.8302803,-3.7079465,1.1803713,-0.08111048,4.0398407,2.6894374,-1.4078588,1.6518965,-0.57169867,-1.9828181,3.408926,2.8913836,2.1040058,3.5540018,-4.02765,-4.645317,4.4960012,-1.3474274,1.0214353,-2.8930693,3.0299578,-4.225428,-4.5189857,-1.3685656,-1.5282674,-1.8642974,-0.15196037,-1.7482877,-0.41765213,3.7550983,1.2923784,-2.1270967,0.7139087,-4.8055296,3.5415306,-1.002676,4.3319855,-3.7372165,4.2283545,1.1757569,-1.4130914,2.0863223,-3.081001,-1.336863,-4.820859,3.1126728,3.003624,-3.721511,2.3923845,1.3545504,-2.292407,4.867779,-1.0382743,-3.8413942,-4.573875,-3.999685,-0.69092035,0.25380373,-0.9621601,-4.5316696,-0.666873,3.214323,2.1372986,0.63696575,4.3696175,1.400249,-1.4378417,2.327273,-2.653511,2.7394514,-1.4240003,0.029841423,4.631091,-3.5426414,-3.4051275,-1.4690275,-0.20199299,-1.7952256,-0.51220465,-2.9749079,1.2278395,3.6532192,-3.1088912,-4.14359,4.0012665,-2.959503,3.1119394,3.6530647,-1.7939405,2.1060753,1.3632803,3.2620144,-3.2251215,-4.0762434,0.77642155,0.37989902,-3.4996982,4.0572605,-1.0720646,-2.0515614,3.7998638,3.2155466,-4.415546,4.7648993,1.3698077,4.9241247,-1.3274086,-3.335989,0.7105422,-4.3606973,0.8680353,2.4387293,0.7776089,1.2953401,-1.31357,4.959202,3.0451632,1.8880005,4.4677734,4.84268,-1.8080373,-0.32606888,-3.7403588,4.3503857,4.729083,2.9584627,1.6295881,1.5036688,-1.0538368,0.13779116,-1.0324383,-2.6320016,-2.1088147,2.6567025,-4.360857,-0.4479618,-3.5378222,-2.3423834,-1.5145433,3.70253,-3.0395854,-3.0849738,2.3158941,0.10769653,-0.21869087,4.613723,-2.5560987,1.9905615,-0.37451744,1.8817186,-3.6555457,-4.6103077,1.7160506,-4.4423313,-1.0148554,2.4005704,-1.3880122,3.9053926,-2.043054,0.48260736,-2.7850251,-2.8467858,2.4337578,-3.2564855,-1.1293852,-1.8528075,2.4464726,2.2757478,3.8831177,-3.407621,1.6791768,0.7171364,3.8345938,-2.541144,-0.7976384,1.1057186,-1.7579818,1.8324924,-2.8794658,-2.3176618,-4.178891,1.6074972,-1.1102514,-1.6656942,-2.528277,-3.7399304,-4.4708757,0.1053524,-1.5354931,2.7409406,-4.660175,-0.9425411,-0.85341835,1.6616535,3.0025415,-4.093161,-1.6401088,-1.7664301,0.05201578,4.31347,1.5731764,-2.3869455,-3.3105838,2.3213663,-4.7095747,3.900546,-1.0597622,4.6094923,1.8801064,0.29031706,4.625252,-2.77595,-3.6752396,-2.9088826,-0.3215003,-1.7245455,1.7425799,4.9162807,2.7767034,4.8810844,3.9179888,-2.5285316,1.8956184,2.6526108,2.617581,4.360487,-2.8662996,-1.0870628,-0.8061261,-3.5944538,-0.6203022,-2.3447065,4.870639,3.573969,-4.1652546,1.9225798,3.2545862,-4.8314424,1.927495,4.1673164,-3.434219,-2.2944827,2.7030206,-3.9347005,-4.3630714,0.19317198,-4.3306537,-0.0008840561,0.44701767,-0.9511714,-0.9498396,-2.4991412,-4.4787574,-3.2322545,3.2741032,-0.013602257,-1.5456927,-1.2795467,1.8836188,-2.864734,2.696476,2.1227665,2.5781126,-4.5189495,-2.7236962,-1.7078781,4.8350515,-0.9915018,-4.370514,-3.4204984,-4.155737,-0.46879673,-4.9447613,-3.2120852,-2.515409,2.3846998,2.4972076,0.5256901,4.402074,3.696764,-3.202653,-2.4288864,4.8549337,1.3538842,3.07893,-0.07622671,0.33397245,-2.2638023,1.385273,-4.3503695,-1.1854177,1.3398051,1.4197736,1.361547,-1.2342734,-3.7415414,-4.3109093,-0.7504244,-4.9372764,-4.7989025,-1.7295754,-3.1152904,-0.3917699,0.8891001,3.7584486,-2.5413256,3.870841,1.9774103,-4.982481,-4.6753187,-3.3745944,0.19957161,2.7566452,-1.656959,-4.264783,-1.9630938,0.08756447,2.2216358,-1.6959488,4.162386,-2.302752,1.333406,2.0285597,2.3471746,-0.69385815,-0.14463043,1.4134359,3.5765371,-1.8498592,0.93616056,-2.7888374,-3.5907907,1.2065992,2.7525587,2.5779557,0.3685732,-0.550478,-2.9634035,-3.5585337,0.22312546,2.637632,-4.351197,-4.788384,-1.7303152,3.6972504,1.3865566,3.8529997,0.86922836,1.8495994,-3.1513953,-3.3160515,1.4416952,2.643155,-2.739437,-1.5699673,-1.3474374,0.62808514,-4.68202,0.67020655,-0.5940671,2.5815053,2.1967173,-4.5792217,-3.2891726,-2.8891306,-2.5650673,-3.6607795,1.2573175,0.2793131,-3.3713012,-4.4924545,0.99571896,-1.8123233,1.1118226,-4.597535,-1.0640788,4.2735567,2.8658037,3.578041,1.6795597,-3.7373476,0.6302872,2.5279813,2.8885708,-1.0426741,-1.0215724,-4.9152203,-0.36918402,2.3840628,2.889564,-2.568502,-0.8196697,-0.37065077,-1.5172071,-4.067323,-1.8982351,2.0748224,-2.710024,-0.17758656,-3.1959648,-3.8255353,-0.6834121,2.9083085,-4.088698,3.1602354,-2.2061796,3.7461643,-2.570465,2.181664,4.954879,-2.6898189,-4.395399,1.4773488,4.768956,-4.846449,-1.4126153,0.18025827,-0.15274906,-1.7253029,-4.8865104,0.37652254,3.0893402,1.9346576,-3.6820836,-2.4691896,-1.3680065,-3.3029122,3.0997782,2.5801702,-1.6730464,0.23746777,1.5200639,3.0856876,4.329857,-2.585305,-2.9670196,-1.0360408,-4.6615887,3.3037148,4.1256285,-0.39465475,2.8925295,-2.4967527,-0.19732952,-4.185686,0.93218136,-3.1667404,2.694139,-1.4700751,-1.7064977,1.0390048,-4.734069,4.923231,2.7831926,-1.0477257,-2.2176003,2.6248589,-2.139327,4.6075945,-2.2121525,4.0500937,4.6459904,-1.9985933,-4.743109,-4.5265923,2.4800038,1.8145776,-2.1706076,3.944498,3.7022514,1.6393232,4.0272255,-4.2610407,-2.726487,-4.304242,-3.8177757,-4.306364,0.51009893,-1.5624559,-0.015917301,-1.6220217,3.982461,4.481632,-3.6291094,0.037302494,0.19653606,4.5218964,1.5286202,3.5003881,4.8541126,-4.979462,-0.7191019,1.7267399,-3.3582783,4.7298,-2.2026367,1.1097012,-4.8034534,-2.9709954,1.728445,4.599189,4.047474,0.8001776,-0.057672977,3.29002,4.1981373,-1.4054763,-2.9676664,-4.6811256,-2.7201633,-4.839568,2.079801,-2.1206522,-2.6879156,-2.163312,4.285676,2.5443745,-1.6344559,-4.911394,-2.4789643,-1.1992466,-3.4565825,2.989541,-1.7602885,2.7554855,-0.87349653,4.6698112,3.0935469,-4.458139
1.554275,-1.9536524,3.5210314,4.693716,-2.6275058,-3.2080007,2.2106647,1.1889763,-0.022332191,2.3585176,0.17815638,1.0057693,3.6997395,2.061266,-2.5480592,-2.0329623,1.4737172,-2.3880339,-0.4003439,2.081026,-3.3872724,-1.7328506,0.71520996,-4.8655324,-4.0598764,2.2826185,-3.3022368,0.6475663,-3.1432743,-0.7798462,4.74469,1.2260723,4.88124,-4.7559814,-1.2085807,4.3258963,3.6210794,-3.7859173,-4.7292185,4.6903267,-3.370117,-3.4594183,1.5029898,2.8379955,-0.17548847,3.4495974,3.9127254,2.7450252,2.441823,-4.987056,-4.4289875,0.67349625,-1.2236528,-4.1879315,-4.9670715,-3.3729255,-4.946617,-0.47261477,-2.8831248,3.5305138,2.3641372,-1.9253528,-1.5021472,3.8072948,-1.6012292,-4.739313,3.4158154,4.2007093,1.8474774,-3.9406478,-1.2342703,-3.600328,0.09517574,-2.2544794,4.4781675,1.9764543,0.49411058,0.33766508,4.809808,2.040605,1.5050592,-1.6722174,3.2317886,2.3536801,-3.4735405,2.7898173,2.5223808,0.040678978,1.3788233,-1.5848291,4.4901953,4.820902,-1.8217201,-2.6863413,-4.482426,4.94296,0.87742424,3.4623604,-3.6199098,4.929036,-2.522812,2.2442045,-4.9480085,0.43579817,-3.3709164,-4.2559853,-3.6093915,0.9192753,-3.5641968,-1.4049792,-2.4834836,-3.8913357,0.05764723,-4.218251,3.8602562,-4.53855,-0.2572813,3.8439693,-4.2804265,-4.4310694,-2.75562,0.6298647,-3.8216913,4.1144524,0.42941093,-1.7376618,-2.1014833,-3.6095464,1.028904,1.9250207,3.386077,-3.2163568,2.9553947,-3.7219934,2.1411133,4.9206667,3.0752535,-0.26401424,-3.8762574,-2.4671662,3.4838934,4.8414392,-0.20508528,-3.6097264,-1.7304301,3.268715,-2.643476,-2.5256228,3.3306732,-0.15941381,2.9355645,4.557149,-4.397829,2.5568886,-0.115205765,-0.08910608,-4.071062,0.6882725,4.8643055,-1.7310297,2.0447311,-2.3680842,3.7748823,-3.2024848,-3.8735425,1.5493078,1.5276022,3.6909676,3.9866762,4.0699997,3.6542463,-1.4329071,-0.2431593,3.0409946,-3.2098837,2.5695686,-2.7959638,4.116973,3.0351143,4.045185,3.6381645,-1.879977,2.2088623,0.49281502,-2.326551,-3.292414,-2.210946,4.9485407,1.0575352,1.1270323,-0.16860533,0.59391975,2.67909,3.227271,-2.1979892,0.622982,-3.064009,-3.6371226,0.15529728,2.6575174,-1.0334182,-0.006049156,3.8364391,-1.0610878,-1.2957425,-2.1254988,-3.7846274,3.9561777,-2.5801153,-1.3675702,4.583701,-1.5484433,-2.3041396,-0.33398676,-0.42859507,-1.9137621,-3.6721869,-3.4450471,3.4489079,-0.3829651,3.01538,-3.020275,1.6510153,-0.8803563,3.2351665,2.8902588,2.5712252,-4.657792,-1.841671,-0.2885461,4.0740013,-1.0995884,4.5354443,0.17581177,-2.3389058,4.045742,3.3487215,4.429473,1.4254246,1.4796267,-3.742901,0.61175823,-2.8010619,4.1704063,3.5609121,0.8702016,3.3456602,3.8471813,3.7153025,-1.8104315,0.7880335,3.4711037,0.5137396,-4.224114,2.084138,4.4196787,-1.4745903,-0.038516045,-1.0311115,3.9869423,-0.08759928,-1.4684379,1.7118444,1.8062067,0.46046972,4.151428,-3.655728,-1.0829206,3.6489353,-2.0991569,-2.3958325,2.1235085,4.7399826,-3.4582906,2.5817337,-4.005666,2.2851534,-1.5621562,-2.2705483,-0.48340273,-2.6079254,3.3293123,3.6281986,-2.4921231,1.7940769,4.0163755,-2.1998107,-4.4281263,-4.2058506,-0.5531988,3.6993694,1.6770644,0.2707882,4.4283285,0.5473232,-4.055447,1.4346886,2.8450623,-0.5644536,-4.5800085,-1.1357112,2.790658,-1.9872003,2.4756975,3.6796274,-2.945788,-4.8583126,-3.1743474,4.3404236,1.7443438,-3.3114414,0.33899117,-3.5572195,1.8608084,-0.9594178,-1.0708027,-0.9159584,-2.7504945,4.985382,-0.1648469,-2.9675908,-1.8793993,-3.9518607,4.1128187,2.0983467,2.5475984,4.4252367,-1.8855333,-4.818179,-2.2048097,-4.430597,-2.4795878,0.22516632,-2.4075718,0.65108204,-1.41782,3.7379246,-3.9794855,1.6894464,-2.1650732,-4.262945,0.9149723,-0.23031044,-3.604101,-1.3250141,3.9630947,-4.471099,-2.7706766,-0.06300831,-1.8743439,-1.5475125,-3.3755088,-0.28749466,1.2674913,0.20944834,0.06835413,-2.4550235,-2.1219432,2.249844,-4.296626,-3.2349312,-1.1945348,-1.4467616,-1.3311963,-0.33323097,2.649973,3.007864,-2.7734232,-2.68615,0.09869337,3.0792665,-1.8436444,0.76670456,0.72747517,0.22982025,2.3068233,-4.7005396,2.7426968,0.14090014,4.136441,3.5237112,1.6990433,-4.252195,-4.4194593,-3.1848497,4.1631145,-3.0119486,4.8423996,-0.11950445,-1.3952522,-1.4734542,3.870677,4.4756956,1.4469199,3.1362638,-4.7868586,1.4182825,-0.64571667,3.5720615,-4.500763,2.8161912,1.1852698,-3.1097894,4.133731,4.6166153,-1.792841,0.019793987,4.5914755,4.954479,-1.0332041,-4.963553,-3.7961435,-1.1113465,-0.38590336,-0.76473427,3.656188,3.5604906,-1.1222072,-0.7771034,-0.75050306,3.55517,3.8438349,-4.7075915,-1.1534815,2.140818,-3.6474676,-3.9387012,-3.1021917,-3.3504157,-0.94353914,3.3817902,-1.2914348,4.1352253,2.8197155,4.6887856,1.0816264,-0.655746,3.211728,1.9923439,-1.2672985,2.51188,-0.1147089,-1.9293737,3.495203,-3.5703926,-2.173317,-2.2017379,1.3039236,-3.7243223,4.43369,-0.08757591,-4.600212,-0.3140235,1.1652331,-2.8133922,-3.028595,-2.0889874,3.1819258,-0.71518993,-1.9145842,4.278656,-2.266649,0.009183884,-4.7543983,-2.8620958,-0.16317368,-0.2692361,1.5002866,0.26683092,-4.3796062,3.557907,-3.8378878,1.2245803,-4.9493365,1.1558385,-4.4488816,0.7329173,-0.33595943,-1.9460714,-0.42956638,-3.934,0.14020824,-1.5179272,4.221822,2.4529343,4.132332,-0.9034209,2.6248074,-2.0102358,-2.50248,2.8146648,-4.9812737,1.0422139,0.80348396,-1.9519329,1.4574094,3.451005,-1.1172419,-4.438671,0.99057865,1.7631059,-1.8675275,-1.5749187,2.5450363,-1.4398134,3.2437267,2.1887484,4.0472975,0.18779325,3.0729275,4.461075,-3.6939359,-3.5159707,3.1166134,0.8615265,-1.6350179,-3.705877,3.8033667,1.6362853,-0.15815163,-4.844932,2.9357014,4.6934233,-0.8041692,0.30271626,-3.7595649,-4.7246017,3.9458284,3.455799,-4.5196085,-4.487226,1.6845188,2.7626042,3.9460897,3.923482,3.4393692,4.6901217,-0.43310642,4.8468475,-2.3500915,2.8681712,-1.1304736,-2.0072503,1.6595464,1.9364877,-3.2750802,-2.0450497,3.8702211,-2.4363422,-2.2972126,-0.18240881,2.2613854,4.5567617,-4.5504456,0.83901453,1.5796223,-0.3548522,-2.525481,1.5937433,-0.6014638,0.10996294,0.8097172,-0.3618574,0.7684536,4.6076794,0.33370113,4.5250797,-0.60974836,0.79383373,-4.3887844,-3.8041592,-1.1355038,-4.5782943,-2.789346,2.0049233,4.0315094,-3.9746273,2.4540443,-4.8103743,-0.57125664,2.8836336,-3.1772323,4.0920105,-3.0127966,-3.0528097,1.5988488,-4.841203,-1.551019,-4.5825224,3.3907137,0.19352674,1.6674705,2.9609404,2.526414,-0.26087236,0.5320387,-3.931799,-2.1552038,1.0043426,-1.0856843,-0.73108196,2.0861287,-1.5267496,-4.943331,-1.0176837,1.3147979,-2.5230722,-1.8766785,4.4189405,2.4903784,3.394968,-4.6444654,2.384943,-0.33907032,-1.4394383,4.505293,0.5613251,2.40378,1.06983,4.1059217,3.0329647,4.1321077,1.8705149,1.0725474,3.675314,0.3329935,0.073394775,2.768937,3.670062,-4.715684,4.8732815,-0.9218812,-2.7936697,-3.136953,0.85760164,0.07381344,0.11858511,1.6906238,-2.7685003,0.7140503,-3.6895638,4.6090603,-1.3609319,-1.5915716,-1.1568701,-2.7615519,-3.3416538,3.140359,-4.2790527,-0.8996129,0.32146168,-3.4752517,2.0964737,0.126441,4.181653,2.608388,-0.88204813,1.2315731,3.8346252,1.6393142,2.12564,-3.289585,1.1300278,3.4715452,4.0276775,-0.08416939,-3.813026,-2.4164991,-3.1061907,-4.1493506,0.72308636,-1.7989874,3.4094353,1.8333678,-0.17068434,1.790626,3.9075727,4.9507103,0.11105776,4.537613,-0.8302078,-0.6933837,-0.68168926,0.24288559,-4.4562407,-0.7028241,-3.8910575,2.0905075,-2.6114082,4.1149178,-1.1035049,3.9718304,-4.2664003,4.0032167,-0.107889175,0.6951046,3.2411642,-2.195661,-4.6304617,2.9311347,2.6440325,1.103046,-3.796686,1.4647942,-0.1820426,-4.2114058,0.121837616,-1.9727235,-4.6116595,-1.1089306,1.9553542,-1.2134886,0.42081404,-1.0827005,4.9949274,-2.1710486,4.037262,-1.5305424,2.9966335,-3.526237,-2.3003225,-0.718503,4.772524,0.19377422,0.40317488,1.838265,0.040946484,-4.718716,3.8060799,-4.514435,3.2335749,-1.5483327,-3.0379927,2.888987,1.182682,-1.9004602,-3.205806,-0.6398797,-2.8635,-0.6433792,0.5329685,2.9417439,-0.32264948,-3.9135003,1.8213153,-3.7882833,-0.39522076,2.687173,4.0317335,4.0890665,0.36707687,-3.698579,-3.9203744,0.6630516,3.7953339,-1.74999,2.8997393,1.5664649,3.8551092,-1.0456009,-2.5003695,-4.7254686,3.8804913,-3.9897852,-4.509571,-0.09535837,3.9117012,3.4304476,-4.6495433,-0.43339777,-2.7689939,-4.426844,-1.8311982,2.3731418,-0.81405354,-4.108819,3.3508148,-4.118679,3.6514702,4.116641,-1.592536,0.33271837,4.0483932,-0.5525131
2.4634833,3.6784248,-4.5972176,-1.8763809,-4.0776343,1.5039415,-1.480114,0.4515314,-3.2010407,1.8364787,4.67717,1.2897563,-4.498522,-4.2510405,-2.0360136,-4.8852153,-4.9247766,-4.8105946,-2.3783212,-4.727664,4.586794,1.9748487,3.0672245,-0.16920805,0.24642515,4.823744,1.8069916,0.56767035,-2.9907763,-1.980546,-0.226614,-1.7468314,4.8769655,-2.2844176,3.6327991,0.62351894,1.6748075,-4.472518,-2.3449862,-1.145283,3.6702566,0.8407383,-1.9548726,2.4320898,-2.6986809,-3.3005767,3.910925,1.309802,3.8698626,-0.57410955,4.933634,0.5542431,-2.968288,-4.6268725,4.7196465,3.8531075,1.6622438,-4.379511,0.042545795,-4.605789,-3.3480043,0.50337076,-3.5841422,-0.44193506,0.029817581,0.62725735,0.6634569,-1.0591645,1.7692332,-4.3764286,4.3886366,-2.6219797,4.7859316,4.391382,4.382618,-2.3558486,0.07063389,1.9070396,4.0602074,2.712511,3.4542856,2.3138194,1.1948614,-4.3280478,3.083521,-4.342457,3.92387,-4.629195,1.5847154,1.3444037,-4.628763,1.1183615,0.4217167,-0.040478706,-1.1064446,-3.0818427,-0.8558893,-3.577658,-3.2775104,-2.9161155,4.3669806,-4.508938,-4.9582853,1.8119307,-1.4916837,2.9817972,-1.4233203,4.6109715,4.065978,1.645977,-0.03567314,3.5308228,-3.3851504,1.3615847,3.8030462,3.8870335,2.2582393,-2.9458957,-4.2845635,-0.6322241,-1.1666524,-0.83566,0.1343193,4.5429096,-4.9417167,3.7890558,3.330124,0.057888508,-3.7438345,1.7575226,1.7777739,-4.684003,2.995016,4.8451214,-3.4388435,-0.15718651,0.85539055,1.3220172,3.9837742,1.9359627,4.330367,-0.11095095,4.799675,4.317624,1.7351398,-3.0548496,-2.1652226,4.135623,1.6377568,0.42139912,1.4127021,3.0571775,4.1232824,1.1669388,4.7865505,3.8801537,2.3658714,4.174699,1.6504173,-1.903894,1.6165729,2.2460794,-1.5001769,2.0793495,0.27372885,2.8775902,-2.6744366,-4.031066,3.8158607,-1.8226175,-2.1133332,-4.991872,-0.63455105,-4.416213,2.764968,-0.995965,-3.1413925,3.3822718,-4.8542643,-4.020795,3.5895348,-2.1356363,-4.6025805,-0.6175451,0.17590332,1.1459646,0.06513357,0.20688772,0.10420036,1.6960201,-1.449091,4.51805,-1.2106891,-1.6887295,-0.2721243,-1.7431343,1.8129182,-2.5299454,3.5674877,-2.0598106,1.3410168,3.2333708,-3.8929467,4.5255413,4.7246847,0.1372242,-3.0102372,-0.5448723,-4.9639864,-4.431481,4.630267,-3.4114683,-2.8898506,-1.5898161,-3.9530473,-2.0199597,4.199441,1.6633387,-1.5725679,4.4101915,4.051301,-3.3566463,0.6698556,3.8337584,4.272497,0.41174316,-4.030629,0.27536964,2.569582,0.63146544,-4.9262133,1.6558027,-2.7391176,-1.9857364,-1.3672614,-3.3236063,-0.023833275,-4.215097,1.0846605,4.9839153,0.737514,0.63246155,3.1818953,-1.4798188,4.106783,-1.3684571,-0.7590332,-2.926076,2.338725,-2.2335541,2.7414255,2.197153,1.5055661,3.9904919,2.8059144,1.6836948,-2.2339864,-1.689002,-4.7168427,-2.054667,-2.3409247,-4.550321,1.5218825,-0.24005032,1.7699647,-0.94975376,3.6399536,4.4218626,4.9377117,3.0885334,-1.9777055,-4.826453,1.0689836,-1.1883223,2.7083168,2.7558084,-2.461607,3.1613626,1.9094272,-3.407638,2.1271944,-4.0041404,4.868658,-4.7045555,3.5781193,-2.3555279,3.529416,-1.7396922,0.98058224,-2.407422,-1.7921996,4.506611,0.971828,2.823203,0.13752937,3.5479794,-4.638498,-1.2146604,4.251464,1.0295553,1.8485756,-0.8303857,3.3477764,-1.8532276,-0.77930975,0.2873745,-3.0322213,-1.6152442,1.8795366,-3.0868483,-4.5018444,2.1670055,2.80575,-3.1229007,1.9082313,0.40369797,-4.3400126,-1.6340632,0.69975615,0.5736475,-4.949627,-4.318938,-0.063397884,-2.4427028,4.172965,-4.115716,3.8594656,3.3077068,3.2938652,1.2372346,-4.134489,-4.5946093,0.8668089,0.94684124,-3.919229,-1.0980964,-0.4986391,3.244935,-3.6876578,-1.0322337,-2.305121,-2.2244816,-4.7508883,-4.319678,-4.1879487,-3.3947964,-1.40521,-3.6410546,-2.3080206,3.2919493,-3.0786824,1.6430001,-3.097238,-3.703802,4.2353926,0.22276926,-1.4142561,2.4088807,-4.8368225,1.0427337,0.38312435,0.44242144,-1.4420576,4.820298,-4.978354,4.7257557,-3.919847,-0.4548626,2.1343126,3.9375887,4.1875477,3.5152292,3.1661825,-2.3468132,-1.8055086,3.424737,-1.6025181,-0.848763,-0.15610933,-1.5333247,-0.028486729,-4.853635,-3.4233398,-0.64922523,2.0783567,1.9730883,-2.6388927,0.83414745,-1.4758134,-3.3023882,1.8507395,0.65064144,3.1871529,2.403121,-3.5730362,2.276536,-0.9095855,0.61550856,-2.45422,3.5042353,2.995531,-3.2807422,-4.537382,0.8889952,-3.6958508,4.2768106,-1.1246467,-4.7688203,1.2320299,-0.24845505,2.1158834,2.1215105,-1.284718,-4.7371473,-3.1679392,-4.850576,2.0556946,-2.6494646,2.0593338,3.2644901,4.1172867,1.2033663,-2.0634584,4.452981,-2.2295566,4.4988747,4.9441757,-2.1619291,-4.619792,1.203496,1.1628385,1.4888315,3.8360252,3.0237055,-0.14936733,1.4131622,-0.04363489,4.7333813,-4.701379,0.61167526,1.7972403,0.93512726,-4.280918,0.12318182,-0.32915592,-0.16505814,-2.8332531,2.2927713,-2.0944393,4.5719013,4.0822678,-1.671515,-0.8168912,0.4546156,2.1865106,-2.6925826,4.573242,1.1612124,2.0228643,3.2982712,3.4215202,-3.817535,1.2708626,-0.8724952,-1.4942253,3.9528074,3.097908,1.6811891,1.1066036,0.097634315,0.17865562,-4.5994797,-1.2687535,-2.0949578,1.1131439,-2.623642,4.2320805,-3.3156295,3.058546,-0.43735886,3.322256,0.08914232,-4.511917,3.4157696,-2.2952032,-4.424495,-4.843245,0.24470854,-1.5169291,2.1089406,-3.1506686,3.5479803,1.7205429,4.6674957,-0.44421864,0.04006195,3.9116611,-1.2009363,-0.9171572,1.8821568,4.5365705,3.500987,1.1460943,-0.55456734,-2.8415442,-4.382644,-1.30288,0.8825917,-1.4062738,2.3531303,2.3938317,-3.5478532,-1.6727476,2.2469707,2.8290596,-4.005458,0.2909155,0.68328094,-1.8683724,-4.0822215,4.12237,1.2762117,1.1790032,-0.14460325,2.942603,4.658984,3.1457644,0.5459509,4.824312,-0.031203747,-0.07999611,0.18628168,4.4988565,2.948165,-1.0185635,-2.4710882,-4.957795,2.9479418,2.8388734,-3.5073829,-0.12691975,-4.9458027,0.333066,-3.2828074,-1.9090354,-4.3173714,0.046511173,4.674574,-3.769002,-2.9761953,4.296953,-3.6755908,2.043726,-0.40872192,-3.8143187,4.2150106,1.1059942,-4.679407,2.097115,-1.7343025,0.8448453,-2.6850753,1.5848756,-0.0010709763,3.781828,0.26852846,-4.7981,3.0694952,-2.7895708,4.8592367,1.2122679,-0.1851263,2.3782449,-4.9312124,-3.9035118,3.5664139,1.5274048,-0.87109375,-4.796757,-2.9333913,2.4767008,-4.9809194,3.891078,-0.9752064,2.3753834,3.985958,1.0749698,0.7462001,-2.272836,0.36459064,-0.23738623,3.4095163,-3.9693713,2.9081182,1.7686386,-2.3516173,3.2608824,-3.3941536,4.8390474,-4.411907,1.3161445,1.5812659,-1.1360354,-2.0351136,-1.6020064,-0.92518044,0.3919258,4.2279606,-3.6249952,0.057246685,-1.795444,3.8385315,-3.3461876,2.5141997,2.3599977,3.3021526,1.5665717,3.5642796,4.074773,4.307166,-1.1015332,3.0975227,-2.7390027,2.3239403,4.589344,3.936245,-4.684125,-0.1438899,-1.7031999,-1.65621,3.538144,4.7811975,-1.2651758,-3.3862484,-4.362523,-3.1938672,3.9697628,3.9814434,1.0569649,2.2321744,-2.348587,4.3669996,-3.5533106,0.10671902,4.475993,0.6715894,-2.8164005,-3.8701482,2.603179,4.892968,3.4418354,2.332654,-4.5201674,-1.9094877,2.462687,-0.08086729,-4.789238,-1.2869966,-4.954131,-1.4306998,-3.7882156,-4.6921535,-0.18919182,4.568383,-1.6318846,-2.779578,1.4710426,4.7974806,3.2513895,-4.8410397,-3.5863173,-0.45325708,-3.338756,-3.1660028,3.402215,-1.737436,-1.6450667,2.5128756,-3.0813832,-2.76923,3.8285627,-4.3419895,-2.5620847,-4.9371758,2.3636246,-0.20931053,-3.2067342,-2.7889104,-0.68742704,-3.0032473,-1.1142726,-2.2255821,-1.8385549,-1.4677901,-1.0862625,-2.4588437,-3.6656606,-4.4959264,4.6107874,3.5772018,-0.1422081,2.525464,-2.3728979,-0.51329994,-1.6213512,0.7393408,-4.0377884,3.475708,-4.1102533,-4.2927628,3.9055576,3.3878918,-1.4524472,-1.2875896,3.2992697,0.98992825,2.4273949,-4.9939013,-1.6580641,0.35510254,4.7091875,-4.2242837,4.6482105,2.3407774,-2.09727,1.0830588,3.0777645,-2.0552278,4.3857346,-2.4396574,-4.905746,2.8422298,-2.4459534,4.35981,-1.9369645,2.842867,4.371542,-3.5435076,-1.4092021,4.626978,-4.9452753,2.2375908,-1.9308953,1.0525775,1.0032578,-3.2790546,3.1762161,-3.410387,-0.9418578,1.0041599,3.7647219,1.5132055,1.8019123,-2.2225738,-1.7803049,4.9241,-3.2186913,-4.955754,-2.2310452,3.9780626,0.51632786,3.580967,-2.0583248,-0.8730984,1.7838402,-1.9322925,-1.0865748,3.1139622,-3.3689356,0.44215107,-2.2898054,4.5560474,4.653822,3.3009396,1.33957,-4.53549,4.0612516,3.3637724,-4.7130594,0.6767998,-3.5494387,0.34468365,2.4253092,-2.278732
