1.756599,-3.5048234,1.3072844,-3.5886054,3.0504055,4.155383,4.616501,1.7340612,-3.5393982,1.2097464,0.46299934,-0.101327896,-1.8738568,-1.851517,-2.8636193,-4.321422,-1.5059566,-4.1790304,0.77568436,-2.6037502,4.5072374,-3.0125737,4.369706,3.993598,-0.7811451,3.4097366,2.1369648,-3.7873042,2.3092532,3.3216972,-3.2319183,2.185277,-4.0729575,-3.5774736,2.2776737,-3.5306168,-3.2204719,1.0553446,-0.060590744,2.9251094,-1.8677437,1.9567909,-2.1014977,-0.14140081,-4.455636,-4.3419933,4.404231,-0.24491596,0.77114296,-0.16555357,-2.453636,-0.5036211,-4.531926,-4.477422,2.4565907,-0.73090124,-3.8733964,0.20131493,4.7908163,2.7644453,2.9400015,-4.237444,-0.08078194,1.9368129,-0.21732807,1.8879414,-0.8839531,-0.3861642,-4.240847,3.3121939,-1.2026417,-0.49356937,-3.0489147,1.37464,0.8112602,-4.496853,-1.1440129,0.8423114,-2.392199,-1.8359418,2.0322504,3.5036287,3.3226976,-0.51850414,-1.6595821,-3.9422827,1.8331442,1.2677402,-1.0016739,-1.4827199,-4.1742735,1.8273821,-0.5360675,2.2484803,-3.5627694,-3.1464868,4.083002,0.1458435,-4.9200196,-0.7640562,-2.9655476,2.782783,-2.7493281,-1.4885998,-0.69503117,3.0930471,-2.3308516,0.29643726,2.1521788,-1.6484337,-4.9672313,-2.4705048,2.237987,-4.1310525,-1.0298009,-4.25951,0.8595853,3.4541779,-3.1521564,1.3845992,0.78203726,1.5679646,3.032464,-3.5776834,3.2285576,-4.735734,1.100894,-4.5799313,-1.7256122,3.594839,-3.9942145,-4.1438203,0.75119686,-1.3094282,-1.0124116,0.9192705,0.69281816,-4.674315,-4.4671335,0.79952,2.7389736,-1.9840436,4.7446995,2.6938763,-2.9136734,0.8464174,-3.6682105,3.1655922,3.8631945,-1.227448,1.5696387,-1.7886119,2.6074753,1.4434853,-3.6526914,-1.499238,1.79955,-0.7540469,-3.104502,4.197274,1.810606,-3.059119,-3.3988338,0.3513279,-2.7138627,-0.16910028,-3.9504175,1.5804806,1.2424684,0.84240437,-2.6101136,-2.9077327,-4.5315356,4.577629,2.4659176,-0.6221361,2.194088,1.0337691,-2.3194952,-4.44547,2.0062551,2.1966257,-1.9107347,-3.0544364,1.0246587,1.8588042,1.7240295,1.641438,4.8223085,-4.701795,-3.4806597,0.21399403,3.82446,3.7820492,1.1685333,1.8265905,3.0080643,1.3359399,-1.1753507,3.1668787,-0.44313955,2.7893138,2.559514,4.9177732,3.1317616,2.2459402,0.0020766258,-3.816821,2.159832,1.2136316,1.2018867,1.4469976,-2.154491,2.6409287,3.3348932,-3.517559,2.580946,-1.597228,-1.4103234,-2.125771,3.166274,0.4908743,-2.6438088,2.958106,-3.4447198,-1.2519968,-4.641552,-0.75793934,-3.5477428,2.073183,-4.561426,3.0548515,2.5208464,1.1383338,3.711029,-2.5649452,-2.363083,-1.4755278,-0.74238825,-3.3058202,-0.6789427,-1.3332927,-0.61802197,4.7763033,4.7063503,-3.0350046,3.1700792,3.0993156,1.1703205,-0.29112816,0.8175845,0.36698532,-2.6489477,-4.4193535,0.81251335,-2.0237942,-3.8821335,1.7302818,-0.85289574,0.30454397,3.926629,2.75564,3.7295265,-4.0887456,-1.2531428,1.8710952,0.392354,1.0209541,-4.0339084,-1.1561227,2.8197498,2.097211,2.9156227,2.5798244,-3.133895,2.0794926,-2.4019802,-1.752758,-4.5063896,-0.12492418,4.4734325,0.590847,-2.4839263,-1.2739217,3.2259483,2.50077,-2.5314033,0.33712387,3.5912495,1.5582728,2.7681231,-4.3269463,-2.6652825,-4.24887,4.7810564,0.5026455,1.1475887,2.7342014,-0.33864927,-4.3466353,1.3971257,-2.8227596,2.398756,3.2175713,2.0840974,-0.34157658,-3.6596608,0.37259817,-2.0066142,-3.562078,4.2148466,-4.275994,4.330305,-1.7598867,-2.2001739,-2.5538206,1.6463671,1.1774182,3.3450089,3.7827072,2.8440738,4.2911997,2.2484503,2.3168392,-1.6588926,3.534544,1.7120743,-3.8528621,-2.1520634,2.0119104,0.91042566,4.811655,4.7689056,3.2740412,-1.5194583,0.28316975,-2.6861107,1.8799691,-0.8415508,-0.8262558,-4.529373,3.32487,3.0742493,-3.228455,1.4833093,4.9114447,-2.5927634,-2.6638455,3.5304317,-3.5188806,4.857147,-3.4411902,-4.8303785,-1.0741937,-1.4294803,-4.6323867,0.6049843,-0.7564254,4.390895,4.3258495,-2.4029708,-2.3162544,0.9483094,0.4087715,2.3755903,-3.0936158,1.2050285,-0.09364033,3.5611925,1.1645384,4.552824,1.5759606,0.58278036,-0.670311,2.2851968,2.5685687,-0.3656702,1.7833347,-1.3167357,4.551608,2.8806357,-1.2998028,2.1044302,-1.8437409,3.296442,-4.813578,2.3506236,4.5457487,-2.2831578,-0.91337156,-0.11353207,1.2402635,-1.5247774,-0.7423086,1.8747873,-1.2449121,0.70424795,-4.6725965,3.2493706,4.0374174,1.3598404,-0.74034643,3.745288,-2.0245552,-0.8336806,-0.10129261,-3.9903545,-3.2013023,3.8080292,2.816296,-3.0569263,-4.2069554,1.0069523,-3.5227334,-1.2211652,3.9386177,-2.333922,3.504259,-4.334612,-2.6661987,-3.3750553,3.2747402,-2.750287,4.808112,-2.8116865,0.73663664,2.6210403,4.487735,4.00879,-0.036260605,-0.48495197,0.24321651,2.5870886,-3.3543367,3.432191,-0.19908905,2.0381498,1.8216791,1.1153069,-4.3549137,-2.1005874,-4.5509152,2.238534,-1.5692849,-0.8609457,2.0065017,1.8372483,2.0959196,3.8722897,0.038894653,-0.13859367,0.26973248,0.58057404,1.6954999,-0.43552446,4.0803146,-0.41387463,-1.5933104,3.5846586,3.4896603,3.980051,-0.6988187,2.594101,-4.83974,-4.404547,-4.701267,4.7825775,3.7847767,2.86615,-0.5888519,4.4034243,2.620833,-2.3138733,1.8770323,2.78298,-1.655808,-0.966774,-0.31132412,-2.1176612,3.3529701,0.852201,-3.0844378,-0.15224695,3.4808903,-0.6675663,4.4470396,0.20514059,4.001692,2.7705188,1.4084578,-3.048724,4.225729,-4.3557987,4.2389393,0.7518654,4.1419077,-1.0962284,0.25821638,2.787794,-0.05767727,2.3530154,0.11728048,1.9535546,4.97196,-4.266883,0.88433456,-0.86657,2.5979428,0.43684864,-3.3609061,3.5836706,-1.0984397,0.3416834,1.5569191,4.7888355,0.92778397,-4.7768774,2.5751357,-3.5068,-0.7018399,4.414261,1.8900051,-1.1554921,0.80517054,3.4503021,-2.2064443,-1.6345401,-4.920237,-4.107311,4.326478,-0.80236864,2.8778372,-0.22039461,-4.3557243,-1.4886701,1.2519073,0.38341427,4.7317896,-4.8597884,-0.51030207,-4.485028,2.373046,0.5857034,-4.547977,3.3668518,-3.170576,3.2214155,3.7436266,3.3851013,1.9748507,-0.5379963,-3.351316,-2.541715,-2.4359024,0.32410336,4.732669,3.2544956,-0.6548047,-3.3528948,-1.1692595,4.8027935,-1.096108,-1.6757755,2.6801195,2.8598986,-1.4235644,3.3679972,-2.3432941,-1.2476773,-1.0979276,3.6897306,-3.0444264,4.1484623,2.402049,-1.2906766,1.3012686,-3.86661,-1.2064362,2.0401144,-4.6360655,3.864316,0.5847497,-0.5203934,1.0370088,0.24699259,0.08065128,-4.750266,0.013448715,-4.916944,-1.1208558,-2.3743768,-4.8564053,4.66728,1.9110436,2.3412275,2.6715364,-1.588623,2.5824647,0.2921195,-3.752607,2.5017242,3.097454,2.1418667,-0.8801694,-3.2772546,-3.9129913,4.81452,0.96379805,1.1714897,-0.89132357,-0.16818619,-3.5454118,-0.7788944,-1.1271672,0.8538809,-2.8932052,4.49271,4.2840967,3.023203,4.209631,-3.606559,-3.3755522,2.4185605,-3.8807588,2.6607313,3.2517614,2.9288645,3.6629238,1.3736682,0.26600647,-0.9815173,-3.2427115,-3.3455598,-4.4425125,-4.2739067,-4.879279,2.8345556,-0.5502796,1.6233873,1.4108562,1.9653311,-3.976975,2.0266685,-2.853262,1.4944577,1.9275055,-4.751689,4.705265,4.5021305,0.47305155,-0.5160737,-3.593605,3.3037481,1.3316116,0.52076054,0.20015812,0.3561349,3.3214169,0.14503717,3.3109303,-1.7094338,0.6629467,-1.5575635,0.55722904,1.7289038,4.88173,4.8573856,-2.1388416,-3.5472412,-1.308918,-3.077107,-3.4382768,3.754095,3.1120243,-2.7269726,4.623189,2.770472,1.0204368,3.0479288,-1.8394804,2.754088,-2.870065,-1.5627646,1.5769882,4.8483515,4.8641577,-2.5484257,1.8771858,4.7736874,0.6605811,3.1158695,-2.4773335,-2.8244114,-2.6503623,-2.567387,0.849185,-0.2009983,3.4667711,2.257617,2.926746,-3.613779,0.35927343,2.1355972,0.18544197,1.0106802,0.7261534,-4.3126493,4.071352,-4.132842,4.2836256,0.689621,-2.6723785,-3.398676,-1.7913337,-0.32164955,-3.889813,3.4690647,-2.4981766,-3.956331,2.831728,-1.6310966,1.3737497,-2.5561607,1.6279101,3.1056986,4.6198425,-1.9484472,1.557415,-1.1910157,-2.4653828,-0.2852826,1.586544,0.98570347,2.211897,1.6962152,0.21313095,-1.4857686,-2.118487,3.2391672,4.82907,3.4962769,-0.20988512,-4.0567417,2.5306644,-0.8431964,2.93083,-2.8339844,-0.5186033,-3.392378,-4.076032,-1.6979957,4.8246746,4.9650097,-2.0226698,1.2390046,3.5083952,4.4969378,-4.2148347,-2.0484562,1.3535957,-4.998569,-1.1367793,-1.9670696,3.3682575,-3.7322612,1.9734406,-0.15082836,0.9619274,-1.8919122,-4.5966063,0.81813383,4.629217,3.5779867,-4.30371,-2.348483,-4.704327,-3.25975,-3.3088975,0.2235136,-4.460625,-4.1314197,-3.995589,-4.4521475,3.1729813
-4.0735774,-2.8839831,-1.2273526,-1.2496738,3.070652,2.6240392,-4.281406,2.5872364,1.036243,1.7820387,4.122081,-1.5325456,-2.3819423,-1.9369106,1.3262596,-4.438774,-2.1474814,-2.9971046,-2.3362546,0.5608487,3.1439648,0.38116264,-2.661506,-4.187629,3.2717857,-2.5708473,-2.3153777,-1.3683171,4.83607,1.2394571,2.936123,1.7828312,4.602355,4.78866,2.5172014,3.0513039,4.811207,3.1845894,-2.6628942,-2.999419,2.8137264,4.086606,-4.4499264,-2.8492327,1.6416335,-2.051866,3.9584188,-4.2343473,-1.9799142,-2.6449275,-1.5857065,-2.1968997,-4.533753,1.0594869,1.9441814,3.4932032,-0.26287842,-0.9761195,-2.4296017,-1.4908104,-3.3987136,-2.9621792,1.1230092,-3.8605702,-3.8373976,-3.6320086,1.3058448,2.7871418,-0.4254551,3.2358541,-3.375637,-2.7112598,-3.7480342,-0.55542374,0.96997213,-2.540083,4.455741,-3.7807178,0.64413166,-4.9367995,2.717371,2.7884026,-3.2519145,-3.1400907,-0.8535981,4.428405,4.445855,-2.7040315,1.472816,-4.4949384,2.4933243,1.3244133,1.4852753,4.195286,0.8713317,-2.5887961,-3.7064266,-2.9736364,3.9574804,-2.0455594,-0.13842201,-3.9454377,0.2993536,0.8701477,1.0346961,4.7791567,2.5011377,3.2585354,1.8762903,0.21525002,-3.4221065,4.6377716,-3.8769746,1.2154808,1.149539,3.7802448,1.6258931,0.397511,-1.216423,1.5345659,-3.0746799,1.3083315,3.9720516,-3.4560628,0.6482277,-0.116431236,-3.7184894,0.6976414,1.59518,-3.43602,-4.193273,0.0050902367,2.193818,-4.1640525,1.6814399,0.24863768,2.7495818,3.2370014,-0.77511835,-2.623037,1.9286947,-2.738933,2.8625007,-2.4892144,2.2285895,1.3021154,4.3135977,4.117298,3.3423796,2.545308,0.13145876,3.0342693,4.0203,-2.6933022,-2.109074,-3.060233,0.045087814,0.8652587,-0.6810622,-4.546761,2.2120433,-2.7706146,-1.0400009,1.2257166,0.06149721,0.6998625,1.3586988,-2.127616,4.1626663,2.2454891,1.5687408,0.39468575,-2.885002,0.19329977,4.1930943,-2.9326444,-3.5958405,0.3177433,-1.8043423,-3.9277363,0.50381136,-0.96683216,-4.3197227,-0.23526955,4.895939,2.0748096,1.1285725,-0.0059309006,-3.3081956,-2.4264693,-0.52540016,3.091632,3.366209,-4.3110485,-0.6525831,0.6166959,2.7275124,2.6278658,1.3771486,-0.7377577,-3.3601344,-3.061192,2.1621537,-0.74809027,-1.9906259,2.7130404,-0.41089964,4.101557,-0.2867117,2.586358,2.1912374,-3.123917,-0.25046873,-1.1242032,3.78117,-3.62854,0.4873109,1.9350457,2.5210476,-4.9997473,-1.0718136,3.4804983,1.9798117,-1.107688,-2.71497,-1.1201496,-0.68744755,1.3374829,1.9916034,-2.9936676,-3.8916535,-2.1438951,4.2298117,2.1231623,-2.4790585,-3.7427993,-2.9692488,-0.53393316,-4.013738,-4.568794,0.50806046,4.2354,-2.3084319,-2.2237468,-1.3850923,3.281372,0.4086156,-1.7664385,-1.3896828,-0.034961224,4.107258,0.6985855,-4.293265,3.926569,-0.028336048,-3.205583,-0.92624474,-2.3069274,-1.5748672,0.92988396,3.8852139,-2.4142826,4.582556,0.7887049,-1.2480891,-4.7269063,-2.5238752,-2.73107,0.44365692,-1.9111717,-2.8363657,1.5250244,-3.7740982,2.7872849,-1.1044044,1.9699721,-1.2185879,1.0666275,0.6339221,-4.2064867,1.3404841,-0.29634476,-3.981949,0.33775425,2.727004,1.5575686,3.7908258,-1.3092065,0.9660988,2.0586452,-0.99276924,1.7859612,0.9271569,-4.2716036,-4.9688916,-4.6573396,0.23645782,2.6941628,-4.291165,-2.9937525,-3.1231875,4.903408,2.4611082,-1.7815514,3.1717758,-2.0428019,4.600357,-1.1190777,-4.3430862,-4.783983,0.6138468,3.106042,-4.464532,2.4998798,-0.5225601,-3.9891548,-3.8833761,2.3466969,2.3152285,-4.5356064,1.8588948,-1.7238898,-1.3523464,1.2703061,-4.0974636,-3.75593,2.6225634,3.3973713,1.2679601,1.6908932,1.9526644,-4.7412224,4.0819616,-1.8134232,3.1378632,-3.949945,4.8841467,4.1812143,-2.3883843,-3.649044,2.052484,-1.1696105,1.7131062,2.6827087,1.973433,-3.0941236,1.608048,4.4658375,1.2574172,-2.371813,2.4364061,3.1933231,-0.22778606,3.0651894,-4.15828,-3.6895847,1.4975758,4.2161865,1.2587166,4.910492,-4.549712,-4.7004147,-1.388278,-0.52987003,-3.3613472,-0.94687986,1.3384795,-2.308991,-2.9918427,-4.4311247,3.2061663,4.4840355,-2.4945319,2.737752,0.7762737,3.9403753,0.90025043,-2.4192917,1.35078,-2.3196805,4.645384,-4.9462376,3.251792,2.2669,2.8003697,4.2380114,2.8409796,3.9605598,4.0168467,-1.7514663,-1.1299503,-4.8605947,-2.2079988,-3.868937,0.26842022,4.9722376,4.908537,-2.2719378,-1.3739009,3.1462421,-4.679718,-3.2077277,-1.7436266,4.0063457,2.2589521,-0.20456505,-4.445799,-4.0192842,2.8852873,-3.2989287,4.2416754,1.8759432,-4.0061855,-4.2774873,0.28029394,1.5122833,2.454074,-0.34944963,4.34293,-3.4282637,1.9407806,-4.217785,-4.107165,1.4936094,0.5313039,1.1745448,3.2575092,-2.3455036,-2.9311414,-2.2040164,0.5488944,3.0265827,-2.5470114,-0.6613202,-4.354501,3.274952,-2.8133261,4.577712,-0.54663706,2.4874296,-1.1937027,-2.2803843,4.942543,2.1639242,4.624243,-3.6367993,-1.2693863,3.6764069,4.56952,-0.33641052,0.7023134,0.25009727,2.802806,4.460269,0.43919468,1.8100882,4.490822,-4.8698683,2.2361584,-4.380211,-1.8316607,1.320579,4.157487,4.5914536,2.799409,3.4985743,-1.0877502,-2.288137,2.4934635,2.4995584,3.5529642,-1.2973924,2.7798014,-0.7593403,-2.5138617,-0.47772408,2.6013727,-3.6247528,2.9123664,1.519198,-2.4052243,1.6483574,-0.7395935,3.6471624,-1.4438157,0.24539757,4.251644,3.525669,-2.699247,-3.3117807,-4.174389,-2.7785945,-3.911208,-4.816153,-1.531858,3.3738537,0.5857682,0.8022442,-2.7471523,2.423503,-0.38968563,-2.1339612,0.5513902,2.8547344,4.537222,1.2448463,2.487485,4.032196,4.2256765,-0.5033231,0.0931077,-0.59007597,3.7896023,-0.16592312,4.86051,3.6461697,2.0401592,2.2355585,-2.426279,-1.1719937,-4.6134834,-4.2406707,-4.996224,-1.799072,-1.3966446,3.8635845,-4.575613,-4.241579,0.69492245,-0.7074909,-0.5803518,3.49092,2.5647936,-1.6064291,3.2272987,2.9141846,3.5508366,2.1853476,-0.6613388,2.3383331,-3.3243222,4.8406277,-2.7229178,2.2704597,-2.202661,-0.6957202,2.13896,3.194457,4.974535,1.798356,4.095913,-4.7536077,-2.9740124,-2.5377107,0.42494678,-2.153006,-4.785619,1.9684987,3.2644978,-0.16163778,1.4504476,-4.181053,4.5402355,-3.6846547,3.383051,0.39166212,0.7789345,0.68031883,-3.789585,2.0192885,-0.36630726,-0.05763054,-4.655546,1.5499983,3.1549683,2.2982483,4.9744997,-1.2124996,-3.6540651,4.3326006,2.031405,-3.4153557,-0.23595715,2.803121,-4.039557,-4.04031,2.34173,0.858047,0.53169346,-0.6160183,-4.290452,0.42477798,-0.2906413,-3.8962483,-1.3135962,2.735592,0.4178338,-0.6540241,-0.79051113,-1.5623646,-0.7717562,3.4877548,-1.5783672,-1.5383935,-3.9982867,0.86606026,-1.0334742,0.6123824,-2.4751635,-0.30004883,-0.8441887,3.2238722,-3.4241676,-0.8889098,2.278266,2.6628246,0.5488758,1.449379,4.197072,2.4223752,2.723755,1.277565,-2.5577962,-0.73026896,-0.06471443,3.704033,-1.6271412,3.9571037,4.662136,1.7359977,-3.7699933,3.3102207,-4.4921455,-4.468441,-0.08176327,3.0081997,-3.5254323,1.275219,-3.8919163,2.4423099,-4.906778,3.7072334,2.7750297,1.9241409,-3.6368723,0.75731945,-1.326148,4.6453943,3.9299164,-2.6452553,4.876562,0.7686577,-3.9974194,0.9050603,0.93564034,-2.9900484,4.3853464,3.6495152,1.2078853,-2.5901432,0.677824,-1.5737028,0.87836266,1.4888487,2.8342152,0.40919065,3.1747236,3.7310228,3.130206,4.414502,4.6354713,0.6209712,-2.3176913,-1.5497584,4.073533,2.6131954,-1.1541247,1.3911366,-1.6041565,-0.9831171,-3.7069547,-1.0045111,-0.6892705,-2.5174296,-3.5075939,-3.9541519,-0.04016018,1.4116583,4.6793375,4.789631,-1.5808761,-3.1627965,0.9660673,4.2790594,-4.454172,3.6756268,-0.6842427,3.947443,-0.013754845,-2.3411763,3.906457,2.1532893,3.6429062,-0.99538755,-3.457653,-0.9280338,-1.8813765,0.3284769,-2.5737119,-0.942574,-0.6370497,-0.5462842,4.2960043,-0.13029575,-4.0315046,-3.485704,-3.034501,-3.6766827,-0.45366383,-4.743843,0.31237411,-4.287546,3.2364073,-0.5140948,1.4149418,4.580186,-1.4786828,-4.5928392,0.98773384,-2.478745,-3.2670088,-0.09855747,-2.3016655,2.2772388,-3.426063,1.550364,0.99455595,2.0999389,4.024687,4.6511984,-3.317995,-2.2252865,0.8829527,4.463895,-2.4012172,1.9293923,2.6170082,-1.9521766,-3.891508,-4.521682,2.6059241,4.382807,4.9766483,1.3789535,-3.1425261,0.8286376,3.4091797,3.117939,-1.8330622,3.67935,-3.9129596,1.7084742,4.2320356,-1.510551,4.2095203,-1.9989471,0.88057566,-4.4441404,3.8498669,2.5245981,-2.3925912,-2.4084568,-4.6806097,-2.877735,-1.3533211,1.0078435,3.4399061,-2.3695266,-4.4227524,-3.1107993,3.996995,-2.1129298,2.7463427,2.3859797
-2.8313553,-2.9722805,-4.618889,-1.1817694,-2.3174973,1.3565583,-3.1691904,0.49973392,-2.2166646,3.9059744,3.9253073,3.7644005,3.9315872,-2.1564584,4.508297,0.44945765,-2.2105908,4.275755,3.6297245,-0.96634674,3.519269,-0.69027615,-2.0845425,-2.5714798,0.63239527,1.0405169,-1.3525801,2.4476428,4.2289276,-1.195004,-3.2280362,-0.49161243,-1.1294854,-1.7510123,4.0820866,1.4163399,1.0409932,2.008254,0.11942005,2.7270937,1.4060264,1.1263328,3.8401375,-0.1364994,-1.311748,0.684464,2.9853487,-1.8835366,2.167614,-0.352221,-0.13914585,0.6536684,1.5995669,-2.4917226,-4.1940665,-3.227231,-1.1149006,3.1620245,4.299327,-3.4773989,-3.419557,1.4233141,-1.8305774,1.802535,-1.042283,-2.6259172,2.4694557,1.6598434,0.84588337,0.8148384,1.5046444,-4.9625196,0.23160696,4.70222,-4.9800134,-0.05614662,4.70288,-1.1804008,-0.44378376,0.40499306,-2.6280034,-1.1049361,-1.129725,-4.840207,3.6479034,3.098259,2.1493492,-2.1114917,-1.444109,-4.909901,3.0924711,-1.1155171,2.6675138,1.1929064,-2.10144,-4.0961094,-2.5381784,-2.632503,-1.1401229,-4.0395494,4.238821,-3.8949442,-1.805573,-3.9441884,0.108795166,4.796096,-0.39568806,4.896553,-3.4498053,2.4951782,-4.5178723,3.168871,3.6073475,-4.4962597,2.2199612,1.7006283,-4.6247,2.2452326,-3.8458633,-4.449398,-2.101488,4.0717106,4.7117987,0.67944765,-4.43126,2.9939966,-4.9221144,3.1322117,1.2176476,-1.4989324,0.89049816,0.7327843,0.908196,2.575697,1.3648968,3.271531,-1.7239094,-1.5515363,-4.743494,-0.42216873,-1.7618937,0.80187273,-1.4692819,3.7816916,4.4302244,4.1334295,-0.99562645,-2.0272927,-0.4567747,2.6985078,0.53993034,-3.2837987,3.0201578,-3.1696792,0.3819189,-0.5626831,4.274146,-0.97244215,0.31670856,-4.7789025,1.854692,-4.203563,-1.128521,1.1143422,-3.5924797,1.7064772,-1.4689426,-3.39431,-0.3018589,1.6333909,0.71679115,2.145176,1.1414185,0.67508125,4.9564657,3.9259262,3.7419233,2.8304672,2.2667484,-4.340928,-1.2368107,2.390387,-0.082817554,2.2650557,4.188632,-0.9161711,1.9253116,-1.2836747,-0.40943193,1.9316692,1.9464297,0.9144907,-0.26206875,4.8543873,-3.6944866,-4.978001,-4.7847104,-3.8415427,-2.2248,0.68802357,-3.295836,-4.8600273,0.7952614,-2.262845,-4.456106,-0.36230516,4.9089108,-4.5463777,-2.190367,0.45782614,4.119464,1.9628053,0.56369543,4.6575823,0.19682312,-1.8502891,4.218275,-0.2234025,1.1542754,-2.7480583,4.596592,-4.5596485,1.5046177,4.5241127,0.37384224,-0.09726238,-1.899827,1.2679095,-3.5076075,4.6114597,-1.5243788,0.6170416,-0.8664274,-2.6732092,3.056655,-2.555179,-2.1499944,1.647871,-3.598599,-2.6006432,-4.0759797,-3.8877983,-1.9834895,-1.9848466,-2.8558123,0.09959173,-4.3995485,0.2771902,-2.0197253,-1.545136,-4.740806,-2.5220227,3.0319614,-3.2117968,-4.5331025,-4.6238937,-1.8105526,-0.6590595,1.5736542,0.54410505,-0.882761,-3.5290794,-2.8845377,-3.5167909,-1.3454592,-2.8513825,2.7420402,1.0583916,-0.2960205,-3.9486022,4.4437256,-0.79636574,-4.5341787,-0.7316408,-3.992148,-3.3377051,-2.745078,4.255206,3.0441036,1.186502,2.650362,1.5952625,-1.1402023,-3.7995677,1.6137476,-1.1982136,3.9554148,0.5503063,-4.0711517,-4.020994,-4.9976597,1.9857874,-2.7121525,-1.0535188,4.1825037,-0.5197573,1.4705296,-1.7902207,4.6699295,-0.59801865,-4.5578146,1.5308552,-4.9577293,-1.5957851,-0.35950947,-2.5965416,-3.1512642,-2.2567773,2.3765554,-3.5645123,-2.4838738,1.8360395,2.199388,1.3671341,2.545313,-2.0006557,3.2487354,4.033456,0.87470007,-0.78960896,1.1770811,-3.9776487,-2.9351497,-2.2523463,-1.8822789,1.6274977,0.7864504,3.9832392,2.5719094,3.204196,3.2729273,-0.4032755,3.3682032,2.665584,1.5847235,0.3520875,-1.6079712,-2.132072,-0.7502723,3.3198576,-1.234355,1.0149665,0.6559944,0.9928417,-3.6710973,-1.3208966,2.2002559,-3.024689,-2.8974156,-0.357893,-3.1510549,0.19912243,3.5495176,-4.177051,-4.7540894,-4.46262,-0.0906086,1.5393295,-3.590701,1.1225014,1.7122865,-4.698722,-4.9837875,-1.9479513,-4.6308184,0.52752304,0.093551636,-2.985434,-1.8452573,3.7933369,-2.043963,-4.948725,-2.678696,4.697419,-3.0771775,1.2129374,0.92255783,1.9522896,0.9550257,-0.907156,3.3989763,-1.3137448,1.9286437,-2.2488384,2.0126686,4.4416695,-1.2179284,-3.646278,-1.1053925,0.988502,-4.5361996,1.418664,1.273437,1.47927,1.660368,-0.63791037,-1.0419445,3.8459673,0.7329092,1.500278,0.86413,-4.659583,-4.217287,-0.71288157,4.455571,0.5211096,-0.029128075,0.65526915,4.889803,1.3348751,-1.8931103,1.5763564,-0.3118,4.757968,2.6270514,-2.9351087,1.6067557,0.028810978,-0.4164467,-2.0556343,3.1606703,1.9345231,-2.888877,0.0801487,4.3211355,2.9730706,0.157866,-3.5261612,0.70068836,-4.6565313,-1.1575484,-4.9734325,-3.2928987,-3.809731,1.1882668,-4.5136304,-4.486413,1.0993958,-3.927991,-1.5440483,-2.305491,4.753112,2.465653,4.2965784,-2.386157,2.3737807,-4.7492723,-2.1709585,1.0466967,4.620865,3.3611336,-1.7442923,1.8420448,-1.2583323,-3.068369,-1.6268659,0.21763611,-0.07436514,-0.22201157,-1.2963688,-1.9246106,0.42054605,-3.1341052,-2.4180312,-2.9977055,-1.0440869,-4.1437073,2.3587222,-1.7496853,-2.2394533,-0.43701172,3.6908464,3.089445,3.708435,-1.6054444,-4.343844,-2.9492176,-2.3033614,2.532279,2.3728619,0.6207795,-2.8134747,1.485774,0.8784714,-2.6077878,-1.7249835,0.2624321,0.052819252,2.7926726,-3.4338517,3.4617844,-1.1306155,0.9626112,-0.122857094,3.1136332,2.8420248,-0.1073246,0.39785957,1.8842344,-2.2224646,-0.26739073,1.6389174,1.8172984,-0.14804125,1.3263769,-1.6777129,1.8362436,-3.6058438,-3.92983,0.6213813,2.9471931,-4.7975354,-1.7434466,-0.7654667,1.3327847,1.07791,-2.1963458,0.9374666,-1.1577649,-3.1013947,-4.2046924,-0.021052837,-4.4545517,-0.2582531,-2.341525,-0.96761894,-4.7502785,-4.8949075,0.08832502,4.4921703,2.7117915,-0.66996384,4.4672565,-0.47410107,4.2339687,-0.743639,4.759403,-4.6374426,2.966094,1.3306184,4.965206,-0.8704901,1.6972685,-4.7029014,1.3998528,-0.5854106,4.6005507,-3.0766988,-3.1949692,4.0222235,2.3766875,3.0615072,4.544771,4.9180403,-4.740031,1.0009933,-4.8374014,-0.860466,0.41885805,-0.78870773,1.9857378,-1.022851,0.17767143,-4.488416,4.2499895,0.7915182,4.944294,3.2206154,-2.832735,0.18195868,0.6013875,-4.443058,-3.0344331,-3.7175016,-3.5597248,3.6788607,3.3759527,-0.15699005,-1.4032478,-0.7098932,4.0316505,0.94662714,-1.1233902,-4.846511,-3.7010932,-2.9312146,-2.6260061,2.9726434,2.8461971,0.7347841,3.512722,-2.698483,1.5361986,0.88043785,-3.4503996,-4.9113197,-0.41975927,4.3030205,-0.63524914,-3.3760798,3.5785637,-1.9378257,1.4794884,-4.7789474,-0.5059023,3.573969,-3.24754,0.39971924,2.9356503,2.064722,-0.23169994,2.3627954,-4.6308856,0.6294737,-3.3811724,-0.7194948,1.1210923,-2.2121568,-2.450283,-3.4967554,-2.0580049,-2.748512,-2.809598,2.6044302,2.7578592,-4.080958,-0.5009079,-1.9327676,4.994754,4.8653784,-3.1370254,-2.7811832,-3.2131057,4.7904797,-3.6517715,-0.961607,-1.7287378,-1.3507128,3.1407309,-4.0391183,1.3584642,4.417759,2.1338406,-4.7012997,-2.307293,4.275361,-1.3014066,-1.4585571,-0.21247816,2.0939183,-0.6740761,3.5002651,-2.4006062,4.462453,3.3730125,1.4919605,0.52061796,1.0553164,2.8933916,-4.7606287,4.056733,-4.6861672,-1.5287619,-3.1759863,-3.7602358,-3.1810582,-1.6574168,-2.776903,-3.6398077,-2.623486,0.47504807,2.767479,0.3989463,-2.500451,-1.0692024,1.928009,1.4858131,-0.9710407,-1.6918702,4.9740086,-0.21220016,3.8899727,3.8179235,0.9333272,2.9171371,0.39098072,-3.4766393,-0.9588766,-1.272372,-0.5408745,1.9660625,3.293723,-2.8300877,3.1147804,1.1145229,-1.7693138,2.0500045,2.5499334,-3.1667237,-0.8495712,0.06681538,-1.9382758,-2.9644198,-4.065545,1.6400809,3.644621,3.2181005,-2.0235908,-4.3336673,1.0073805,0.88876724,-3.867476,-3.102504,-2.3668182,4.6442347,-0.1430111,2.0145655,-2.0615888,-3.740828,3.769393,-1.3186164,-0.33691168,-1.254385,-0.19883585,-2.2519684,4.24321,0.9670353,2.4608684,-2.8190117,-4.5342493,-1.270719,-0.9290724,1.9425049,-0.5321121,-2.312833,-0.6267209,0.12965679,0.027096272,4.30066,-3.3233933,-0.7350168,-4.1391983,-3.9484072,-0.25857878,-1.7065806,-1.63799,-0.21178818,4.5455084,4.4032297,2.5041857,-0.06547356,-1.9357615,-0.46572495,-4.0768147,-1.2628627,-4.319553,4.6682863,1.8199487,-4.7141595,-0.29480648,-4.8918257,-4.600295,-4.822121,-2.5158815,3.0436401,1.9552908,0.5883827,-4.157316,3.3949337,-0.27490664,4.00319,-4.1059976,3.6785288,-0.30680227,3.7400494,-1.7612176,4.419594,-1.1312091,-4.866481,-3.7800395,1.617229,-4.4539547,0.7671051,3.9711943
0.4086995,1.122179,-2.1752727,-2.302996,-2.9837966,1.5418477,3.2621803,-1.4675117,-2.9896336,-1.5600567,-4.8053627,3.158391,-1.3686502,0.9937453,-3.2625656,3.936101,1.8883982,-3.0339022,-3.0978858,2.3600082,3.8631077,-3.4823024,4.607603,-3.755136,-3.2197845,4.546688,0.53227615,2.6495943,2.0074086,-3.7257032,-0.66116524,3.6880236,2.2378464,-0.18645859,-0.3354292,-0.67752886,-0.19018888,3.757166,-2.7686043,3.364421,-3.5707033,0.7157488,2.960744,3.608549,-1.7383246,1.0745382,-3.8200152,-1.318624,-3.745712,4.4214144,0.95881414,-2.7784681,-1.5709419,1.6082382,3.4748669,3.293211,2.7446938,4.3559895,-3.2521904,1.782742,2.2228332,-0.3497467,1.9774218,-1.5549171,4.881569,2.6943235,-1.0478067,-1.95576,-1.6838562,-0.9585433,-2.172451,1.97823,3.5799274,-1.6414273,-4.866372,-0.6218891,-1.2999105,2.772923,-1.0422456,-0.31793547,0.69879246,2.398466,-1.5897031,-1.5066206,-2.4519176,0.7462597,0.8877411,2.81183,1.6388416,-2.3302734,-3.716284,2.7630358,1.1786861,-2.107349,4.8461857,-4.4995537,0.3611002,-1.3779907,2.7970414,0.5811577,-0.17486382,-3.610199,0.81139946,0.07597017,0.9251108,0.048810005,3.236147,-4.0874157,1.7410631,4.404434,2.8175411,0.8082371,-0.82663965,-2.4924803,1.9069791,2.4985733,-0.5566511,-1.8362088,3.5219126,0.07910204,-4.774547,-0.20806837,4.590398,-3.7283587,-3.7236218,-2.8139706,1.8153672,0.1538496,-2.7497506,-3.1615639,2.1966958,-1.9359236,3.553481,-4.165006,0.7030573,-3.9409022,-0.26535034,1.500268,-2.9053993,-1.3137448,4.2465324,2.854125,-4.9975758,4.09155,1.0278368,-4.569266,1.0653214,3.228469,1.7566118,2.947132,-3.598677,0.17064571,-1.0004067,-2.3064013,1.6302114,-0.0924592,4.438156,1.581964,3.2003012,4.9976854,3.0243835,-1.977849,1.5354481,3.8822803,4.1953907,-1.4403944,-2.4827933,-0.5401368,1.8317003,4.742627,-2.8104556,1.5988402,-1.3207293,-3.6062622,-2.9880106,-4.7169065,-1.8296499,-1.0158901,-0.38923073,-2.8586483,-1.868521,0.43246222,-1.7099214,2.4615564,1.0770454,2.3168755,-1.4853196,-3.033669,-4.518284,2.5143328,-2.812243,-0.6126051,-1.6454196,4.698078,1.1946754,-4.8231754,4.597719,0.15915394,2.0835695,-0.9665289,1.5239472,-1.1644883,4.7476053,2.6006327,2.601695,2.4379706,2.3866796,-3.305806,1.0841284,4.1144314,2.7383494,-3.4164577,2.869213,0.35701275,-1.4737916,1.3636112,3.8124552,3.604289,3.5225601,-3.703146,-1.5987623,-1.2354052,-0.96070766,3.6342545,-0.5948868,0.36704493,-1.7706037,0.013577461,3.425787,-3.4864287,-4.449086,1.247757,-2.100141,3.3512802,-2.7648282,-4.465761,-0.23955631,-3.3624487,2.8441281,2.2459645,1.2913375,1.4650049,0.50007915,-4.7388844,-3.4596646,-0.31680393,-1.5052414,4.9465065,1.70362,1.6827049,-2.6511395,0.25941133,-1.6130991,-0.98253965,1.414619,3.2563486,3.095457,0.14995861,4.1675673,-0.09521198,-4.774741,-2.9576433,-2.0845258,3.0641918,4.2101297,3.8442574,3.6982422,2.0239248,1.5236578,3.7058535,-2.2839248,0.96427965,-3.471362,2.8860102,3.30274,3.24236,3.2652025,2.2521334,-1.81867,-2.0890224,1.0830116,-4.983737,-3.500455,1.0355549,-1.6718416,1.3978014,1.9946117,-2.5148792,-4.4202337,4.9809475,-0.98207855,0.08794689,-0.10659504,0.51056147,4.3607597,1.5538435,4.214467,2.2069511,-2.930622,0.5977087,-4.709405,-0.81558895,-1.467485,3.559866,3.2348595,-2.7363956,-3.370225,-2.1458864,-4.4471216,2.3396559,-3.6050677,0.9940953,-3.616889,-3.9120054,-4.236777,-3.0843277,-0.49901485,-2.313542,0.3936963,0.9981947,0.564425,-4.980384,4.0174084,3.327879,3.4518108,-4.579453,-1.7349358,-4.4682064,0.45850468,-3.973486,2.198996,2.6120825,4.2135887,1.6666269,-0.005633354,2.1391816,4.8691397,-3.6466014,0.13591385,-2.4467468,-3.015153,-2.4261367,-3.9727135,-4.1186566,-2.5237556,-0.97005844,-4.7645655,-4.7245426,-1.8391972,-2.0822601,1.261941,-1.5723753,-3.5171432,3.8772125,4.4909267,-0.8951454,-2.2167544,-2.7375536,-0.7196212,-4.55596,2.6505327,4.281292,-4.1934323,-1.7080426,4.873892,-4.981911,-3.971305,1.8690863,-0.39821672,-2.1179433,-0.6666112,3.1651068,0.06341457,-0.47098446,-0.8226633,1.5808368,-0.85076904,-4.153019,-1.8367677,-1.6180949,3.8805218,-4.9946966,-0.16220617,-0.47508287,3.956273,-4.811768,1.0711613,1.686553,-3.4615417,-1.3417811,-3.569934,0.69090366,0.09896946,-3.409716,-0.43466187,-1.4235263,4.926407,-4.071722,-1.3599448,-0.606328,-2.6121354,3.5135307,1.6477671,1.7555423,-0.4151497,-4.8268886,0.89163065,-0.11293602,1.9538193,3.967352,2.831716,-4.537138,-0.587821,-2.4725704,0.7401581,-2.3531532,-4.4791656,-3.155769,-1.3210845,4.395686,-3.8139808,1.7872562,-2.1106005,2.2603655,0.8935528,4.4359503,1.5575476,-3.3750248,1.4250679,1.5220237,-3.0265152,1.5552711,1.2125516,1.9801025,4.808031,-2.2236454,-2.996056,0.4795575,-3.4798908,-4.0905933,-4.0231085,3.550641,-1.0737486,2.8643064,-4.2295055,0.7445407,-1.2716842,4.7692165,0.37044,4.2077913,2.009645,4.639146,2.0998836,1.9252067,1.0283284,3.705367,1.9808264,2.2638168,3.3972101,0.3540125,-2.1394253,-0.89389896,3.9010897,3.2222939,-3.8545275,4.878421,-2.2947037,-1.7000027,0.22856283,0.1092391,-3.7113566,3.251917,3.6796541,-3.0041175,3.3374453,0.594501,0.90693855,1.6335764,-1.3264971,-1.574058,-1.5855622,-2.9912357,-1.2609065,-4.0415277,0.5896673,0.018281937,3.2194567,-2.0904326,-3.4923725,3.7601366,2.6414309,1.1332159,2.1176634,-2.9306264,0.5790472,-0.35613823,-1.806277,1.74652,-3.3232765,1.5292406,2.9661303,-0.63601923,-2.386837,-1.3356562,2.594922,-0.1476736,-0.8344364,4.9025106,1.8909912,-0.9399786,-0.7294011,0.45369625,-2.1089869,-2.7016,-0.12712193,-1.0174298,-2.2470765,-2.440608,-0.12598562,2.001123,4.2863274,4.51694,-4.9387865,2.9614396,-3.605731,-0.18007088,-0.15692616,-4.038973,-1.7653556,-4.8052187,2.543573,4.8447695,-1.1761613,-4.928326,-2.2456849,-3.3167326,0.7766228,2.6967764,2.360242,-3.071782,-0.99109554,0.79789114,-4.3489766,-2.1610756,0.5226426,0.48433065,-1.2968159,-0.7978306,0.94342756,2.9795847,-1.8024688,3.2184277,1.1045594,-1.8625021,-0.31290913,-0.8834033,-2.5362325,-0.6132355,-0.6795378,2.919856,-1.1305027,-1.9721837,0.15255165,-3.4900677,-3.1171823,-0.44221497,-4.4687753,-1.7545848,-4.29971,-0.7555084,4.435775,-0.19956064,1.4759297,0.73040247,4.136368,-3.5273247,-0.6458998,-1.889807,0.7067566,-3.7059407,-2.6976407,-3.648281,3.40868,-4.057742,3.5421362,-4.644495,0.52697563,0.7580099,0.902442,2.2181692,-3.1266713,-1.4920616,-0.5609393,-0.9469991,2.0916224,1.9897509,-4.6919246,-4.1739297,-0.3766737,-0.4125266,-1.9071097,-4.9110727,3.6517382,-1.0924387,4.5078487,1.5465426,2.697442,1.196661,-4.9707484,-4.156075,2.2052822,-4.2667723,-4.74228,0.60158205,0.020734787,-2.616642,1.2372103,-4.259244,-3.911192,-4.9235983,-3.65735,-4.4494195,0.14590454,-2.750293,1.1699815,4.9566374,3.7298832,2.8636665,3.659481,-0.60061026,-1.0166068,-0.88855743,-1.9620788,-0.2414012,-3.7483013,1.050427,-4.5042534,-1.6919553,-4.7823076,1.0030184,-1.4564264,3.5761223,4.0644827,1.728406,-1.9494224,-0.8407397,-3.456612,-1.8165989,-0.39719772,-2.4669468,0.6264057,-0.035951614,1.3220315,-3.7120783,4.13595,-3.7434042,-2.3728883,-2.656886,2.8211594,3.2139807,2.0516987,1.147234,-3.2780094,-0.31644917,1.7112641,-4.9633503,3.4461422,-2.8172255,1.4350252,-2.6143818,3.1138124,-2.9442663,2.219901,-4.903055,-0.4680152,-2.6523585,4.927206,1.8428702,4.820407,0.4558177,-0.91347647,4.2200174,4.712371,-3.4326668,3.0971699,-1.6451864,-3.5071583,2.1370525,1.3620272,2.6529436,-1.965354,3.925003,-1.0520005,4.657069,-0.36707115,-0.7014413,-3.401492,1.2955275,-4.0830283,1.796341,-2.6489341,-2.8824735,-4.177671,-1.6660321,0.322114,-4.7968273,-4.98864,-3.5069065,-3.2256384,-4.1120477,4.2131977,-2.4659247,-3.8609314,4.1552887,-2.8848906,-4.3007894,-0.73628426,4.5197544,-0.58755636,-4.0646276,-0.5110111,3.4615355,4.1620836,4.066025,-3.402977,4.4259396,-2.7323418,2.8729515,3.533884,3.6636705,-2.7660747,-3.2852876,2.6761093,2.5222864,-3.5090458,0.44884682,0.3062415,1.874032,1.4455652,-0.6939173,0.49388838,-2.3102527,-3.1530988,1.8688564,0.7766037,3.7084818,3.3538113,4.458872,2.0505733,-0.5146074,1.0598946,0.64222383,-4.261607,3.437786,-3.0652976,1.9435024,-0.27368498,-4.0668387,-3.1950939,0.019484043,4.4300623,1.3007212,3.1456861,-3.815856,-3.7155163,4.2987576,3.7107449,-0.6137333,-4.794526,-4.225069,-1.8648612,-4.0691957,3.074297,4.965377,-3.702238,-0.91109467,-1.1283178,-2.1102,-4.7000437,-3.4225898,2.6386366,-0.37573767,0.47178555,2.6212354
-2.4625344,-0.62670326,-2.1825182,4.7489443,4.3446255,-4.7252684,2.9643726,0.65502167,2.078393,2.3067813,-1.9416208,-1.3560617,4.619892,-1.8203712,3.7955904,-3.1393409,1.5727501,4.655632,2.5624447,2.4608822,2.617075,-0.7465353,-1.6621232,-3.6638813,-3.837651,-2.142901,-3.33883,-2.5834985,-3.2024093,-0.37938213,3.4148235,-2.5640683,2.2343311,-4.396258,-4.5041633,-2.1228468,1.5496016,0.299551,0.43498468,4.1024027,1.34273,-1.5672774,3.8155403,-3.1525588,4.6201563,0.47534895,-0.47968864,-3.1957383,0.8869333,-0.5185318,0.32707882,4.2070684,3.9744396,3.579647,-2.7828383,3.7480116,-1.3129711,1.7251496,0.9906554,-3.0584157,-3.2206595,1.0108747,4.27046,-3.7486386,-2.2240639,-0.23451519,0.4336977,-2.576725,-0.7023001,-4.7390547,4.014433,2.471898,4.1332064,-1.8859935,3.795473,1.8071933,-4.4818945,4.9700823,-0.84574795,2.0055776,-3.1537504,-4.4478555,0.13542175,2.626873,1.2782197,-1.9552164,-1.3401341,0.95749855,-3.210917,-4.7113895,1.4762297,-1.6813207,1.097548,-3.0004854,1.7417707,2.2149472,1.3510809,-3.9250243,1.8302054,-1.3370175,-1.6686237,4.8860226,2.4599366,3.812173,-0.99407864,0.38594627,-4.547432,-3.7855387,-1.271234,3.7065945,-0.95739126,-3.5305655,4.7612505,-0.3977437,1.7875528,-4.2951736,-3.084094,-2.3952043,-0.07056761,0.6208391,3.7815084,4.234993,4.9315367,-0.6254358,3.559887,-2.9869998,0.25862598,4.4298363,-0.9420228,-1.5647805,3.2338638,-2.8866105,-1.5037024,3.8561954,-1.6004949,-2.167759,2.8798656,-1.5568895,2.2385888,3.0310574,4.361948,0.07674742,1.780448,-0.8035569,-3.4055738,-2.4601579,1.9785686,-0.057225704,1.3493633,4.820484,0.9466238,2.6302109,2.21457,-4.7160826,-3.9048123,4.4770756,-0.0580554,-3.086592,1.5312428,2.986052,2.4769497,-3.6930723,1.8700657,-3.3763547,-4.592529,4.7519035,2.2160048,-3.8629317,-0.6414561,-4.654931,-1.5860653,3.0514755,-4.1511965,2.5421042,2.3655586,3.8898888,-2.7474027,-3.7099051,-1.2422485,-2.8808327,1.1683426,-4.8420944,-4.051168,3.545086,3.4675236,-0.79930973,2.8078985,-4.026105,-4.696017,-1.5680785,-1.6034298,-1.5160716,-4.287157,-0.73175335,0.68629026,4.2355614,-3.5320437,-2.482329,-2.5910358,3.073679,1.4125109,-2.277327,-1.2257342,1.3946939,4.964715,-2.6593451,4.5787535,2.5655422,4.6991243,-1.7815108,-4.8032765,0.11590195,2.1130362,-4.200982,1.5856781,-3.057601,1.2619834,1.195209,0.011552811,-2.7443862,-0.94336605,-2.4977577,0.60321236,3.313918,-0.3281598,0.3653884,-1.8650734,2.7994423,0.0009651184,-3.17662,3.3027754,1.3748589,-2.6216078,2.4641314,1.4379587,0.24249983,0.2250042,-3.6142457,1.422801,4.433401,3.779848,-4.580739,-2.112512,-1.2748754,-0.1721487,-1.2228637,-2.1810226,-4.561395,4.1233177,0.4745717,4.890011,2.5130892,0.13039303,-0.15723419,2.4116783,2.1579857,-2.241344,-3.772421,-3.156619,-3.605963,-3.1742132,-1.9307346,-4.330512,2.2346835,-2.8507276,0.8214283,-4.5450945,3.8159103,-2.5544536,-3.6284828,-1.1384547,-1.4081864,-4.934883,-0.8831682,-3.9789515,1.9992971,1.9983187,-3.185348,-3.2910366,1.3269162,4.5203285,-0.67327785,-2.1479387,2.6917987,-1.5965242,-1.2723696,3.7032995,-3.4945393,-0.2421956,-0.23419952,-3.8418026,-3.7978792,-1.6262984,-1.0412006,-1.1439581,3.393198,-1.9781971,-1.0922861,-0.6510377,-1.8245811,1.3841791,4.8772364,-2.0920734,-1.2703915,1.5265818,-3.3643901,1.8456054,4.4880953,-3.8399644,-4.2989545,0.59756994,-4.5983944,-4.559474,1.5030737,0.109900475,-2.6253843,-1.736949,-4.4609127,-1.1068428,-0.77812624,0.20162821,2.6686068,-2.3985803,4.2173223,-1.250536,-1.8291676,1.6629882,-0.13938999,-1.0201609,-0.5079961,-1.1472476,1.2846222,0.21538353,0.65723896,-1.3648515,-4.9530363,-2.3408456,-3.8092613,1.972156,0.06846619,4.658349,-1.35306,1.9386435,-0.97176075,-3.4722166,-0.05689907,0.77375174,-3.0914993,4.7544355,-0.3170843,-3.921814,-4.719415,2.2240443,4.9492683,-0.20038652,-3.9156003,1.573803,-4.744254,-3.218745,0.9692116,-2.8248012,-1.868459,-0.008841515,2.9057293,-0.29173136,3.0381527,-4.51459,2.4260135,4.922409,-1.7407215,1.5248203,-4.8787074,-4.7704263,3.5443935,-0.7115083,0.9079337,-3.9286427,-3.0122657,-0.6255522,2.39752,-3.6560535,1.4923878,4.4193916,3.559927,-1.8242908,-3.9393044,-3.9112675,1.0500603,-4.72742,3.893384,1.5652156,1.7389708,0.0473361,-3.7255497,-3.3399951,-1.3869548,-1.4625578,3.6868582,-3.7385921,-0.6508417,3.1515179,1.5534167,0.942822,-0.17883348,2.280583,2.6985922,-4.612553,-3.783352,-4.6856365,4.2929955,-2.3233109,-0.29600048,-3.876348,3.417077,1.973043,-2.837706,0.43563604,2.411562,4.7114563,4.193426,-1.9659948,4.0279675,-4.2742705,0.34007072,-2.9427867,4.309353,-3.3825815,1.4477053,-0.69214344,1.0512409,2.8538032,-1.2614827,-1.4365072,2.7015743,4.1888866,3.1547365,3.548853,-2.5126672,4.4756556,4.043168,-2.0314784,3.264409,0.21529388,0.5363655,4.952669,-3.782782,2.4798894,0.47498274,-1.6855831,4.587926,1.1253033,1.650765,-1.2534702,-2.7744884,-2.943787,1.5711927,1.5103288,1.5606861,-4.1049438,-0.96060324,4.98149,-4.018957,1.913023,4.523243,4.330801,1.52561,-2.5169163,-3.681929,0.6799412,0.3018589,-3.5608125,1.6080608,3.4177103,1.5862012,2.4901485,1.129765,-0.48940134,1.5827603,-0.10259724,-0.10954857,-3.1404548,2.3385186,-0.98278093,-0.08797455,-1.1171632,1.4404116,4.515074,-0.8490372,4.1983824,-0.92651415,-3.5470839,-2.5675755,3.4373226,4.051571,-2.4299817,4.256709,-4.629031,1.8316202,3.6616936,1.3632212,-1.7347522,3.869604,4.1285114,0.15937567,2.2439404,-4.6327505,-4.1193447,-2.8829813,-0.3584056,-1.7809081,-1.2347751,-1.6196628,2.5174627,2.7006264,4.1621733,-0.27003193,-3.0113335,-4.8687625,4.254224,4.2661324,4.9746933,2.4540281,-3.3057208,1.9399996,-4.142094,-0.8503628,2.02064,-1.7345524,-3.6482139,-4.4807386,0.21297455,-1.4671326,2.1777916,4.690173,3.5179949,-4.2596917,-0.5122018,0.61505365,4.4467897,2.679028,3.4729824,-2.7828252,2.569602,4.2658434,-4.528184,4.6170187,1.8013053,3.5588694,-1.376874,1.8406334,-0.094200134,0.034085274,0.99576473,-2.8712046,3.6651497,3.597332,4.202052,1.2260032,1.815753,-3.5980897,-0.5421696,-3.15589,-2.2835832,4.6751347,2.8999019,-1.1895001,4.1400537,0.1420803,1.0636468,-0.4056511,-2.4324493,-2.2303188,3.4990292,4.8630333,3.8875885,4.9637203,0.3990178,-3.434084,-0.14811277,-3.9457088,-2.8236437,-4.6683607,4.4330397,2.665689,-4.63566,-2.6096451,4.3259134,-4.414532,1.8956413,-3.8387895,-0.23048592,-4.9062004,3.9199438,1.2404299,-4.387026,3.1977215,-2.582264,4.0003757,-3.7786527,0.7697468,0.37737846,-3.976839,-4.8068233,2.0634441,1.4121952,2.5568461,-2.312801,-2.090758,-3.592997,-4.9963517,-3.636068,3.622466,2.8761058,-3.192041,-1.5299244,2.6740117,1.4760599,1.4509301,-0.21631193,3.3774672,3.2001534,1.6328216,-0.4869604,4.105609,1.1672382,-1.2668324,4.681282,2.8424845,-2.6589031,0.20359945,-3.7711291,3.1207542,3.8530302,-4.501796,-3.0637913,-3.801208,-3.136454,4.155118,-3.4414654,0.34373283,-2.6713233,-1.4571643,0.1274581,-2.244141,-1.4807625,4.4980583,-1.0745578,4.9214697,-3.615963,1.4403391,3.5328846,1.8300333,-1.2426634,2.3237352,-0.6283388,-4.0674114,2.3581052,-1.6573186,0.34059715,2.5710635,-2.6520038,0.89842796,-4.6747303,-3.1534016,3.4578753,2.1679587,3.2494507,-0.7048278,2.4554482,0.98539114,-4.5168395,-4.5197678,-0.21660423,3.4803514,3.5660276,4.8477955,4.678664,-0.76437664,-1.6784482,0.78092146,-1.5040212,-1.7497473,0.74005127,-1.6022599,-2.195065,-0.08067846,2.57971,-3.3254938,-2.9168785,-0.72389317,4.401476,-4.622293,-4.3793993,3.6199493,-3.0722194,2.3156662,4.305214,-0.98185015,-3.9478457,-1.1396837,-2.435807,-4.55255,1.0983343,3.344098,3.4495249,-2.0558572,3.0486221,1.2725172,3.43581,1.6359048,2.1612926,1.803482,-0.070708275,4.2343054,3.4841938,-4.864325,-0.396307,2.9989634,3.5627613,-4.833274,2.103279,0.31748962,-1.8606627,-1.8089204,1.6267152,2.7635794,-2.6914139,-0.30950594,-0.9278078,3.0126133,-4.875682,4.7158985,-0.8756757,2.7689672,-2.1965628,2.836802,0.6172471,4.562584,3.3806496,1.4491148,4.646695,-4.697612,-0.61687183,-1.8744504,-2.84411,4.9335775,4.0404205,-4.8018837,-0.39536,1.0310802,3.2278166,2.086368,-3.502522,3.514308,-3.6171193,4.136903,3.7464209,-3.7326698,-4.7582083,0.44572783,-1.7879176,-4.2303605,3.6613245,4.3253813,2.5903087,2.7009196,-1.1389084,3.749074,0.47446632,3.3746653,4.85756,3.4109917,3.4518318,-1.0666566,-1.7985349,2.1148005,3.5030384,3.7147055,3.3264904,1.9825263,1.8136139,-3.3353682,-2.5958908,1.3387733
-2.4177194,-1.7767072,-3.977738,3.0836372,-4.378728,4.758703,4.08535,2.3986773,0.29069138,4.413968,2.2439952,3.8806887,2.2774577,-0.87675,3.9079876,3.5079975,1.6752367,-0.08307505,4.38552,-3.347674,-3.5121865,4.417198,2.62811,0.23567629,0.77636194,0.010972977,1.4449053,-2.0259433,0.73859215,-3.086,3.0464983,1.3288093,-0.59089184,-2.8244286,0.27837563,4.640483,-1.4908254,2.5847716,4.9768295,2.4565172,-4.215787,0.5210905,2.2854562,-3.7921894,3.060175,1.0906405,-2.150122,-0.4508562,-4.0975637,-2.101543,-0.7580385,-4.7902527,4.4947357,0.33422232,2.870616,-2.4506557,-3.0199456,0.875216,-4.538703,1.2616754,3.6677618,-0.7385516,-1.3651223,0.338027,4.2140236,2.3052602,3.8189077,1.0992904,3.8709621,1.5005641,2.9674597,4.1610546,2.8129883,0.9572735,3.1843843,-3.5938418,-1.2078607,-4.6697216,-4.4033484,0.9742408,-4.3121233,2.9320145,3.5987673,2.8811955,4.2398233,4.116905,3.6474667,2.5719047,4.890174,-4.122319,-3.0467958,-1.3698912,1.1990905,-3.0673356,-0.61686707,4.363098,1.6889677,-3.4300578,-1.322999,4.646224,-2.0414245,-2.824345,2.5038457,-3.9401853,0.5325599,1.5966725,3.9618902,1.4705629,3.2159195,-3.4938903,1.3982062,-4.2445087,0.93502045,-4.8136544,-3.2508783,1.4755211,4.688493,-1.7062521,-4.755363,0.6932044,-2.340697,2.4053102,-4.1586313,-2.3256545,3.8599539,3.0683966,-0.4800167,4.885948,1.5141077,-0.3153472,1.9081593,-1.7833066,-1.2282801,-4.5419354,-2.742309,-4.8488216,4.2952347,-2.0893323,-2.452184,-1.0559587,-3.0211627,4.157549,-2.5230246,-2.3669481,-1.8967199,3.2787552,-2.2022219,2.0886183,-0.749104,-4.7273645,-4.932022,4.642332,-2.258666,-1.0515773,-1.096065,-3.4419365,-4.8169966,4.7225866,-0.06930542,-4.4152975,-3.4985108,-1.8974667,3.7105255,4.88229,3.0287151,1.0314507,4.7772675,4.1759386,1.5932894,-1.41765,3.558033,-1.7225122,2.1691275,2.246056,1.4666624,-4.328072,-1.7642527,-0.35233974,0.654727,1.7593517,0.6319952,-4.9499683,4.031004,1.3695354,4.493409,-4.409907,-1.6898327,3.5074759,-1.210978,-3.0505185,1.9528885,-1.972106,-4.2870193,-1.2628841,-2.616253,-3.961411,4.0245943,3.601842,3.3944569,3.8848867,3.1709595,3.6650534,2.9197273,-4.7804623,-1.4557731,3.2861605,2.8384943,1.9330449,-0.60595703,1.8846035,2.838129,2.4880905,-4.664765,-0.032608032,3.7881584,3.6431084,-2.5393038,0.7613354,-2.3507905,3.3654327,2.1063385,3.4517965,-3.9523692,-3.0335002,-1.0867791,1.3534408,3.3041763,-0.022541046,-1.6682153,4.226097,-4.3976283,-0.96192265,-0.16900444,-1.3004417,-2.6633132,4.0019255,-1.8687959,1.2991114,-4.4762936,-1.1079817,-0.1742773,-3.053596,-3.277071,0.32166958,-0.025432587,-1.6870296,-2.8090978,-1.0565896,0.560277,2.031826,0.04988146,-0.3357334,2.7088838,4.895569,0.0038576126,1.6125779,3.4560099,0.5135875,-2.0029182,3.4678917,-2.6045978,2.1771483,-4.8075004,0.87568665,1.5900397,1.9117451,-0.41793585,-3.463316,-1.2209976,-3.5585594,1.7631502,-3.7325377,-1.9508452,-2.7989376,4.9056835,0.37620735,0.8875656,-0.3824501,3.1264887,-3.7362628,1.4036026,4.7460833,-1.8280828,-4.332972,0.28759718,0.94146013,-2.9099913,-2.5817628,-0.09715366,0.39174604,2.5984278,-1.5945673,4.0238028,-3.8056417,0.80009985,-0.18181324,-3.2889147,-0.20976067,3.2908792,3.787672,-3.8331418,-0.14786816,-4.8759823,-0.37958813,4.6713505,2.0726786,0.07246733,-4.066117,4.480935,1.8466148,-2.9343665,-1.1875868,-4.2011495,3.6144333,-0.49641323,-4.016568,0.11971378,-0.634037,4.265113,0.55806065,3.4866886,3.1286736,-4.541069,3.3919048,-1.8868308,2.2603407,-4.661973,3.4679518,4.042804,4.7904797,1.8872948,-4.035105,-3.5499148,1.966291,3.1938276,3.411436,4.8219643,1.6439204,-2.1838498,-3.6270463,-1.9987094,4.209399,0.82553005,-1.1848979,-2.0628452,-4.3388176,3.859705,2.622364,-4.699779,-0.25533152,-3.5715008,-3.820911,2.471179,-2.626201,2.1410856,4.4056435,3.7757978,3.044074,-3.6656713,-2.0156221,-1.3719897,3.8835192,-3.1958807,-2.1790428,1.8668323,-2.8983254,3.499856,-4.0027437,-3.311822,0.51810455,1.507844,-4.853737,-3.9417667,-4.5475345,0.6751852,-3.0866961,4.712961,-4.927305,2.4045725,0.72600126,-0.7829418,-2.9257154,3.0572205,-2.3268783,-1.4271064,-0.25928545,-4.8415213,3.3623257,3.8482513,-2.7851093,-4.6930275,-2.694282,-4.116078,3.9428682,-4.7860537,-0.32836628,-2.979155,4.6942854,-0.015978336,1.0186853,-4.4630117,2.5615911,3.198081,-3.9076738,-4.5239763,-0.74853134,3.2009878,4.416772,-1.4077592,-3.462203,-1.6759725,1.5109444,-4.6055927,-1.8284512,-0.5926752,-1.0517125,-0.49145317,-3.3992715,-0.817152,2.2157784,-0.34060574,-2.9908597,0.14061356,-0.7967191,3.5086222,3.1667156,-2.556172,-2.6749706,2.2425408,4.008911,0.95810175,-1.9634485,-0.052136898,1.68332,-0.7065129,2.316329,-4.0922074,0.6021671,-4.715866,-3.4699755,-2.9198961,-4.8426657,-0.8348851,0.3526597,4.5501966,-2.2067933,3.953885,-0.5492935,-1.4546108,4.203656,2.648378,1.2623014,-3.5409808,-3.4309487,2.4067345,-2.4685793,-0.1833458,1.7203751,1.9382992,2.4054785,-3.0971122,-0.47583103,4.354705,3.867033,-4.8330507,2.0570989,1.441586,-2.2306466,-3.0219316,-3.8167655,1.9976234,-3.3790226,-0.040983677,1.2198443,-0.50760746,-3.9157557,-1.6248262,-4.706736,4.0352297,2.8779573,3.7803974,-4.117717,-3.7119718,-0.7975335,4.9352617,-4.172444,1.0720835,0.17236423,-2.1632366,1.4003363,-2.330618,3.6483688,-0.060687542,2.2992682,-4.035015,-4.1118507,4.901243,-3.9653885,2.6258907,4.661998,0.66876984,3.1811752,3.6410542,-0.92036533,-3.5905588,1.4226875,-3.3232331,1.0339308,3.9888086,2.7365823,-3.9165373,4.3170147,0.36868,-0.49995184,-0.6453252,-0.69480944,0.074875355,0.4619031,4.3138638,-3.8584013,-0.40401745,1.0658646,-2.6021826,0.5049138,3.067934,-4.689369,-1.6677666,4.5828648,2.41152,3.6122122,-2.1952999,-1.1972189,0.44270277,-0.32722282,0.22074175,0.07068062,2.548571,-3.0846703,-1.7466183,1.0381775,-2.7164364,0.5287399,4.84112,-3.868609,1.3136501,4.838337,0.014129639,1.8819284,2.4856663,2.2840796,2.4967475,-1.2020807,-3.8720584,4.8436203,-2.9489465,-2.8668408,0.9558945,0.10728884,1.3716607,4.101739,1.4608345,3.1067781,-1.8365235,-1.9582253,4.989012,1.221734,4.4967346,2.4089093,-4.972103,-1.3413663,0.051723003,4.0170145,4.2942038,1.0417199,-3.176955,2.2932715,-1.2403412,-1.3196425,4.2079725,-3.2600136,-3.3667254,-2.5015373,-2.9021406,2.0536332,-1.5269012,-0.79604864,-4.838266,0.28892612,2.460843,2.227096,-4.760397,4.4120083,-1.4551144,1.8334718,0.7960248,3.912774,4.1874304,1.6028352,-3.9704065,2.3625145,2.958889,-2.243194,2.3895574,1.7984705,-3.0921412,4.637869,1.5766754,-4.260757,-4.543752,-3.2641773,4.4339743,3.2172174,0.34903526,4.1451683,-4.587323,-2.436359,2.579424,0.96674156,0.5325737,-3.1793594,-4.3489323,4.1603003,-2.6782238,1.6009712,0.21269083,-0.18803978,-4.6248155,-3.371271,-1.8605697,-2.8206027,4.852251,-0.44149017,-2.2998,-3.1902337,1.2114487,-3.8817601,3.2642155,4.502536,1.8005934,-4.514102,4.4795246,-1.1496277,2.9897385,-0.98703814,-3.274055,2.0053635,3.6047392,0.4234743,1.6844554,-0.038041115,-4.478739,-2.2299993,4.745862,-2.359457,-2.9861152,4.971551,0.94586134,3.6550798,-3.986885,0.6698208,-1.4921772,3.474945,-0.48986912,-1.0800469,-0.6375189,-4.5505404,2.164321,1.7641206,0.34895706,-0.66680527,4.495118,-4.471436,-3.3803415,-3.744191,3.0164013,-3.2117267,2.8562307,2.4440012,3.1239347,-3.6650782,-0.84312725,3.4351292,-3.9231606,1.788497,-4.4593234,1.8938131,-2.0247662,-4.551907,-3.399775,-4.0327353,-1.2595315,4.5632086,-3.2821333,-1.4745955,4.4135246,-2.3019452,-2.0166159,-3.7132764,-4.063132,-1.3942385,-2.4049497,1.6469474,-0.636394,-3.7538834,1.9457479,-1.0814762,-1.0891604,0.9110956,4.0361013,1.2648149,0.3282175,-4.02981,2.6724367,-4.2229605,0.18267107,-4.4172406,4.75175,-4.1481357,3.703105,2.6736593,4.8949804,4.23254,1.5093431,-4.610524,1.213109,-1.6029615,2.8800173,0.9839301,-4.225936,-4.343465,3.703948,-1.8405981,3.3124428,0.41956425,-1.2500513,4.8413334,-4.488828,-4.4675927,3.4322472,0.7152176,-2.9600544,0.74815273,4.5569544,-2.6643276,0.099640846,-1.3718705,2.1216035,3.8307896,1.9323869,4.8129406,-2.3299484,-2.7947211,0.5585809,4.491927,-2.3900695,-1.8969238,3.0205956,4.7802687,-0.7240033,4.973565,0.18065643,0.48490953,-2.299838,-0.9986019,-4.818235,4.7485933,-0.32809353,-0.7381096,0.09768963,-1.8848526,2.9504404,-1.791234,3.3876066,-1.5223658,0.08879423,4.445256,-3.335892,-4.358918,1.2050891,-0.26544857,-3.7854075,2.3457098,-4.854605,-1.7620211
-3.8569684,2.7693844,-4.779812,-3.4875674,3.979454,1.627718,-3.3839798,0.3177209,-3.0872612,-1.224271,-2.567833,-4.2761188,-3.4182727,-3.5450978,3.847166,-0.21002483,1.5584226,-2.2295742,-2.2473836,-2.8266687,-1.2808669,-0.42434454,4.509268,4.890317,-4.557963,-1.147706,-1.914248,4.347209,-2.9911947,2.0710325,4.7831736,2.1600957,-2.621364,0.52116823,-0.86302805,4.9902306,1.762423,4.5094233,-1.3660116,3.9943485,-0.69882965,-0.9056277,3.8329668,3.2663136,-0.089957714,3.8933525,-0.45980453,1.497078,-3.4206939,-0.15070534,1.2038841,0.8281145,0.42147732,3.547121,-3.123725,1.4671135,-1.5224843,3.041852,3.418663,-1.2495542,4.657831,1.9983006,-1.2214394,-1.5451264,4.065626,-3.0378704,-1.5852249,-1.2687588,1.4126563,-3.809435,0.078546524,3.8331661,-3.438872,-3.5415876,-2.4102287,0.65431213,-2.6248455,4.8663216,-0.10941124,3.4718628,-0.5074768,0.22941113,-2.108059,3.0654716,-4.789102,-2.2936134,4.029434,1.0985188,-1.5471811,-1.8559365,-4.7855897,4.2255898,-0.4887576,0.3290596,-0.3716383,-2.3324943,4.3578854,1.7274294,-1.1309004,-0.9027338,4.197179,-0.9411764,-3.2079613,3.5649796,4.4866533,-4.075425,-1.3520348,4.2711267,0.351696,0.43223095,2.042101,1.3355422,-1.4134526,4.2320747,3.8417158,3.7881203,2.5299554,-3.8721805,1.8724041,-1.7587729,4.8971004,0.48803902,-4.181319,1.9981189,-0.19981623,4.4017267,4.6096935,0.56937456,0.2589507,0.825037,2.274551,-2.1183996,1.9395628,1.136097,-0.86832047,-0.15815926,2.2081804,-3.8315928,3.4823694,-2.5848222,1.4598298,0.43632984,-3.70151,-2.014957,4.7897434,-1.7469084,1.3373556,4.380498,-3.038612,-0.31893015,-2.23906,-2.7292676,-4.5413723,4.042122,-0.1787591,1.4839878,-1.5616279,1.8283634,-3.582261,4.981039,4.6370783,-2.1104984,4.1809864,-4.567106,3.0153656,-2.355948,4.040369,-1.5740669,-3.4964304,1.2642283,0.07065058,1.7540855,2.4819746,0.5599432,2.58925,2.6944757,1.0946798,4.270465,2.1778355,-3.2563348,-4.662224,-2.6651807,-1.3913293,3.906786,-0.64724064,-0.9604616,-0.6822367,4.089464,-0.26039982,3.4588842,-3.2691264,4.3940754,-1.7933655,-3.5351033,4.844393,1.778862,-1.467309,-2.5078535,0.36808872,4.815796,3.2417688,-1.2743008,-1.7894244,-0.3286667,4.335828,-1.3207202,0.28328228,4.34042,4.3643055,-3.9242995,-0.6797943,-2.9428744,0.69086075,3.266079,-3.1062317,-1.1540532,2.1601987,-1.0409939,-0.7084675,2.5654507,-4.2819734,2.0538492,4.542838,-4.8474693,1.8041348,0.8126421,2.8375983,0.82806015,0.31516743,4.8900194,3.5012846,-1.6429245,2.7757502,1.8682623,-3.8809657,2.8195767,-0.50747967,-3.6635256,1.6980462,-4.579443,0.19773722,3.279542,3.7371054,1.2922192,-2.3927193,4.436702,-2.802372,-0.5951967,-0.018042564,3.5880947,4.862565,4.047267,1.7247171,4.7786913,-0.9417896,3.6848679,2.3159747,2.6575856,1.3748622,-0.7317362,-0.77501726,1.8809566,-0.50441265,2.0973015,0.21481895,-4.187236,1.7899055,-0.75332355,4.1514826,3.8051596,0.042085648,2.8033714,0.027172565,-4.838281,-2.012854,-1.206348,2.9717274,-1.2165384,2.378951,-0.66710234,-3.357904,3.857521,-1.3868637,-4.3351574,3.9519768,-1.0293114,-3.6767716,-0.5302119,-0.06474972,-4.346161,2.6551447,-0.28588247,2.5923405,3.624076,-2.8954256,-4.482893,-3.706005,-3.6706824,-4.7923956,-1.0798235,1.5772982,3.4574623,-4.5845814,0.01053381,2.94804,3.3096848,2.590664,-0.52410984,-2.5430965,-0.9274478,4.7812557,1.4226179,-0.21360683,0.79143953,-3.4548879,-2.6770568,-1.0902185,4.996788,-2.2765942,2.8317356,4.5530596,2.3502407,-1.4319301,1.0742855,-3.1523383,-2.0146573,2.949936,-0.1750021,0.7567797,-2.4486513,2.9343004,-3.9087777,2.1782594,0.47617197,-3.2362752,-2.569201,-1.8783932,1.103725,1.7511873,-0.5820732,2.7374654,0.50994205,2.9670787,4.6533136,-4.0556593,3.3256016,-4.004465,-1.810431,-4.545791,-2.80752,3.3054447,-2.6849961,0.98338556,0.9584303,4.112932,-1.9030242,-3.5435486,-2.9290538,-4.48762,-2.6331174,-3.438654,0.15390825,-4.0613966,-0.95585394,-4.831342,-4.8906393,1.6235361,-3.5465753,3.2429466,3.7695065,-0.34338856,2.3494635,4.821205,-4.868739,-2.3258786,-0.66136456,1.6993542,3.8060331,-2.9876394,-3.2580452,3.201908,1.4752913,2.7063494,-1.862706,3.7552586,0.055172443,-2.2120671,4.1837015,0.66738224,2.1505623,-3.0271478,-4.939288,1.7474651,-1.3878579,2.8299336,2.4067116,-4.8341045,0.92130184,1.986434,1.3230395,-1.1198025,-2.8176994,1.2859159,-3.5222917,-2.4288642,-4.311466,-3.9955683,-1.8031259,-4.6913204,4.4343195,-2.9060082,-2.8780122,-1.4157467,-0.3964572,-3.6734223,-0.38664293,2.1347322,0.35604954,-2.856155,-4.2871027,4.5152664,1.6470833,-4.742963,-4.6069775,-3.5416102,1.3068285,-3.123999,-1.372658,1.8273973,1.076478,2.85748,-2.2281857,-0.41196728,-0.35070372,-4.907927,0.60685396,4.106756,2.191493,-3.655336,-3.9222999,-4.5366945,1.4975681,-1.9008226,0.36941147,-2.003214,4.8069677,-3.1068354,-4.2851305,2.3997126,1.2528424,2.4373045,-3.797108,-3.4626853,2.7212453,1.6022263,-3.690023,-4.3064404,-2.8807492,-0.3143444,-4.3490453,-3.8461595,2.6258717,-3.432898,-2.9572577,2.6532435,-1.1606765,3.9983969,-3.704658,-4.4400415,-3.3751793,1.9432869,-4.4502826,-2.5645847,-2.1948314,4.491514,3.8799038,-4.471388,1.3086586,-3.9020066,4.579813,-2.180119,-1.0179548,-4.1207514,1.6249108,-1.3474612,0.19032669,-2.9507267,1.4954758,4.546424,0.33927727,0.060343266,4.3364563,-1.4167957,4.9292526,1.8290286,2.4965973,-3.9472656,0.032143116,-2.7898514,-0.29326963,-0.76686,-3.047423,-2.2198153,-1.6341066,4.449113,-1.0918813,-2.3631167,1.0426388,-2.030251,1.0386848,-0.33713818,3.1833954,-0.3098278,-3.797499,-4.2906466,1.6692967,3.8117037,-2.5317883,-0.36141872,2.3033757,-4.3560123,-2.5413756,-0.18557644,0.0599885,-0.4685297,2.0557823,3.0608416,-1.8677573,-4.9376163,1.8049169,-1.8718677,3.7305794,2.452139,1.860301,-2.2423363,-0.007088661,-0.24808359,4.8016014,-2.0253892,-0.71823883,-3.403182,-2.6553166,-2.2297966,3.952053,3.1359777,4.439578,-4.211981,-2.6174498,3.0857449,-0.3160591,-1.753449,2.8191042,-0.7003856,1.5831304,-1.0828595,-4.9305906,-0.04405594,3.1540337,4.4531994,2.4222922,-3.231382,4.146202,1.2930117,-1.4836268,3.212143,-2.9358494,1.8702707,-4.8230686,3.554019,4.932993,-2.9816027,-1.9205265,-1.6777592,0.08093119,2.8666182,-1.0419226,-4.678927,1.0729785,2.6003923,1.1841102,3.7512217,-3.20369,-2.9461212,-4.0700526,-0.70185614,4.2720146,2.7842216,-2.6663465,-0.7075238,-1.0203047,-0.37200356,-4.474394,-2.6409507,-0.31569433,2.2172098,-2.858405,-3.790307,-0.51327515,3.7880287,-1.9891798,4.687208,-4.066289,1.8992672,1.5941133,3.5585566,-2.143705,4.143902,2.5580854,-4.904505,-2.8673506,4.670718,-1.2613721,-4.3476095,2.866331,2.445292,-0.37651968,3.1588182,1.2795806,-3.4077346,-1.3124633,-4.3088336,3.2938442,-0.8861537,4.0608006,-0.18677664,1.1250172,-4.2028112,-4.2862725,4.281698,4.494238,-0.26203394,-1.1721456,-3.7107253,-2.0410542,-0.032283783,-0.91960526,0.5274191,2.718257,-3.104312,4.7946587,0.63526535,1.3367605,-1.3777089,0.9687953,-4.6667786,3.337388,3.2821293,1.0459905,-2.4185653,-2.41238,-3.3489852,1.5082569,-1.578548,-4.711013,-4.637051,0.29441786,1.2788744,-1.1390858,2.9313207,1.3997803,3.8564234,-4.112135,4.199337,1.7695069,-3.5131288,-1.3997734,-2.0907373,1.1176639,3.379881,-0.87381935,-0.2633648,-4.702502,2.8073387,4.3083124,0.9682174,-4.0766068,-3.3010478,-2.4181752,-2.9306006,4.992593,1.5307512,0.37100363,1.2525721,-4.478751,4.3422956,4.788328,3.6553774,2.7649221,0.038847923,0.10083103,-3.039925,0.569767,-2.435019,-1.2653887,-2.0618682,-3.520358,-4.0227847,-1.5752113,-0.6442542,2.0702047,-4.124179,-3.46839,-4.1939163,-2.100464,4.7562056,-0.066856384,-2.00984,3.458706,3.706894,2.2666478,-4.9567738,2.3787885,1.9466505,-4.1098022,3.958685,-1.3976235,-2.7837253,2.2293568,-4.108493,-3.4502149,2.426178,4.666479,-4.9217367,-3.6931772,-0.078053,-3.1089199,-2.4700153,-1.9187527,-1.1544328,-2.0392113,-2.2198958,-0.44583082,1.3388133,-0.3650999,0.807364,-4.415309,3.1151686,-4.5101433,-0.6910114,0.04358244,-1.4105158,-3.6677594,-1.4000702,-1.611129,3.3761148,-1.9967871,-2.703762,-0.29699326,-3.5903883,-2.1576052,-0.15514421,-2.0142155,-0.2798028,3.0249224,3.86841,3.7285242,-2.3715842,2.1902924,0.44800234,-1.7153664,1.6451635,0.15338707,0.9466691,-1.1495833,-3.0008059,-0.8262434,2.3703651,-0.80546093,0.29076338,1.3435049,4.0253086,3.9874372,-4.890957,-2.2207327,-1.678515,-2.9198675,2.7244978,-3.324244,4.781376,1.6123066,-1.3397479,1.7659144,4.3993664,0.27544737
-0.10972977,0.5607996,-3.0393875,0.66430473,-0.623014,-3.3390212,-3.301016,3.5844269,-0.6717262,1.0550098,-3.3925033,4.85153,3.1999245,-3.7823522,-0.22287083,1.4821129,-4.4031887,1.2845345,-4.20649,-1.7134047,4.8551483,-0.2739091,-3.194759,-0.59632206,-2.6609592,3.2055025,0.4159732,3.7166538,-0.07563019,1.1556988,-2.2262585,-1.6407144,0.5126467,-2.6730728,3.349041,-4.349016,-1.7981548,3.4610472,4.0209827,1.8589106,-1.4703858,2.0270262,4.8977814,2.3538203,3.652481,4.791197,-1.8336654,2.4024057,-1.4731569,-0.34920645,3.366167,-1.5383136,3.7475023,-4.9729767,-2.949468,3.784708,-4.1706395,-1.8104477,-1.4172745,0.5806589,-0.86248636,1.8126106,-2.8923278,-4.9744773,-1.8117075,3.2455196,3.510912,3.6187153,0.03704071,4.826416,-4.8047357,-2.3280978,4.69425,0.33705664,-1.5449853,-1.8776779,3.6725092,4.9789124,4.731924,0.6151223,-0.36929083,-4.5001106,-2.6721668,-1.3633537,-2.842598,-1.3922281,-1.3760133,-3.5580378,-0.88849926,4.2904196,-0.85174656,1.8694677,-3.5630422,-3.6823945,-2.5587444,-1.6788216,2.8051305,-3.7875586,4.6935368,4.5181246,-4.2091665,-1.5323234,3.3772173,4.156019,-0.98199177,-1.3858466,-3.6533332,0.209517,4.145089,0.005276203,-0.07363367,0.41868448,4.3116245,-3.585598,2.4528866,-2.9335666,-2.505074,3.069746,-1.4065976,2.981975,1.8069906,-4.2082877,-2.697062,-1.1809266,-3.230166,2.1181016,0.68957996,-4.329524,-1.2685454,-2.4108295,0.6421547,-4.681098,-1.3443904,-3.974787,-3.2480693,4.654888,3.4124308,2.4231014,-0.6582136,-2.084068,-3.6085439,3.7594042,-1.7346902,0.9084244,3.0531797,-3.687929,2.2856374,-4.8483963,-1.0169511,2.6374702,-1.5479846,-1.1374152,-4.7419004,-0.38570023,4.8651047,1.2177744,-2.3250084,4.1936502,4.540306,0.7461033,1.1561632,-0.9956813,-4.0413685,2.9789023,4.5269623,-3.0630147,-0.06640434,-4.7328215,0.9672828,0.6932831,-2.4751842,-4.950577,-2.6183188,0.89459133,4.066431,2.8719912,-3.5928245,2.492982,4.221054,4.580821,-1.6277452,-4.9998903,4.1173525,-1.3918674,1.8051443,4.926957,1.7276125,4.5475893,4.0550146,-2.1649318,3.1211576,-0.6946659,2.664061,-0.886322,4.1309385,3.0913286,-2.1682203,0.7834711,-2.123859,4.60408,-2.8214545,-1.9044595,2.039054,-2.053076,3.724329,-4.622363,-3.8716407,-3.4941287,3.518424,-0.8660989,-2.7754319,-3.874125,0.72037935,1.442131,0.32297182,-2.8336406,3.136549,1.3839636,-3.0701323,4.3625555,1.2548947,3.7435045,-1.3551002,-3.392549,-0.87412643,0.9697304,4.997529,-2.3732138,-4.7352915,-2.318902,1.023438,1.4841576,-2.2015178,1.86132,-0.39733934,2.624061,-2.9497285,3.2896156,-4.9362636,1.6928983,3.4331264,2.9815502,-2.3851328,4.6577168,-3.6237276,4.0208635,-0.419652,-4.033881,-1.4603972,-3.372451,-2.5567536,4.109667,-4.9975157,-2.406025,-2.0639043,-0.80848503,3.5697346,4.174781,-0.97550917,-4.453949,4.7486544,-1.7750139,-1.4801252,-2.2724433,-2.7883224,-0.13105297,-2.1021385,-3.0427642,4.2906847,4.190485,1.8810635,0.92228603,-3.1167138,4.102542,3.590723,-2.0680583,3.2640133,-4.5059557,-4.4114065,4.942258,0.017542839,2.4186654,1.6888199,2.0190563,4.448039,-3.559612,3.2114592,1.235569,1.7848434,-4.0413566,-0.83321047,-3.3886027,-3.0630307,4.924836,0.92935467,-1.4692175,-1.9836597,-0.9702101,0.59078646,-0.23037148,4.0787525,-0.7088618,-3.6441016,1.9269037,-2.4383407,-2.0750027,-3.4631383,-1.7028518,4.005355,3.8246326,3.5456743,-1.4616549,-3.1770372,3.9918814,1.2496805,-0.80345917,1.2365971,2.7803268,-2.945054,-3.4343367,-0.07413626,-0.27696705,1.6380095,3.0322256,4.122525,-1.9389629,-3.262498,-0.22482443,-1.3823628,2.2932386,4.188842,-1.144613,-2.125215,-3.0607872,-2.4090946,-0.14541149,4.837785,-0.044857025,-4.6245265,0.5531664,4.5273037,0.14716864,-4.559279,-0.9781666,4.503668,2.4769068,2.412272,-3.7052298,-4.1056023,2.366703,0.26405096,-4.2588673,2.8783045,1.0765095,2.612512,1.844223,-2.8732908,3.9137983,-4.8281393,-3.8442671,-4.4374056,-1.5507584,-4.1368027,-3.5304546,0.81178284,-2.2453678,3.132061,-2.5021143,-2.170288,0.10872936,4.1560717,-1.2867916,1.6815691,4.8554974,-3.3116663,4.93104,-0.94024944,4.888242,0.38217258,-4.1454105,-1.0002804,-3.8270097,1.5328951,-3.893497,4.476783,-3.5654159,-2.3156028,1.1965313,-1.2269993,4.153555,-0.4209404,-4.717066,4.2265224,0.23337603,4.3419323,-2.3918839,-3.693071,2.6785235,-1.3878603,-0.38073063,-0.8493118,4.712631,-0.10423279,-4.3246136,1.7942371,-0.35410833,-3.318005,2.46845,2.282329,3.6391554,0.3552904,-1.5113001,0.023213387,-4.693506,4.1960545,1.1255169,-3.3998613,-1.2782323,-1.2504096,-1.1105852,0.72184753,-4.5006423,4.5775986,-0.98921204,-1.0227203,-0.31614065,2.998722,-1.1070025,3.0291576,1.4086003,-2.989266,3.6563492,4.980611,3.1865797,3.7044058,4.8190393,-4.2995157,-1.875881,4.9983053,3.4260578,-3.928417,4.415451,-4.398122,1.1628485,2.6382184,-0.56723166,-0.5241251,-1.5779018,-1.8092573,4.1219177,3.6579313,-4.3579717,4.2328796,-3.8269024,2.1769733,4.534191,-1.0605688,1.1074681,2.071929,0.19742441,-0.6814909,-3.9483924,-2.069732,0.66755676,3.5693684,-3.0130327,-2.5473309,-2.6875627,-0.6842804,1.7086697,0.06783438,-2.7137775,4.045803,-2.1700196,2.8558598,1.2499976,-2.7855902,2.129159,-1.9926941,1.6220999,-3.0281162,1.9448223,4.4659386,-1.6915333,1.1677828,3.2616787,-4.5610805,2.8885622,4.233198,3.3524065,-1.2029128,-4.6542234,-4.0745525,1.882412,3.142047,-3.2674499,3.340806,0.43539572,2.2694612,3.590211,2.686398,-3.2543612,0.3358736,3.3387012,-0.35603142,-3.56624,4.483346,-3.8827121,-1.5195751,2.4093013,-4.5712824,2.8478594,-1.9521487,-2.216469,-0.82416344,-2.6529264,-1.672008,-2.6307802,-3.9208536,-4.399906,0.06994295,-3.8431792,3.8601694,1.3906813,-0.81393623,3.9354525,0.4610753,-0.4850483,-3.3761768,3.4253416,4.9115076,-3.5532207,1.0392928,1.4285874,3.7771778,-4.6631575,-0.58989525,-3.3831148,2.041411,-3.4752321,4.1423473,1.1328297,3.37774,-2.097196,0.61536837,4.9437885,1.3056774,-3.0476995,0.16101599,1.7180004,4.783248,-2.1810424,0.67185926,-4.0415044,2.0418553,2.8183742,0.31041622,3.2866735,-1.5327005,1.7865334,0.04689932,-4.8635526,3.5560522,-3.4254646,3.2926674,3.5412302,-4.4758463,-1.9400496,3.4216385,-1.198523,-2.5177777,-3.1011672,4.682682,2.7430158,-4.2625313,0.9379692,3.3884153,-3.31389,-1.8925219,4.816247,-3.376214,1.678236,-1.6772997,3.2627506,-0.20824528,3.2532797,-0.8830905,2.9311414,-1.1211033,-0.45773983,-1.0346799,2.6508617,4.518367,-4.0407777,0.970006,4.1213217,-2.7315068,0.13769436,-3.151701,-3.4714441,2.3387756,-3.9868498,-1.5347834,1.9629769,-0.9163456,-2.3154938,-1.7242646,1.29492,0.8076148,4.0329247,-0.8516593,-4.4764576,-4.616888,1.3345718,2.522625,1.6220145,-0.8525524,-2.5015604,3.4895334,4.3755445,-4.856477,-1.7294378,1.7967196,2.1866522,4.3976393,-3.7617326,1.3392949,-3.3046694,-4.6849036,-4.3561783,-3.473971,2.2200346,-1.3651717,-3.9592533,2.5929432,4.996892,1.1966743,-3.5436945,-4.716944,-3.4857082,2.5033379,-4.386573,1.8028803,4.070656,-2.4676805,-4.8062277,-1.181653,3.3758144,-3.5466921,-0.030301094,-0.9232526,3.7871866,-4.9028654,3.6773462,-2.8495657,-1.3366156,-0.20376396,1.5705519,4.235136,-0.8315654,0.62238026,3.1209898,-0.45048285,1.6139479,-2.4289937,-2.6664007,3.2549362,0.12419891,0.15465164,-0.5654197,-4.4338655,0.13396358,-3.3628845,0.75137186,0.3369465,4.0223827,2.244379,2.510066,4.1910706,1.4104981,0.002746582,-1.5348177,1.1712618,0.38405704,-3.821224,-3.9122462,-4.722931,3.0786943,-3.3923488,-4.382787,0.04017067,0.5086713,-0.08338213,3.517891,-2.89038,-1.234622,0.5402918,-2.5492878,-0.4314251,0.91781616,2.3346162,-2.5818448,-0.8282523,-2.5052953,4.392331,0.94825315,0.90907097,-2.2067828,-4.8450108,-1.0062897,-3.9471765,-3.233276,-0.4110713,0.52362967,3.5261993,4.2718277,4.7512703,-2.0998626,-3.4377182,-3.8851051,1.688602,3.8011312,-3.61193,3.2505016,-1.2266321,2.6534014,0.29600573,-4.8856616,2.725194,-3.2156563,-0.61021614,1.565742,-2.2575693,-3.5302424,2.661181,0.21055937,-4.279616,0.32681274,-1.5494263,2.5024643,0.5968833,-3.911413,-3.5166144,-1.9750297,3.1056223,0.9881935,-0.19920254,-1.1141329,3.1719732,-0.87170887,-2.9725738,-3.8632922,-4.5601044,1.0215669,0.5081167,-2.9294705,1.3749118,1.9226127,-2.27387,-0.7180948,0.13748264,-3.6005802,4.7514114,2.160904,2.9429417,0.1984663,-1.749506,-2.1723104,-1.9942594,2.8015704,1.6847029,-0.8559065,4.3887024,-1.5093482,1.3936806,-0.34643364,-1.5656734,1.7593427,-0.39212227,-1.6937418,-2.5911431,1.9223843,4.625147,2.1285448
1.2598586,0.1997757,1.3585753,3.5556908,-1.5654225,3.8067703,1.4782429,2.4580717,-4.279385,-0.44588852,-3.546313,-0.97948027,-0.93486357,0.49589348,-1.7184734,-3.7730951,0.867383,1.0874839,4.4139824,0.93794775,-4.8757915,-4.59518,-0.6759639,3.5094376,-4.0193014,1.8274813,1.6356235,4.8022327,-2.5743687,-2.1182609,3.5140572,-0.25358677,-4.2337713,1.2425847,0.38133574,4.9979315,2.3186111,3.3120546,-3.141324,-0.54224586,-2.7067966,-4.5289154,4.561716,-4.5966887,2.099846,2.7318263,-1.4458423,2.996582,1.5833468,4.886692,1.6906934,-1.5111709,-4.5542536,2.688387,-2.6658516,-1.7197161,1.7296915,1.6114407,-4.5710764,-1.5540166,2.2561746,1.7297792,-1.8812494,0.02415657,-1.4348264,-4.7658052,2.4685354,0.05730915,3.7556715,-0.6797209,2.4934826,-4.7158833,2.819128,2.65305,-4.8774123,-1.5384893,-0.60047865,2.072648,-2.2942324,2.3693771,-3.1425924,1.9492922,-3.5067515,3.5189915,-4.8839736,2.9015212,-4.1758866,0.313982,-3.5268407,3.8133402,-1.3493025,4.9181805,1.8834186,-4.3514986,0.58301353,-3.3237028,0.563962,0.99027157,4.9056797,4.122471,-3.014952,1.9250798,3.5674086,-0.28003168,-0.085476875,2.032506,1.7238703,-3.509746,4.923774,-4.2899237,-1.16431,-1.1647911,-1.0194678,1.7489243,-3.0254488,-0.059149742,2.425727,1.9933729,0.77078724,4.817938,4.875677,-0.5603552,-3.3736067,-4.735415,1.1455393,2.7540178,-0.61897326,2.5355506,-4.809298,1.2745423,-0.29902744,2.2689223,3.3386698,-1.9106293,-2.3579044,1.4094086,-1.9186802,-1.8046327,-2.5692587,-0.21558714,-2.5608592,3.4785185,2.6948714,4.3012047,4.6643906,-2.9826312,-4.4797425,-3.0985765,-4.785991,-1.0092788,-0.8726444,0.6882882,1.6756196,3.2405672,-3.3269966,2.549286,4.9115715,-0.50934887,-3.5704494,2.8401256,-4.4887714,-2.2537537,2.365919,-3.9475286,-0.6923127,-3.3507018,-4.5901875,3.4470444,-1.2892139,-2.879415,-4.450407,-4.995927,-2.5815117,-2.8943067,1.3383107,-0.99119234,2.1176157,-2.6158369,-3.4061682,4.0926514,-2.3585563,2.7590065,1.0541697,-3.6093922,4.5605927,0.66753006,-1.7809491,1.4272385,2.1430683,-3.9876838,0.2885189,4.6608105,-3.9385283,4.1570263,1.8228893,-0.9751296,2.824871,3.5646,-1.9128127,-1.5986979,1.2039781,-4.855981,-3.5436893,3.8413725,1.9240732,3.236536,-3.517201,-1.9639695,-0.10560417,-4.4566183,-2.0154886,2.029171,0.15342999,0.2490015,3.6797247,1.4664102,0.20887947,-2.893306,0.02722168,-1.7792158,-2.8042102,3.9564056,-0.31617546,2.5718808,-3.7327278,-3.7301362,-2.4401462,4.239525,3.0617542,-1.1194224,-3.937614,-0.6461611,1.9213486,4.848403,1.7344408,-4.9129486,-4.748607,0.46144772,2.855516,-2.486086,1.8158655,-3.917017,0.04069376,0.29547882,-2.9492843,-2.5412946,-0.425025,-1.494838,-0.36647224,-1.7242403,4.028736,-2.0458436,1.2265053,1.0290484,0.97365093,-3.5225594,-3.944512,-4.2854114,0.7961798,4.047144,4.2678022,-1.2939084,1.7248826,-4.197007,0.15536785,1.5601597,4.7859125,2.5759773,-4.673014,-0.028758049,-2.9713655,-3.6424584,4.1648016,4.6721926,1.3265247,2.7742267,-2.9153395,3.1739435,-3.973012,-1.392479,1.630094,-1.6482143,-1.980586,0.024366856,3.2714062,-2.064981,0.80299807,1.7521839,3.3595524,-2.4806662,3.0984392,4.6379395,2.2242775,-0.6344347,-2.3412645,1.817955,-2.7291827,-1.3634796,-0.6067014,1.4383059,-2.9326434,-1.3314109,-2.9386759,1.6025162,-4.1473455,4.0850706,4.961438,-0.5030656,-1.1860209,0.3538437,1.8756742,-2.700935,4.489105,0.91889,-4.9288015,0.44711637,-1.6351609,1.4141483,-1.7028327,-3.3119476,-1.235786,-4.695524,-4.3699603,-1.886456,-0.97093153,-4.01355,1.9933157,3.8526192,-1.6446662,0.47056007,0.37995434,2.129673,3.3771152,-2.0104158,2.621891,3.9682093,2.6630454,0.08614302,0.3733735,-1.6995835,0.89640903,0.3902893,0.06589365,0.7615261,3.754981,2.4403791,-3.955673,1.5357275,-4.83673,0.95986843,2.3933768,0.15661812,1.3353691,1.5591602,-1.0228295,2.202311,-4.872449,0.2911148,-0.22196484,1.9622445,1.4461255,3.499651,2.1015496,3.539134,0.4713087,3.4643354,-0.76815367,2.9444404,2.3709817,-2.7284122,-0.36216784,-4.947962,-2.513845,-0.45787525,-2.448998,-3.0039291,2.02677,1.4758387,-4.4262123,4.572523,-2.7564263,-4.8691607,-0.91449165,-3.917057,-1.9969945,4.1943054,-2.6693583,3.8043222,4.0236626,-0.13883972,-2.919672,2.8213873,-1.1513054,-4.0128016,0.5253706,3.1160526,-1.9088411,-4.8661757,-0.8092289,-0.06585598,2.3598027,4.880188,4.862444,3.04037,3.1157885,-3.0613847,-0.05036831,4.949666,3.590129,4.8364553,0.058618546,-2.5096178,-4.99306,4.287571,2.4230442,-1.4509254,-1.8178754,-2.5399113,-3.0768895,-1.3211393,-1.3850999,-0.5621271,-4.141789,-0.255661,3.747367,4.8127356,-0.7526493,3.2886257,-0.5779877,-0.03798914,1.7595778,2.2705412,3.2535114,-3.7411613,3.494505,-1.1199987,-1.1329551,-4.423642,-3.695857,-0.85972786,1.5479207,4.0773716,2.3765187,4.98368,-3.8258476,3.546998,3.5818977,3.9933167,3.0581608,3.3929691,1.5734296,-0.90760183,-2.3185353,-3.4006639,-4.988525,4.796625,0.90766144,0.4656434,-0.70707893,3.0426102,0.18767786,2.072959,-4.1621947,0.7204957,-2.6652288,0.49957705,-3.183781,-2.2270303,2.9057689,1.059782,-3.2467961,3.5387955,2.6040006,-4.379056,3.68863,-4.61738,3.3695107,-0.89239216,0.5904379,-0.42898226,3.3917713,2.355586,1.0839529,4.4508066,0.03911686,-4.5977445,2.2125292,-2.7054973,-4.2311554,-0.73940086,-2.4987025,3.9622326,2.7227507,0.9902544,-3.569768,-0.30404568,3.9867954,-0.19226551,2.7336736,-4.6718693,-0.21664143,-0.6480336,-3.5777683,-0.26878262,-1.7348475,-1.8741684,-2.0417123,-0.5242257,-1.7995942,-2.0798743,-4.627006,-4.85793,-1.6556482,4.23497,4.962059,2.1985197,2.843915,3.363162,-3.5437627,0.28082752,-0.13382912,-4.072625,2.966837,-4.87591,-1.457191,-1.6834931,-1.5512805,-2.2721143,-1.7894471,0.6717138,2.1269374,-1.5717287,1.6647663,1.1773868,3.5153475,-3.4839046,4.913908,-4.431705,1.2147322,3.3194914,4.385771,-0.19372177,1.5108085,1.3272853,4.664463,4.060623,1.320045,4.5153694,4.3098183,-4.424751,-4.513712,3.8562822,4.6186075,0.33216524,-1.6131563,0.64243317,3.1034622,-4.939914,3.6839743,1.1245155,-1.5284824,-3.2515473,0.97099304,-2.8494854,-2.8181272,2.4829698,-4.8204894,2.1081429,-3.1489224,-0.9477992,-0.8989229,-0.5451336,-0.7012768,1.3384504,-3.8436878,-4.8295527,-4.7486477,3.8544483,-1.3488011,3.377818,4.005333,3.5496092,2.5263782,-0.23621035,-1.6869426,1.4690762,-1.4937205,-1.6752439,4.9851837,4.420701,-0.1978283,-3.309517,0.037346363,1.079236,-3.1355047,-2.4213214,4.2970114,-2.079252,-2.133799,-4.0186434,-4.5683727,-1.2697792,3.5342245,4.8496475,2.0721703,-2.838655,-1.7176616,-0.99853754,-1.5843253,0.20874119,3.6054363,-3.3141274,2.092327,-4.848691,1.1608791,-0.030901909,-4.2634764,-0.72038364,4.636407,-1.1705422,1.8714523,2.9139352,4.624263,-1.0192733,-1.0709655,2.0246134,0.52142143,-3.1476974,-4.2875104,-0.76629114,-4.8986588,3.8954048,4.1402407,-0.5993395,4.59046,1.1006522,-3.9640164,-2.1934838,-3.8570833,-0.683064,0.76514196,-4.294094,3.5484276,4.39489,-2.673822,0.67290974,1.0643015,-2.6724815,-2.744853,-2.9298167,-3.0992608,-1.1747515,1.2424188,-0.29449654,-1.1181946,4.8552856,-2.8415298,-2.4869907,3.2276192,-4.7387114,3.8801394,-3.0968726,1.963459,-2.0698137,-1.3729799,-3.8966937,-4.064605,2.483965,4.5459023,-3.4450817,1.948607,3.103485,4.3032217,-0.45158768,2.4964333,4.9129734,3.4876375,-4.080941,-0.6839042,-4.616205,3.8313475,-4.314315,-2.8578682,-2.2127604,2.6660662,0.42040157,0.41841602,-3.0820954,-1.8213332,-2.4527926,0.43856192,0.08930731,-2.4472113,-1.2597001,2.1591568,-3.5712094,2.495493,1.3865423,4.2903976,-4.3682537,-3.7541537,-0.24625206,1.1051512,-0.8698206,1.2513118,0.22319841,2.3937454,-2.87849,-1.6396999,4.21047,-0.0891037,-0.26526737,3.9251385,-3.7744641,4.6076527,2.48214,-3.5182958,-1.8675721,2.8064513,4.9203186,-1.1287732,2.1602974,2.59696,1.9631462,3.9836674,-3.8556254,-0.5334053,4.243907,-4.8287244,-2.1495247,-3.1814945,-4.127528,-2.2159739,-2.5769925,-0.71710205,2.704945,4.119529,-0.8052845,0.0326972,1.9143972,-1.1700935,-3.9024873,-3.3113985,1.5645819,4.109664,-3.6219363,-3.4040403,-3.0956702,-1.9357693,-0.41916895,1.884975,-1.1391199,3.702633,-1.1349864,2.5573988,-3.4627695,0.5575695,2.3302135,-0.015261173,4.711133,3.2058468,3.3572445,0.83183813,1.6984076,-4.1890993,1.3900518,-4.0970893,-2.7753341,-1.652379,2.0082183,-2.5122042,1.4560795,-2.7431977,3.7454872,4.4104233,-2.6570277,-4.9729896,2.957334,-0.4756999,-0.38113117,2.3978372,2.2187614,-0.82985306,1.873538
-3.8329344,1.2256837,0.46676445,-3.9740438,1.325088,-3.6652975,1.7967587,-2.0865674,-3.3315916,0.21353054,-4.5010214,2.4461803,-3.227166,2.526359,2.6842375,-2.75181,-0.19876671,1.4118938,3.899993,-1.8141115,2.24263,-4.967706,3.4295988,-4.559882,4.540325,-4.775339,-4.946247,-3.1496196,0.36883926,4.1767044,-0.09311628,3.0972195,1.138125,-3.0217147,-3.405571,-0.38945246,3.2767363,-1.9747376,0.64371824,-2.609228,3.5388365,4.3654366,-1.9111376,-2.7014785,4.053603,4.552761,0.04082632,1.750143,4.6410074,-2.8940594,2.9126253,-4.521523,-3.8620443,4.7241726,-1.4082527,3.9931889,2.2631912,-4.137302,3.3862133,0.919714,0.99772024,0.52997303,-0.2504692,-2.6099527,1.3151207,4.9673805,3.0064754,-1.7844458,1.4380035,-0.96944046,-1.3172083,3.2914743,2.4309092,3.5028696,4.500581,-0.005643368,4.032028,-1.6473615,2.9696603,0.997684,-0.7509022,3.794385,4.3716106,-1.658001,-2.1049392,2.2487297,-2.7363224,-3.6331267,-0.29784203,-0.956285,-2.7567573,0.6419349,-4.329611,-2.878241,-2.489189,0.65482426,2.9796495,2.3918443,1.1167717,0.4009056,1.8108454,-1.6238256,-3.8159907,0.076413155,1.3563738,-1.6164863,-0.504704,-1.3098657,0.34447002,-4.950714,-3.5946822,2.0060587,2.571042,0.89555216,-4.6959205,4.702175,-2.7771735,3.0318537,0.6874342,-3.399285,2.1028204,4.544095,-2.3104482,4.264699,2.2636223,3.1841688,3.450222,0.13394451,4.048813,1.1966257,0.16228724,0.41261435,4.3988714,0.0729084,-2.5863993,-2.2626984,-2.6320238,-0.12460995,-2.180525,-1.7013168,1.0886579,-2.9282153,-1.7952709,-4.449668,-3.800747,4.3815327,0.8650975,0.8905935,-3.7932801,-0.03381729,4.870057,2.2682528,1.7688327,-4.36089,0.9280324,1.6843085,2.7488031,2.930254,2.8966036,4.7838964,-3.3500302,4.4577703,2.663867,-4.198104,0.99353695,0.31880808,-0.683301,-4.5426073,-1.8294704,0.35604095,4.614279,-0.8567529,-2.7634692,-0.0979805,-2.6451416,2.3458223,-2.1375995,0.82163906,2.2962718,3.6550474,-0.48831654,-4.724822,-0.9680338,3.9474154,-0.12400913,-0.06112051,1.1935472,-2.0969872,3.4896507,-2.6160293,-3.9613962,-0.55492115,-2.1922064,-1.1414475,-0.26886272,-2.386477,-2.018826,-2.1118016,4.9273567,2.8391972,0.3405614,-1.9613485,4.135766,4.693226,2.070469,4.3913364,-1.4587581,4.6165485,2.7268858,2.3834996,-2.689066,-4.19776,-3.6707191,1.1026382,0.09831476,-4.373469,-3.210731,2.696021,-1.1343603,0.90459585,1.2668657,-1.9174833,1.3774109,0.39776134,4.7871943,1.2808838,-2.5871081,-0.47607183,2.5943232,-1.4622319,2.0401478,-2.0248687,-3.8826566,-0.09793186,-3.645736,0.56073713,2.6810284,-2.9228199,2.860217,3.4898205,-0.18448305,-1.1954112,-0.81788635,-3.1669097,-0.20498466,2.6614637,-1.2140179,-0.7838769,4.582302,4.3363085,0.3710003,4.554778,3.3412113,2.634264,3.7658987,2.467166,-2.4774365,-3.818584,4.4600315,1.5339022,-0.15064526,-0.70851326,3.5586052,0.5822029,-0.45106983,0.8133421,0.16357231,-2.2771091,3.0929022,-2.7500558,2.0757985,0.57960224,-2.998777,2.528935,-2.1458263,2.973691,0.17124462,2.7714972,-1.0121775,3.8059216,1.1218071,4.3905,3.3728876,-1.1320078,-3.1680913,-3.4661686,-2.602744,1.5810151,2.617199,-4.6961575,-4.5423775,1.5819731,-3.0650473,-4.659631,1.0830832,2.5330281,0.20025444,-4.844679,-1.1773348,0.052815437,2.6970572,-2.913046,-1.6593437,3.5129166,4.3533783,3.6089334,-1.966824,0.0688858,-1.7407358,-1.0352998,1.0623116,-1.1107831,-4.4937057,-4.1782827,-3.8439207,-1.0821729,-3.1332183,2.5085173,-4.2982507,3.364418,1.7340355,-3.7505193,-4.9397144,-0.28399944,1.9183674,-1.0529196,4.241418,-3.2264435,0.68643,2.1166048,-0.92255783,-0.9238405,2.5155358,3.1462078,2.7380066,-2.9683657,3.2512693,-1.6885185,4.816763,-2.5284898,-3.4471889,2.9248543,-2.779162,2.3108716,-3.7271833,1.06569,4.678047,-2.2085528,-4.63466,-1.261239,1.9174557,4.889287,0.26602077,1.1764154,1.564426,-3.8233018,1.4686036,1.317348,-1.1092086,1.7415233,-4.93585,-3.078612,-0.0035805702,1.7635975,-1.6094942,-4.7525663,0.73572254,4.451248,0.8458495,4.816825,0.55589485,1.8203249,1.839076,-3.1530416,-1.2128675,3.109501,3.5351286,-1.8552053,-3.212822,-3.2960825,-2.099667,1.2768679,-0.93347454,-1.2852657,2.1686788,0.7806964,-4.846787,-4.5914583,4.919511,4.300556,-1.9311857,4.052635,-3.169005,-0.024277687,-0.37616825,3.9831238,1.5289297,2.2713385,1.7721148,-2.8622417,-1.3072329,3.588645,-2.6964421,-1.2459869,3.5920763,1.2583656,-1.6942644,-1.9888215,-1.9719167,-0.21120024,0.20691156,-0.636116,-4.367463,1.0844951,3.0417204,4.8818007,4.2724695,0.1432352,0.9752059,4.3131485,-3.4824264,-4.2044644,-1.7453706,4.873769,2.0737104,-3.3622801,-3.064922,0.70525885,-1.9173737,-1.1460476,-4.6458025,-2.9233665,-4.176013,2.4424453,4.9472704,2.701067,-3.666613,-0.050270557,2.901507,-0.4943266,-4.6225047,2.7590585,4.3079863,1.4094758,-4.765914,-1.4502306,-2.1157904,-4.4321594,-2.4562347,4.4510756,0.9638481,2.3246474,2.4412322,-2.37107,-3.2120805,-1.4982176,0.80871105,-4.896929,-2.3346753,-2.895946,2.2582107,4.8842545,1.9002862,-3.0198736,0.071582794,4.9202414,-4.7800493,2.742445,-2.8400655,-1.4761543,-4.7093534,0.24039078,-1.9261436,1.1026125,-1.0438066,-4.4310956,2.2816162,-1.1632276,-1.0590606,3.287548,-4.717284,0.6903887,3.296031,-4.2275486,4.85215,4.230956,1.7266941,2.6211977,-2.642593,-4.8159666,-4.142004,-3.525178,-1.829967,-4.1209726,2.848403,0.75274706,1.3969011,4.5220003,-2.1599412,3.467103,-1.2654238,-1.4249003,2.4228306,-3.1974792,2.7562027,2.4147034,-2.4402452,-0.9586773,-3.2654495,1.4847379,-2.7166228,0.29429626,-0.6845546,-1.1391282,-1.559614,-1.018182,-0.5489664,2.5807805,1.7697573,-0.8701935,1.2846079,0.61833143,3.5801258,2.0208282,-4.5543423,-0.034355164,1.0888772,0.85112953,1.9577928,-0.83562326,-3.000002,4.381279,3.2208624,0.87161016,0.67016315,-2.8434129,3.3027916,-2.4130468,-4.007218,-3.046075,3.7505045,-3.7200828,-0.7521157,2.2960854,-3.6670895,3.3676605,-1.9512157,-0.006757736,2.3435183,3.4023275,-0.20179272,-3.293529,3.5409374,-0.8158798,1.5354233,3.807642,4.680477,-4.9292784,2.7513008,-0.08332348,4.092185,4.8715105,-3.911103,3.687971,-4.380842,2.2275152,4.7521057,0.84377193,-3.8898964,3.811389,3.7725134,-4.3877068,0.34517097,-3.929323,4.788703,-0.3414526,3.934719,3.7263527,3.2932768,4.717845,-2.6320207,3.7139235,-2.743297,-3.0080338,4.29556,-2.980308,-4.636176,0.4468732,-4.5447683,-4.780442,1.5424256,-1.2676244,-3.8941903,4.6484604,2.5349436,3.8797808,2.4007874,-3.5920734,-4.613942,4.145982,-2.314579,4.2277794,4.5958405,0.8144431,-2.6685996,-4.8593016,-1.6007721,-4.054859,0.6472211,-4.2903066,3.1986446,-0.14682579,-0.70158005,-0.4357171,-3.9162886,-4.6148443,0.50107574,-0.30180502,-3.8477926,2.962185,1.903338,-1.5811574,2.1037812,-0.18548489,-0.647563,2.253986,4.2194576,-2.0937138,-1.625725,-0.938817,2.4823523,3.5408535,1.5244799,4.8964586,0.84447193,-1.0871911,-2.7975006,-1.0799611,0.083427906,-1.6584663,-3.9613044,-0.42929888,-2.799909,1.3090782,-3.0294716,-2.567197,4.02048,-2.7460032,-4.020908,-4.422247,1.3731308,3.014492,0.7368717,-1.7009645,0.55016613,-0.8390808,-0.05636978,4.159258,4.8787003,-2.1469216,2.5014858,3.7838364,-4.5718775,2.6310754,0.21771145,-0.60661316,-2.3552876,4.0861263,-2.3310804,1.80722,-4.9828715,-0.23976326,2.2309613,4.623291,-4.6554813,-4.349799,-2.8334732,4.9318295,2.3402977,3.7546482,-3.6716843,0.87966824,-3.5452538,3.9410868,-3.9393425,-1.2156863,-4.181325,-4.270673,4.992386,1.6749644,-2.6687515,2.7197547,-1.5389848,4.4744577,2.8327684,-3.2891893,-0.94736147,-2.5392616,-0.9358697,2.6952038,-1.5938497,4.962925,-2.2431893,0.94783115,-3.1132412,2.7389898,-1.2996161,1.9461699,0.16442013,-1.9679892,2.6176338,-4.0769167,1.4572592,-4.501903,2.2965822,-4.1692743,-3.0094762,2.5785627,4.831726,-1.4811988,3.9187908,4.255127,4.2089767,2.3473735,-0.6691928,0.57799244,4.1846027,-1.1798482,0.068787575,4.1782427,3.5016422,4.7802315,3.1794605,-4.1283693,-3.5432024,-3.641336,-2.332623,-4.944856,2.6791835,-3.461166,-0.5374708,-1.0524547,-0.30835438,-4.3594284,2.695424,3.3721247,-3.8523383,0.0014295578,-2.881943,1.1061964,-1.3720465,0.04600525,1.0195656,2.4365401,-4.05391,-2.7051735,1.1998119,-0.65935373,4.983802,3.5972843,-3.467677,3.8270445,-4.9277964,0.090332985,-2.4178028,0.7769251,-3.4767838,1.3755836,-4.8440213,1.8935914,4.528904,1.4243374,3.3963127,2.1891203,2.339868,2.3716474,1.4483995,0.98983955,-0.008368492,-1.2932281,-3.0730252,-4.2421966,-1.400414,-1.4731555
1.1087699,-3.759231,-4.1377945,3.5426788,2.6410837,-1.5587664,-2.4598324,-2.37318,-4.9198766,4.861313,-3.8984108,1.9463739,-3.915565,-3.8113422,2.4699287,-3.0893464,-0.76834726,0.31715965,-3.4936352,1.14678,1.456943,-1.6326575,-4.490346,0.4148779,1.1833282,3.032961,4.4534264,-0.19245434,0.34547234,0.43059397,-1.1821663,-3.3669071,-0.49866104,4.979513,4.858548,1.3020086,1.3541102,0.15060616,-3.8385677,-4.2711062,3.087761,1.242362,-3.2875097,3.653387,4.119069,1.1812363,-3.9664674,-0.17403841,2.558444,-0.21145058,2.6990457,-1.0342913,1.9000697,-2.9869807,4.4037724,-3.931306,4.096369,-3.2559128,3.9149265,-2.8080006,4.480669,2.9197807,-2.3455744,3.8563166,-1.9230466,4.262473,-2.427134,3.988799,-4.027631,0.16440344,-1.7045074,2.6890888,-3.47513,-3.9636116,1.2299385,3.4270582,0.9848585,-1.9187589,1.8031244,2.501381,-0.76292276,3.984724,-0.26847315,1.1561689,-1.9303894,1.210187,-3.4378834,-1.5127115,-0.915329,-1.4704986,4.226369,2.7636623,-2.3704786,-1.2885876,-2.4439569,1.8297043,-2.7601404,3.2816515,3.5536766,-3.6999595,3.9417877,-4.1218214,-4.5382204,4.2382174,-0.26920748,1.0423398,-3.9649367,-2.4739223,3.8756285,3.0749073,-4.6134014,-1.1423998,-1.338635,2.5779,0.23882341,-0.2538371,2.6204305,1.5571413,-1.7238677,-4.793563,-3.0335288,3.2986298,-1.6624653,2.4761844,3.29675,3.42867,3.6140528,-0.96106815,0.8314705,4.346651,-2.3137684,0.14022636,-4.2859116,1.5723438,0.17098522,3.748724,-4.167414,-1.4342351,-4.937195,-2.0906205,0.20069218,2.4314642,-1.5699124,0.911356,-1.0528474,-1.3582194,-3.7335014,3.4459276,-3.6769783,-0.3537836,2.0915518,0.7327051,2.2483644,-1.894824,-2.5761695,-3.3750467,-1.422966,3.122425,-4.55817,-2.2259593,2.7063608,4.215745,1.6351662,-4.624998,-0.6412225,4.915105,-2.9702396,0.8563571,0.35579252,-0.30091572,-4.538073,1.0875854,-1.7223711,-1.6220517,-4.102689,4.448,-0.5096412,1.0548806,-4.9901104,-1.1916292,-4.7617083,-2.7604313,-4.460828,-0.08273792,3.9464111,3.1349325,-1.1464298,3.878747,-1.5174632,3.108984,-4.6875963,-0.88780165,2.064876,3.6158285,-1.8048501,-1.983211,-4.8362823,1.3166957,1.7224879,-2.9491746,-1.4504433,-4.9570804,4.3100595,1.2944613,-2.6125116,2.2110581,-0.88454723,-4.432549,3.0285397,-2.7191758,-1.429187,-1.1588736,-1.2327683,-0.4362812,-0.52824116,-1.1873918,-1.0020006,0.31736946,-0.38663197,2.1070557,1.7444115,3.103551,0.76982737,-0.7589774,-3.8107467,-4.5908303,1.0326285,-2.224015,0.13433218,-0.6107788,-1.2605476,-0.52223015,-3.5889328,3.856883,-1.2838745,-3.1887484,1.0543842,-3.787458,-3.8126051,0.44906855,-3.645801,-2.7500606,-3.4696913,4.578475,3.122261,3.3550568,-0.95115423,-1.6236897,-4.332573,0.21144962,2.046423,4.5887384,2.7749987,-3.8931303,-2.813025,1.6471252,-1.5424347,0.77303886,2.5655003,1.3101382,-0.6897726,3.087286,3.343275,-2.1097612,-3.558668,-1.4131088,-3.5450578,-2.2631245,4.3144016,-3.1580448,0.77907515,4.976163,3.324482,0.79088116,2.9689832,-2.6447992,1.7435513,4.801552,-2.3114264,-0.8305521,1.0641861,-0.57658005,-0.26335764,0.51260567,-3.3016908,-2.4458318,1.5149832,1.0049982,-4.9800243,3.6270628,2.163931,3.4260626,3.0531473,-3.6154687,0.5540662,-3.1496346,0.4612131,-3.4872932,-1.469665,0.3005147,-4.889131,-3.4897761,2.8144164,4.64054,-1.8776708,-2.9248834,-2.5771606,-2.6244159,0.8680191,-4.5537925,-0.71586037,2.544517,3.2886677,-4.2868285,-1.0391574,-1.3378298,1.4380164,1.9758182,4.0652714,-2.9731102,-2.153988,2.4790597,1.7888765,1.8426523,3.2706013,3.9372873,1.4434719,-1.1884487,-3.2684608,-1.0307693,-1.5110321,-0.95363235,1.8628721,-0.15999794,-0.91694784,-0.5450201,-2.570644,-4.786141,-2.7582092,2.1906877,-2.0812302,-2.4527252,-4.8029037,-4.8629274,1.0174589,0.43843365,0.7021589,3.457882,-3.7599092,3.2034817,0.43655396,-4.4228163,2.090602,1.154357,2.3380442,0.1970334,-3.5938244,0.8660412,4.921974,-4.2185946,3.4819946,3.2055426,2.503076,1.6486316,-4.7409673,-0.22537947,2.5887823,-2.6972313,0.5050044,-3.4609084,3.4939823,3.67274,-2.9237485,-3.537037,2.3786855,3.5960102,-0.54982185,-2.027114,-0.96849346,-0.5284214,4.069867,-3.2966132,-2.831868,1.8948126,-2.7214682,-1.8734403,-1.4962645,-1.8255305,-0.020087242,1.8121605,-0.5247526,3.4728708,2.7947192,-1.9259596,-0.056229115,1.9604487,-0.9090347,1.3648586,4.264221,0.42000818,1.3065634,-1.9321461,4.400671,-4.7250223,-3.2906108,1.1764679,-0.23779297,3.3246517,0.66438866,-2.5359244,-0.2562685,-2.291953,1.3791656,-3.3637385,-2.2385788,-4.925628,-0.5347295,3.6016436,-1.0162413,-2.8320842,-4.7787375,0.61114407,-3.1934233,0.70261,4.074441,3.273944,-2.1504664,-1.889869,3.256073,-4.38493,2.677949,-3.4104867,-2.817175,4.883707,4.4557047,0.5076351,1.7332025,2.3414493,4.540597,1.3759136,2.5416842,4.040457,3.0507345,-1.9607754,-1.8220973,0.43455124,3.3666716,1.0623403,2.2867603,2.8785887,2.4519892,1.8259974,-0.34996033,-1.9909525,-1.9438763,3.7259169,-0.26748753,3.8062553,-4.7196336,-4.8951616,-0.9327841,3.7586136,0.9993038,-4.161874,1.7897706,-4.4808793,1.793962,-2.6498353,-1.1647086,1.3231497,-1.3741164,0.36849976,4.7001143,-0.9248953,-4.68046,0.53910446,1.7302799,-4.9102736,4.945607,1.6969433,-0.41616535,2.4502935,-3.89579,-3.3915014,2.965022,0.61229134,-3.8996582,-1.9205034,-3.5893285,-3.1257458,2.514482,-3.3157063,4.554249,1.2091012,-2.9010086,-4.80555,-3.2949579,-1.0597205,-4.3500276,-3.16015,3.1981936,-4.817042,3.0494976,-0.19591379,-2.1346307,-4.012822,-0.7313671,-0.06388426,-1.4894581,-0.145082,-1.6638184,3.1101313,-4.6715064,-1.8966908,-1.5406804,-2.7771764,3.6343021,-4.507903,1.0324678,1.5683002,0.81812096,-4.265727,2.7240782,3.646699,-0.32710505,-4.3327036,-1.1481953,-4.4845223,-2.830652,0.7467942,-4.818103,-4.3035703,-4.4830246,4.206237,-0.816648,4.4212484,-3.3527815,3.0378265,-2.2714353,4.366086,2.107451,-2.266171,2.6524324,2.6580553,1.3631272,0.86538315,-3.6320639,-2.5189412,-2.6350963,-4.8527594,-1.6961308,2.1721735,-0.8009119,-1.5887432,3.2097473,4.6698246,1.4286523,-1.5042119,0.09629059,0.5317421,-2.3175116,-4.0900564,0.89474726,4.797035,-4.6336756,-4.9828978,1.5863895,-2.9184108,4.2235003,2.1372123,3.3909903,-1.2897925,1.9963622,-0.55665445,-2.3018413,-2.7096395,3.6824808,2.1161375,-0.39882088,-4.426131,-1.515338,-4.6127176,2.8081446,4.042569,2.0148592,-2.4056344,-3.9090729,-0.73945475,1.219626,0.8784399,3.3071146,1.583456,-4.483369,-3.993084,4.800229,-3.1178856,-3.0939233,-4.4913106,-3.4520893,1.2157574,-0.15516758,-4.4699583,2.0038376,-2.7949512,0.88509274,2.651958,0.83506584,3.0448637,3.4299288,2.05272,4.079423,3.962058,-4.490448,-4.530154,-3.0963016,-1.3245773,-0.9680705,3.2968998,-2.5887442,0.2874279,2.5988054,3.7225266,-3.7135558,3.7488813,-1.247241,1.0036111,-4.171598,-3.5955043,-1.5678418,0.4928975,0.7493086,4.777643,-2.2459598,-1.4088559,1.3835473,2.7837777,4.922184,-4.186997,3.764988,4.1785,0.044069767,-0.3012371,2.0933933,-3.0111103,-4.258253,1.0238848,-0.8583822,-1.7502022,-3.7269938,1.9080639,1.8859153,-4.218995,-4.042817,2.760933,4.412401,2.9643621,1.7767758,-1.5770495,-0.12167263,1.5739532,-4.88501,-3.8274617,2.3002234,-3.6280746,1.7677507,2.8576918,-2.4563222,-1.7292266,3.6589613,-3.6012745,-1.4448714,4.5128,0.11249018,1.710124,2.1190233,-3.8130808,-0.12329531,-4.1917953,-0.6055641,-0.4220152,2.0787106,-0.8156471,0.5769615,-4.6164565,-4.4889045,4.315295,-4.9754715,3.4970837,4.1868076,-2.4491131,-4.8574114,2.9530087,1.0868015,-1.8708718,3.9374714,-3.8094318,0.012214661,1.0777464,1.2035494,1.3994837,3.275303,4.3890743,3.9842634,-1.9897211,3.6147175,3.1515274,-3.8954484,-1.6940713,-3.4676468,2.8328233,-0.4612832,-2.1544194,-4.0693293,-3.1404014,2.0056272,-2.9348576,-4.267583,-0.62996626,-3.76503,-1.5362649,0.98651457,-3.6245906,-0.4296465,1.9072866,-1.4773278,-0.39660025,3.7109966,1.9236231,-3.2086368,-2.4651785,-0.9473448,-0.8936167,0.62479687,-3.8641179,-0.3929386,-3.1808448,-2.267146,3.6908998,3.8799572,-3.3389788,-3.9315856,2.4678707,0.002527237,4.579364,2.7847147,-3.7172937,4.4215117,0.21447563,0.93612766,-1.1069231,0.76761293,-4.8153,3.3180532,-2.6467621,-2.3423815,0.6006856,-2.51904,1.0534573,0.46416807,-3.01853,-4.937286,2.250885,2.6942344,3.5826435,1.6146011,-2.2583466,-0.32877016,1.1082749,-4.988139,0.107824326,2.7028189,-0.47119522,3.114235,-4.74263,1.3274817,4.943528,-3.8060224,-2.3383212,-1.6352062,-2.9521382,-1.1957698,0.6161995,-3.0318837,-2.1309953
3.7436905,-3.9389305,2.0314636,0.7171731,-4.9512815,4.166897,-1.3735521,0.78856945,-2.635028,-4.3434763,1.7589102,4.712964,4.2707424,-2.3911161,4.947193,-0.94459105,-0.41123772,0.6509805,0.38123035,-1.387033,-0.99856186,1.2478266,-0.740335,0.2384572,-4.986789,-3.6801481,0.7989397,-0.5970502,-1.0970795,-4.3787007,4.968828,-2.276814,-1.8397207,0.07355499,-4.2027693,0.72492504,0.00033140182,1.4286113,-1.877511,0.13201714,-3.399785,0.5490136,-1.9042623,-0.09283733,4.662012,0.70676804,1.9971981,-2.7813232,2.2883024,1.6896763,-1.9654255,0.880847,-1.0820513,4.2120447,0.07294369,-3.9575386,2.5884686,-1.3563828,2.0019393,0.20038986,-2.6188798,4.485339,2.1330318,1.7972512,-4.9438143,-1.9323158,2.7909207,-2.103458,1.6433387,-0.7945671,-3.9087105,1.4857359,0.96267796,-0.5611558,3.8988705,-0.59502316,-0.7385402,2.9534101,0.049194813,4.8523684,-4.1884904,3.11232,3.1885319,3.0377693,4.6130323,-3.629963,2.125011,2.369576,-0.24481773,3.0496922,-1.3564146,-1.2008011,-4.6364727,-3.0846226,-2.738051,-2.422071,-3.7896962,-1.335073,-3.3854575,-3.9857674,-0.91655636,-4.055647,-1.6217418,-3.2499857,0.85111713,-1.2881768,3.6892643,-3.352137,-2.7084887,1.3861675,0.65108347,2.5702,-4.7950964,-0.19913387,3.9322376,2.8419485,-4.673604,-1.9703579,2.814663,-1.2074394,-2.4489737,2.1419902,2.493867,3.5378618,4.0210934,-0.8292513,-0.8715334,2.0844803,0.8561449,1.5749493,-0.20622492,-0.30581713,1.3913174,-2.716899,-3.584305,-0.88323355,-1.999433,3.7843904,-2.5545459,-2.2309427,2.6964235,0.5327029,-2.084167,2.5095034,-1.8075836,-2.4544108,-3.7436647,2.6295729,-2.1060843,4.528022,2.8371859,-4.152208,-3.5780377,-3.558628,-1.6007371,-0.60445833,-2.0257628,-1.4294081,-3.9561777,-1.5137224,4.5191536,-4.5962067,0.8035517,1.3719106,-2.4397314,2.2364368,4.007164,-3.7418647,4.240633,0.5405474,1.6471486,0.11398363,-4.479527,-0.17090607,4.539529,-3.2864177,1.1768489,4.9917994,1.9962158,2.4773192,3.5349674,2.8900719,-3.2252312,-0.6008153,-3.9072669,3.699461,-1.2259686,2.2766643,3.510808,0.7503581,-0.9704132,2.555873,-3.8085551,-1.1492217,-4.7103333,0.08533859,-3.5054665,2.9482918,2.033227,0.84059477,4.8042183,-1.6186619,2.6937542,2.5276284,1.6911716,0.06742716,0.25720835,2.6361904,0.88300323,1.83844,-0.348464,4.22227,3.6214733,-0.6772871,-3.2092814,3.5484486,-1.1140263,-4.1360292,-1.7193813,-2.5779076,-3.358118,-3.6535358,0.16475868,2.8231535,4.2354755,-0.5251365,0.60337734,2.2263865,0.11693239,0.65237236,-4.602525,-4.119901,-4.4722757,1.9420052,-4.2061205,-4.126467,-0.98612976,0.53272486,-0.7071762,-4.5667353,2.3188396,-1.7629468,3.2092714,-2.1457398,-4.8689127,0.47060442,4.7739773,2.8834333,-2.2754645,4.940731,-4.941325,-1.3524823,-4.308854,-1.9931746,-4.501989,-1.8295116,-2.7953105,1.6217179,-0.47944927,-1.1094089,3.206046,-0.491652,4.5587645,-1.9579184,4.674753,2.249652,3.5686178,3.8545895,-1.921885,-2.6744084,4.4166517,-4.0726223,-0.77772903,3.9159813,4.5503626,1.0753298,1.307261,1.3658848,-0.32984018,0.5022888,3.5863771,-4.226591,4.515627,-1.8476832,-3.5798078,-0.88703394,-1.7084007,-0.4701395,-4.317741,-1.7006695,4.139493,2.7142115,4.171487,-3.6263494,-4.8105297,-0.26657104,-3.8345313,2.5994449,-1.708585,-0.09222412,2.87107,-2.9707944,3.3650274,1.1174111,0.9161539,4.6499243,3.1611671,2.1454344,1.3098516,1.2971764,-0.7446389,2.4047494,-0.15927982,-0.7986145,4.962965,-2.0816822,1.8966646,1.6842217,0.57902527,1.458271,-1.5123315,4.171732,-3.6063313,1.8846693,0.8225374,2.949391,3.9340935,1.9455695,-0.5082507,-0.3249688,0.110868454,-2.7500594,-1.811707,-4.6393423,-1.9294465,-3.1953132,4.5952435,0.3951521,-3.2732897,-2.4457216,3.9957466,4.056466,-4.1134744,-2.8841429,2.176775,0.54842854,-0.53516626,0.561244,2.452314,0.3002634,4.6080904,-2.9373474,-2.3710895,-4.7874546,-4.2396536,4.96692,-0.26442146,4.265649,4.191267,-4.009944,4.840723,0.6944647,-0.89000416,4.3465633,0.57435465,-1.878056,-3.551098,3.4083261,3.86907,-1.3191037,0.7086444,-4.786276,4.647106,-2.4794502,3.5385609,3.9431524,-0.63332367,1.7328253,2.3500261,2.2950077,3.973693,-1.04106,3.7630377,-2.1159153,4.5289135,0.22360373,-4.91029,-4.824028,3.1496077,0.7273884,3.2602425,-4.6176934,2.8972678,2.9017286,3.9524965,2.9261827,2.633286,-1.961205,-0.4672718,0.9079447,-4.982347,-4.58246,-4.3605514,-4.323656,4.9884453,-4.3286047,1.4248042,-4.4425673,3.000143,0.004758835,1.7112904,-3.5965724,0.06477785,-1.0358655,3.4358635,4.0724306,-1.1199255,-0.5716729,-4.7710156,-3.537653,3.5707998,-3.7069404,-1.9816585,3.578309,-2.1221895,3.5286732,-2.0076485,0.83892775,0.7198324,-1.762321,1.816905,3.2011871,-3.9168386,0.15290737,1.7708611,3.1804762,-3.277431,-1.4466465,2.3674827,-2.5279837,-2.2432208,-0.165586,0.73623466,0.42392683,0.7116909,-1.0275316,-4.385839,1.3832283,0.65736055,-2.5645995,1.7378082,-3.431477,1.4393654,1.3976378,2.5785565,-2.4828386,3.797968,2.3533163,3.1934557,-1.2761207,1.3344297,0.3911419,0.94433594,-3.9488435,3.4857063,1.9328718,-2.956273,3.4427595,-1.269306,-0.70614576,1.3488846,2.4570942,3.1615915,3.8145905,3.9307919,-4.227889,3.3226929,-4.6200933,-0.88767004,-4.4546847,0.94315577,0.008634567,3.9285545,1.8751221,2.5555897,4.925186,-1.6067691,-2.8205423,-0.32291794,-2.7743578,-4.0101438,3.2333565,-3.6435218,0.011667728,-2.7858758,4.44067,4.9398975,2.8779964,1.0205607,3.8225212,-3.2393396,1.5969124,4.5009384,4.7843475,2.7530866,4.111889,-4.002032,-1.7977417,-4.660513,3.2828503,-0.36440468,-1.8432081,0.6643338,2.1074395,-0.64628696,2.4730992,-4.1969585,4.7141094,-2.9938757,-2.143569,-2.8812723,-1.9297128,-0.850976,0.108427525,-1.0399766,-1.9304228,3.1966772,3.8103476,3.2414513,-1.6492934,4.102522,-0.81112576,0.960063,2.8377557,-2.264316,-2.365591,4.938695,-3.4118223,0.83818865,-0.28430653,1.0299311,-4.542914,-0.96880007,0.9051223,1.7931962,-0.36986828,3.5765562,0.4180441,-3.891642,-1.0406113,-1.2040317,-4.878216,-0.97364664,0.8919039,1.3510423,-4.5594316,4.1006727,2.6819801,2.1612663,1.114255,-3.8663673,0.8807559,0.49841928,1.8523641,-2.1059246,0.7741432,3.3346367,-4.5399947,1.768785,2.6015396,-2.714008,-1.1770213,-4.034104,2.884214,1.4025788,3.931305,2.7554903,0.5670781,-2.166326,3.1925,0.2889042,4.72694,-3.3552747,-1.8988347,1.1151237,-1.1819279,-2.0948446,0.7223172,2.8101387,-4.3551154,0.08461285,-1.5346627,-0.50873756,4.3315573,4.3693085,2.0666819,3.0043154,-2.7881808,4.6364126,4.7063837,3.457509,-3.1171374,3.822215,-0.32061195,3.268386,1.6655879,-2.495631,-3.5440617,2.7848186,-1.182168,-0.42446518,1.4884386,3.402729,-0.721468,-1.0453959,2.6967793,1.8198032,0.25051594,2.803638,1.3262634,2.2725096,-1.2392907,2.7820544,3.7421465,3.9925976,-4.9073243,1.2088304,-4.570623,-3.789314,-2.0639758,-2.1685357,-0.88992167,4.699729,-0.7827606,-4.3972855,-3.3293545,-3.5462027,2.520824,-3.6953087,1.7405272,1.3720293,4.7669897,-2.3510938,-0.10910988,4.7851524,-4.286072,-4.4064245,1.6302519,2.1308322,4.6230288,-1.139946,-3.8022466,3.737733,-3.9660196,-4.1672153,4.453964,-4.188858,1.8430977,-2.1454597,-0.16262817,-4.7786145,2.846527,3.3662386,3.4585438,-1.9590907,1.7471056,3.1844482,4.920764,-4.573007,3.3028336,1.4467449,-0.29700327,3.7545738,0.09971714,1.3298554,1.2649183,3.5479956,2.4815302,2.9140635,1.4364071,1.0099263,-0.9418249,-3.5420442,-4.0485773,4.9804964,4.8796377,3.1890564,-3.6531496,0.8653002,-0.315238,4.4852896,-1.5814543,-4.441684,-2.8903341,2.0935936,1.04073,-2.2807443,-0.82131577,-1.3573778,-2.6436007,-2.5778568,0.26620197,-0.29333782,-4.9106812,-4.651107,1.6785645,-4.229533,0.30201483,2.7951164,-2.4947047,-4.106514,-3.1933074,0.9374051,3.5288143,4.3729515,-4.9106402,-4.9204345,3.2172775,0.7195468,-3.4193807,2.3036947,-2.2195177,3.1669369,-4.809557,3.2077446,-4.6656947,-0.8901143,4.881607,4.820834,0.047417164,3.8944054,-4.9756093,-3.3814895,-4.6701217,-1.9218361,-3.1263232,-1.1688643,-1.1479144,-2.8948565,2.60596,-0.17237139,-1.0251975,0.7921643,1.8811984,-2.365917,2.578898,3.6712475,-3.0764961,4.7856417,3.1864414,-2.5386834,-0.8991246,3.392478,1.7414732,-0.2787156,2.0971231,-1.9906473,-0.81402874,-1.8961334,0.7645798,0.15189171,0.7126751,2.7954426,-2.1836872,1.4491196,-4.725756,-3.85625,1.4965143,-3.5465932,-0.9379096,-4.1026073,-0.19399452,-0.8609133,-3.9848185,-4.5293045,1.8594971,-3.7149894,1.3530331,3.1772442,3.2683487,-1.659617,-1.7770104,-1.2031424,1.9480085
