-3.2617993,2.8279238,-0.9118581,-4.6314626,-2.492659,4.443263,-0.010717392,-2.1807437,-2.7282703,-1.2215037,-2.3042893,-2.5765526,-1.1654329,3.1117878,-4.7921634,-1.1997585,-1.6950173,-2.875017,-4.709697,0.21509218,-2.5444932,-1.748857,2.6532516,1.5238066,-0.048561096,1.4179525,-1.4532237,3.959219,-4.3930106,-2.7195163,1.260251,-3.264333,-4.89062,-1.269995,1.7193565,4.2319117,4.8045883,-4.6009197,0.19444704,-2.6469512,3.769494,-0.05454588,4.5825396,2.5988173,-3.261252,0.8120346,1.8722744,1.2323837,4.8182955,2.071917,1.8887062,-3.630432,1.2254658,-0.034145832,3.5188274,4.6615562,2.101447,2.4776735,-2.2949166,-4.8013873,-4.378404,-4.9551277,0.38129854,0.45777273,-4.9945173,4.619482,4.592105,0.7060833,-1.6942449,-3.7288141,-4.3770843,4.9571686,1.0975847,4.866935,-4.1710405,0.75860214,-0.8510423,3.4180317,1.2141037,-0.21756554,2.176745,0.07455301,-0.9620981,2.77711,-4.0101404,-0.54027605,-2.3527884,-1.4149995,-3.8291407,-3.432293,1.5228581,1.4054852,-1.2528591,4.966852,-3.6532462,-0.2832842,-2.852816,-1.5252452,-1.7523456,-0.29328537,0.97567654,4.9159107,-3.29839,-1.3065286,1.4143591,4.1132593,0.10581541,0.9086485,-4.012873,-1.475883,3.55371,2.638093,4.741333,-3.8528366,-1.0201669,4.4872274,-3.8330638,2.4515815,-3.5781288,-4.597007,1.6169224,0.104798794,3.002493,3.935732,3.6290627,4.402567,0.64076185,-0.83039665,-4.0453386,-1.2635791,-4.0825415,-2.8776174,3.5326166,-3.1645405,1.5719252,0.17186832,4.3255157,2.1215482,-3.1933117,-2.973262,-2.677064,-4.225015,4.8616304,2.3659897,-3.2097645,1.0689993,2.7810102,-0.7832093,-2.410026,-1.7380433,1.9549341,3.3662777,2.1675234,0.43738794,-1.6184134,3.043561,0.17927837,-4.7834244,4.6116714,3.3729382,-3.5879154,2.8704042,-4.342327,-4.0135727,-3.2256055,1.1452484,1.5195055,-4.1587024,-4.1892056,4.5365534,0.2248354,1.4087625,4.8624544,-2.5219293,-0.84791374,4.204113,-2.6456594,4.1764355,3.092327,-3.2937264,-4.9228473,3.369402,3.66222,-3.7944083,4.642371,3.90843,2.7212133,-4.5629554,3.224265,2.6158152,-1.4553499,0.78820467,2.9378767,-4.7375207,1.0495038,2.3046455,-3.7156248,1.1731381,1.8401937,3.4771385,-1.3175666,-3.948646,-1.6962762,2.3916874,-3.286416,0.28417778,-3.4445114,-2.9580402,-4.1053534,2.4037604,-0.26028585,-3.7724729,-4.819355,2.8981075,1.8051667,1.6487436,-1.9663053,-1.3371758,1.8303709,1.3289981,2.7424293,-0.57957745,3.968934,2.7481976,2.2751074,1.572268,1.0303645,2.5822535,-4.881051,2.79808,-4.770742,0.35264206,2.5494413,-4.7726493,-1.1620836,1.8801537,-4.9310856,-1.9855614,-0.8462267,-3.8397288,-0.8291483,-3.1537569,3.1483698,2.203817,-1.691916,-4.7127943,1.9940577,0.89887047,4.441761,0.8912749,4.0893173,-3.2094984,-3.4602113,1.1229744,-2.2731643,3.2784443,2.290059,-3.5103357,0.9811568,2.704206,3.3572607,-0.27109814,-3.6920285,0.022005558,-4.76597,-4.749949,-0.9684429,-2.668835,-3.4734507,0.9687829,3.948205,-2.8567214,-4.0913033,-4.67401,-3.1230564,0.68778133,-4.1250515,-3.390737,-1.1370964,3.1713657,-3.3912742,3.2351885,-1.3938761,4.610817,0.35637188,0.8994446,-1.8503678,-2.3379688,4.966962,4.506834,1.7550974,3.739811,-2.5875247,-0.031848907,-4.61055,-1.0201712,1.3620825,4.630968,-4.110232,2.1742535,3.7261448,3.171566,-3.8519573,3.3124943,2.3346162,0.04557991,3.4128246,-0.84669304,-3.8921242,-3.469994,2.2933555,2.214511,-1.0803294,-4.6326847,-2.8349566,-4.7908993,-3.6086714,-4.8350525,4.2703238,2.8972483,-1.3646193,-1.4826989,4.2999287,0.053481102,2.885703,1.2877378,-0.851707,-3.5043316,2.2862835,-4.6789227,1.3876333,0.084331036,-1.401782,3.3412666,2.3504105,-3.621695,-4.788837,-0.47820854,-1.379704,4.023447,0.72698784,-1.0727406,-1.0972404,-0.9403248,4.1933527,1.5307283,1.6744871,-1.808167,2.160386,-1.6492372,2.2345428,2.6518793,4.52252,-0.13163948,-2.9509008,3.7470446,-2.5732553,3.4665136,0.058993816,1.2600851,0.8354931,1.6880789,-1.4199829,0.8241563,3.397068,3.3538265,0.78656435,1.2505875,-2.9019327,-1.0318124,4.270114,-4.2433205,-0.9110694,-2.1163404,3.3693295,-1.2053566,2.906496,-1.8677087,-0.39452124,-2.1084464,-4.464483,0.8919277,0.62271786,-2.1601133,4.749611,1.8170123,-1.6900964,-1.9612396,3.4760752,-3.0551517,1.5273085,1.2230053,4.4591093,-2.786644,-2.7379918,-1.7792253,-2.2925014,2.7624025,1.6410131,1.2509446,1.209918,-4.066416,-0.17181015,-0.44803524,1.4974194,1.4286108,0.010261059,-0.8101349,-3.883264,2.4156017,0.14969397,1.9135427,1.066608,-2.1725435,3.3773212,-4.5808983,-3.9743586,0.060453415,4.2031136,-3.7531643,-1.1061807,-4.139629,-1.4109259,-2.861936,-1.3080585,-1.9052501,2.5838404,2.2612195,4.1886444,0.99985075,-4.365678,3.0609207,-3.276006,3.0970564,-4.2404137,1.1000948,-1.1897469,2.464799,-2.252552,4.427449,1.4666314,0.49532652,-4.266043,2.4918437,-2.5315719,-3.0627751,1.8850956,-1.0319054,-4.055995,-1.1418283,-4.552848,4.4193535,-0.06171179,-4.055008,0.05652523,2.0714545,3.701851,-3.7535894,3.4479074,-4.8653336,-4.7217607,-4.0759544,-2.2733593,1.0897284,-3.1129658,-2.770456,-1.9520044,-3.5209692,-3.774476,-1.2444334,4.4184036,4.509413,4.885086,-3.0725527,4.8957253,2.891045,1.1831594,-2.8406448,2.8521147,1.4306107,0.8694558,-0.4933529,4.350336,-2.2990937,-2.2186904,-1.2535615,-1.0807781,1.4334702,-1.1026299,4.066287,0.5445013,3.5204268,0.88038826,0.13927364,-3.3134723,0.21508169,3.1207104,-4.308595,-1.8153114,4.762023,-0.21229458,2.879158,3.495965,-4.4768186,3.2744617,4.0928698,2.7004013,-2.9453897,-0.29560995,4.3963327,-3.2654119,2.4505334,-1.3241816,-2.035923,-1.0563147,2.9553518,4.54006,2.7232685,-1.9052763,-2.7889383,1.775878,-3.5428267,-3.0077684,-0.7870054,-2.8293753,-4.408648,3.841546,-1.6086912,0.9756832,-3.323301,1.13374,2.4759822,-0.85614395,-3.475678,-0.053837776,3.800066,0.093378544,4.85608,-2.43465,0.87445354,4.291649,3.4404116,4.9148855,-0.52913666,-4.7186403,3.3105955,-1.9554687,0.32283545,-0.26988554,-2.9781098,4.8968525,1.660078,-4.532552,-0.4882245,-4.631482,3.642767,1.2350559,-0.4371953,1.857029,-3.7146,-0.71426916,-1.7552197,0.18843842,-4.335685,3.383853,2.7454205,-0.06711435,-2.77524,2.9170394,-1.4675796,-1.8709528,2.1167092,-2.1199532,4.2934685,-4.253953,-3.338122,-1.7353206,-4.5942683,-1.3281412,-4.3673286,-3.081696,3.036828,0.8142476,-2.0232165,-0.18432522,-0.51271963,3.2192965,-4.1081076,-1.9918756,-2.1116571,4.816146,-2.3203616,3.8894367,-0.48225164,-4.5768695,-4.047899,4.82143,2.0663447,3.2674046,-3.9238536,4.8136244,4.9212494,-4.544041,0.6013851,1.865911,3.2108364,3.599823,2.1842413,-2.3691802,-3.022931,0.22224808,-0.341156,2.3371897,-2.4632545,1.4886041,4.889529,1.8185143,-2.6728237,0.18544436,-0.9724598,0.18196106,2.8759503,-3.628275,1.3383908,0.80284977,2.5698996,-3.417803,-4.127657,-4.057388,-3.6950827,1.3398075,-1.7904358,2.4369483,1.2946119,-1.9379253,0.41343975,-4.8000026,-4.1274176,4.4556007,-3.9322848,0.51443624,-2.0857334,1.6449108,-1.202755,-0.05691147,3.9012756,-1.5748549,-1.7050302,-3.3332915,-0.46141052,0.44237423,-1.9987612,4.8550367,-0.051651478,-0.24333906,2.9299302,2.66711,1.7186947,-2.1153545,0.023010254,-0.33862877,-4.3599157,4.1382246,-0.1349554,3.2916718,1.8576889,3.3570137,-4.545394,-3.314981,-0.44968653,2.967668,-1.2619548,-2.3395395,-2.8813381,2.4986267,-4.202139,-0.701036,-3.6373055,3.3801584,-3.2235785,0.294425,-0.55595875,1.40837,-1.4572442,1.7260437,2.216093,-4.8825545,2.9654908,1.3228488,3.365158,4.412712,-2.0278645,1.4894719,0.003417015,3.029912,4.486783,-4.5826235,-1.845717,3.83148,2.9935102,-2.5689836,4.416088,-3.7971425,1.3314781,3.1170473,-3.3836274,2.2829938,0.070282936,-2.5389993,0.46128035,4.595578,-3.8859677,-1.612062,-1.3089461,0.10157776,-4.238815,-0.31852436,1.1222706,-3.912555,2.490326,-0.48589277,1.1106157,-0.37325478,0.57640934,-4.35862,0.122923374,-3.59508,1.7101712,1.1125746,-0.7326374,-4.2518654,-2.7610831,-4.1047835,1.676548,-3.666039,0.3732438,1.4636564,-0.8321457,-3.5148919,-4.6066723,3.2979898,4.52787,0.6384649,-2.3194027,0.86081123,2.8456793,1.465395,3.3234644,0.068962574,2.8750744,3.4976664,2.7075272,-3.9542131,-2.3738337,1.7232018,3.396309,0.85713863,-2.886365,2.615519,4.356538,-4.4912176,-3.2381964,-2.6766598,2.879846,-1.5253699,-1.7592497,-1.7632389,-0.28341007,3.4742107,2.1277294,-0.23362541,-0.26304913,1.3377876,-3.602521,1.4686146,0.95314693,-1.6979527,-0.89937305,-4.805134,4.740183,1.9817657,0.64933205,1.0685863,3.084958
0.4910617,-3.523467,2.6534739,0.58713055,-2.1775067,0.95832396,1.1630297,4.550723,-1.6316104,-0.51656294,0.7855549,4.195821,-2.7616696,-4.177062,2.8315363,4.2851143,-4.861985,1.3391314,3.3628292,4.42752,2.9008455,1.6342278,-2.6364136,2.294613,2.5759602,1.9196281,-1.1786962,4.6881685,4.8435698,3.0542536,-3.2468204,3.2994623,-3.791459,-4.605879,2.3040648,-3.7434304,-4.1141777,-4.8678265,4.165454,-3.5903466,1.678072,-1.8833928,4.7243586,-1.5242939,4.202924,2.8904486,4.494478,-2.009613,4.7617264,-3.9175105,-4.757537,-4.071575,4.541876,-1.6614656,0.86970234,-1.617111,-3.2600384,2.3952246,-0.4717865,-1.808517,1.7866936,-1.6722977,2.0853276,3.414792,-2.8155267,2.4402485,-0.18166542,-2.5368814,1.3867941,-3.4514499,-1.2088518,4.91862,0.056206703,1.9973831,1.3818226,4.7646685,-4.187289,-1.5739293,0.11004686,-4.4879036,1.8836555,-4.3874645,2.6324277,-2.4663706,1.9757814,-4.1487937,-3.673427,0.23959827,0.5347061,-2.6880174,3.0415163,2.7547617,-4.426248,3.8406153,2.6294851,-1.3057466,-2.3763947,-3.0593967,2.7135525,0.39624405,1.7554731,2.035542,-3.699125,-4.146669,3.2466354,0.41381454,3.1335325,3.461998,1.4731026,-3.7119012,-3.1178045,4.538436,-4.0400147,-4.9014754,-0.6315808,-2.2422588,-4.0840874,-0.111436844,0.4935217,-1.1499362,-4.3229074,-4.3777533,1.8034573,-1.5302281,1.3245602,-1.4022655,2.5083547,0.09426689,-1.0124497,-3.6031473,-0.20473671,-1.1192989,-4.1932955,-4.54844,4.740532,-2.5298202,-2.2450514,-3.1613965,-2.7676988,0.85848427,-4.08821,0.81082153,1.6917415,3.306158,3.276905,-1.3210769,-1.0574551,1.2772841,-1.002003,-4.757076,3.1222496,-4.4446416,2.8977566,-1.3615351,-2.0825136,-3.4326644,-1.0350907,-0.7206011,0.32811403,2.8507524,-3.632003,-0.36591768,-4.0209365,0.9568348,-3.1028514,3.8732615,-4.9942045,0.63680077,-0.8349247,-2.9477124,-3.3187504,-1.8353777,-3.4086657,-1.132139,3.9071054,-4.1223555,-3.1128502,-3.91456,-2.203658,1.349226,1.6785455,-1.4908118,-1.5816295,-0.08014488,-3.8180442,0.6484957,-2.536821,3.8702192,2.4264402,-0.69264174,-4.395293,-2.0476592,1.3032913,2.9995008,2.817192,0.18624592,-1.4006596,-3.6081882,0.29880047,-0.9577036,1.7328196,-3.162192,3.1381636,4.6260147,-3.9890594,4.225666,-0.14495134,-3.1698556,1.0332861,-1.547612,0.58944035,1.0711079,-4.6289377,1.0999541,2.4456878,-1.4814985,1.1938663,-1.0317338,1.6749649,4.9760904,2.4997883,-4.3552995,2.228198,-3.180685,-2.4259996,-3.3178596,4.7969627,-3.9413393,-3.6641507,-1.1478782,-3.9064312,-1.8575935,1.8540497,-3.8300805,3.6054535,-4.1433597,-3.7296848,2.2972155,-2.5899816,2.2009115,1.3000627,4.7192707,-0.7818942,-2.5518732,-1.9216771,-4.285931,3.9157314,-4.2836514,0.8303666,-1.6289349,4.259013,1.4507489,-2.879159,-2.4571414,-0.60408974,-1.1859422,-0.5959387,3.4788923,2.5352025,-4.924926,4.9687204,-0.3322482,4.2772713,-3.3350377,-4.446299,0.6796956,4.016137,3.6915913,-2.1062946,-4.3055773,3.9186125,-1.7812216,3.989894,-1.5659575,-2.274067,0.25656414,-4.9175982,-1.8684025,-1.6700106,0.41555357,4.378006,3.2488766,4.6295176,1.9555993,4.90493,1.5412021,-4.023228,-2.9974318,1.8452497,3.843192,4.163,2.1458874,-0.8243561,-3.7239628,-3.476183,-0.86388874,4.0507545,-0.76197815,-4.4454627,1.6735935,-2.3211985,-3.617134,-4.1897297,1.6705656,-0.073494434,3.9797869,1.3309078,0.09268236,1.5605359,-0.28650665,3.483737,-1.5885174,3.1232004,-0.21756744,-1.287425,2.822569,4.713747,-0.6234832,-0.90835285,-4.958865,-0.45684242,4.609866,1.265028,-0.19520664,-3.6913598,-4.0074353,4.971216,-0.96298456,3.070385,2.540741,0.312078,-4.262729,-2.810309,-3.3367367,2.4599657,4.711281,1.9371991,-2.566899,-0.49677563,1.051908,-2.808385,-1.4232433,-4.9244757,-4.953518,-4.311987,-1.8225698,-4.950807,-1.535594,4.856702,-2.0479755,-0.9020958,-0.98006344,-0.93847704,-1.758647,2.2948499,1.1929731,-4.4873896,4.384878,-1.0476894,0.957499,-2.9987717,-0.13963032,0.36375046,-2.582786,-3.9221227,4.398531,-0.9808531,4.7847757,-0.62678385,-4.9418855,0.9129815,4.126197,-2.2037892,-3.9455914,-4.110184,2.6985626,1.5621796,3.608531,2.1740956,3.4318085,2.1340966,0.8333225,3.0747309,-0.432333,-0.960927,4.700446,-3.7728338,3.3201065,-2.458129,2.7254553,-1.8902416,4.378604,1.1516695,-0.034501076,-4.665494,0.674881,1.9169307,2.9073572,-0.014780998,1.5699863,1.1223989,4.5283127,-4.632081,-4.251714,-3.6468906,-1.6377032,-3.6054575,2.0306501,-0.47024155,-4.3253226,3.2106771,4.726222,4.632618,1.5760703,-2.3404412,-0.37666368,-0.12271118,-2.0341945,4.825675,2.3902206,-2.0682745,1.0679154,3.5222387,-0.73506117,-0.946537,-0.36006498,-4.015868,4.426361,4.5122747,4.7279625,4.048951,-0.15030861,-1.1739917,-2.9234838,-4.253511,-4.626075,-3.9551063,0.6160693,-4.748953,2.1451654,-3.9237885,3.3924656,2.5116153,-0.2300415,-0.79690504,2.0023937,1.9097905,-0.7207422,1.80723,-4.311003,3.0450554,0.5155158,2.428666,0.23075533,3.731533,-1.5293419,3.986001,-4.19519,-4.7535458,-2.7925253,1.6464596,3.5347452,3.5331068,-0.64834785,1.8662853,-1.1091499,2.0028872,-0.53536034,-1.0583782,0.87409115,-3.493647,1.5368528,4.2404356,-0.2665906,3.8623695,2.1376228,0.83994484,1.4793015,3.4869041,-4.630767,4.83844,-2.234695,0.21598577,-4.3319454,2.297307,4.3289375,0.613286,-0.84242153,2.292788,-4.9025445,-2.6613455,1.9357119,-4.653995,-0.72001886,-3.3625584,2.2128916,-2.1339738,-4.256241,-4.0264707,-0.27590656,3.0911865,2.700317,-4.4263053,-0.96451235,3.456232,-3.9157577,2.0922332,4.44909,0.71695995,2.390027,4.0842476,-2.3270917,3.028245,1.950614,1.2461786,-4.4068823,3.9764204,-2.7534604,4.745614,-2.1137333,-1.3052635,-4.5127487,-1.4608068,1.8631101,-3.1208277,-2.1596007,-0.8020587,4.4487953,-1.4475965,-0.4291768,-2.9085283,-4.8833685,-4.319894,1.2373548,3.280469,-4.797583,4.109377,-0.27713585,-1.2048321,4.212743,-1.2766023,1.6913052,-1.6145463,-2.4140477,-1.9202185,0.97661257,-1.5282679,-3.1810565,-3.1457334,-1.4896579,-2.38373,-4.4910345,2.5156136,0.50931454,3.6880054,-3.002975,-4.5933194,-4.500786,-4.0498285,1.6056566,-0.5859976,-1.6365409,4.474231,0.21218395,-1.287034,1.2055297,1.9783473,-3.742375,2.004475,1.7380099,-2.011323,4.6029673,2.1321058,0.5820327,0.0056700706,1.6786675,0.6039405,3.4139795,-2.088273,-4.794411,-4.2540607,1.1175547,4.4024925,0.24966764,-0.76750183,0.6678128,4.013953,-1.4757581,1.7592134,2.3469505,0.89431953,0.022541046,-2.6474638,3.299717,-0.69257784,3.3892841,0.109717846,-0.06622362,-0.100664616,-3.6539185,4.0448847,-1.4032388,-0.52403164,-0.47995186,2.6891418,-2.1538436,3.3380508,4.7969685,-1.6034346,-4.1315727,2.4263153,-3.9638472,2.6396298,-4.7630005,-4.0283585,-4.6545687,-4.3647866,-3.142908,3.5122318,1.7185283,4.671566,-3.4132373,-0.97080994,-4.4968643,-2.0078259,2.3209949,3.8666868,-3.8906455,0.67589664,0.6154275,3.9229336,1.5671625,-2.4428415,3.0316458,-2.2240806,-4.063591,1.2518663,3.5582228,-1.8266196,4.7233877,4.4774733,-3.0111284,1.5348272,1.6035366,3.8850574,1.8592644,-1.5960026,1.6330438,0.21696281,4.2756615,-2.5617714,-1.6542668,-0.73874426,-0.29444122,3.5272188,2.6399822,3.27487,-3.4701288,3.9516344,1.7588277,-4.1499624,-2.09302,-4.879138,4.9496527,2.2875814,4.09503,0.81463814,1.10886,-1.4814806,3.0333834,-2.230128,-4.6037846,-3.997858,3.9464607,-0.5157037,0.8278122,-2.3572202,-4.91168,-1.545862,3.8024216,2.4162745,1.8190093,2.4427404,4.7197456,-1.5281205,-0.30747604,-3.2591224,-4.8033433,-4.40073,3.6281557,-4.211541,-2.731831,1.6152644,2.003501,-3.816955,-0.77287245,-3.2601726,2.1101952,0.41188955,-1.2746854,2.7867465,3.4999695,-1.0080862,3.9718695,-4.0796523,1.0066037,-2.3484004,-1.3427663,3.7313719,-2.138505,-4.751888,-0.75032234,2.0763464,-3.2866688,2.6287293,4.126397,-0.6669955,-4.3123245,-3.7216334,0.8415165,4.5341864,-3.6495357,1.7014999,0.07948494,-1.308269,-2.4583304,2.8162584,-3.3496964,3.3676147,4.8209248,-0.70363235,0.47610044,-4.3648314,-0.8204584,-2.182604,-1.589889,3.9557905,-4.2472973,-0.035345078,-2.417994,-3.235122,-4.9874167,0.88411903,-1.7849171,2.311884,1.3748283,-2.6858401,-1.5025783,0.6266012,0.6568675,-4.862208,0.9588313,-2.9489934,3.345107,4.9589434,4.380129,3.147069,3.6969128,-0.82505417,1.8690152,3.2157412,-3.8027835,2.1362772,0.80601025,2.7934813,3.785512,3.7061882,0.9543438,-4.8799076,-1.9200177,0.60371876,4.369482,-1.7213261,-2.2198076,-1.7534041,1.5408492,3.874424,-1.3096814,2.1235237,-2.6407976,-2.051969,4.7420826,2.0408225,-3.5741735
2.9394321,-2.8468812,0.10763693,-0.46518755,3.1601925,-3.1424003,2.635674,-1.2483013,-3.679977,-4.0518,-0.99819374,2.7090216,1.537631,4.1237354,3.429964,-2.7843566,2.6473742,-3.0165565,-4.495153,-0.09423733,-2.788096,4.5118055,2.496791,2.5704231,-1.7169023,-4.6256456,-1.7739546,-1.2149973,-3.0737476,-4.110301,-3.641086,1.2278819,0.0508976,-4.2874913,0.2763195,-3.0393405,2.3070135,4.969718,-2.6406527,3.784935,-2.6108031,3.0085478,-2.9020767,-4.196735,-0.96798897,-3.292793,-2.6237047,-4.5589705,-1.400785,2.2515368,1.8770576,4.3145065,4.345294,-0.4095559,-0.14191532,-2.5773482,3.9803286,-2.274334,4.8642817,-2.004476,-3.8311834,-3.6103015,0.22719812,-0.6408396,4.3887796,-4.999254,2.0213661,1.4988418,-1.0016518,-1.5874279,0.28062248,-2.8221977,3.9925194,-0.06984472,2.4304886,4.660965,-4.6259136,-4.588675,4.6315756,4.719262,-2.249641,4.4370384,3.2236776,-0.4295659,-1.6978769,-4.4567432,-2.1500218,1.7060642,-2.9593933,3.009942,1.2849779,-1.2955494,-2.6883287,-0.3861308,-1.3029475,-0.050653458,-2.9375517,-2.943408,1.3056688,-4.4423013,0.29099846,4.7070713,-4.3477287,-2.403108,-0.47001886,4.5359097,1.2761025,2.1073108,-1.3516192,-3.1450582,4.643136,3.9151297,4.299096,-2.7438588,-4.258972,0.28335333,1.7874279,0.33124208,-1.707108,3.7413626,0.6503959,-3.8526373,3.0509949,1.645823,4.249464,-4.756171,-4.17736,3.371832,-2.9806113,-4.917479,-0.39204693,-2.3138034,0.5037737,-4.5732203,2.0913954,-3.0046659,-4.545386,-1.376332,2.1629505,-2.2214384,-2.3311973,0.2499175,-0.1562481,1.4297953,-2.6336658,-3.0412555,-2.5408893,-4.780161,-3.1501956,0.9304552,1.6621046,4.6867886,-1.1536307,3.3902006,-3.678465,1.3172312,1.4107442,1.0538487,-0.0012207031,0.5570898,3.0608263,3.7247124,-0.78300095,-0.628253,-3.4480166,-2.3256695,3.6903563,3.235241,1.0018115,-1.610049,-0.5835676,1.1939859,-3.9884794,-4.8400564,3.7830696,3.5747929,4.9483814,-4.3640385,2.6347928,-4.1030207,-2.6142907,3.1811285,-2.7250993,0.94740295,-3.509932,2.5296426,-1.5769017,2.1665802,-2.1119552,-3.2318048,3.204586,0.16612577,-2.9314656,2.81429,-2.639329,0.25255775,-0.9168873,2.661151,0.49595785,-3.1555998,3.3751287,1.6293802,2.6589975,3.542674,2.0469308,1.0239325,-4.663089,-3.8276207,1.5736556,1.3779163,-2.3877091,-1.66007,4.0137997,3.5009594,-4.9443655,-1.6547914,-4.109291,-2.486374,0.9612632,-0.3194337,-2.724001,-1.7653055,0.4418497,3.0534763,-4.5115523,-3.4639878,-3.967288,-1.1843777,-4.519127,-3.7281203,0.57329655,0.484025,3.2618036,2.3280191,-0.6332617,-4.4162126,-4.5766764,-3.9598894,-4.638835,-4.7504134,-3.21204,-2.770998,1.4346166,0.029447079,-3.96095,3.7057266,3.7371588,4.6673126,-2.7711911,1.9694042,-1.4765625,1.4847894,3.3327904,-2.4083948,1.7827253,2.099804,4.730775,3.8351984,-1.7315893,-3.439722,2.8679094,2.2019615,-0.046287537,3.1306381,3.285778,1.5190392,-0.4668193,4.9383526,3.721531,4.8052883,3.1538248,-2.0602493,2.740899,1.8496857,-1.9417624,-1.4641542,-4.8407307,1.3693781,2.9361954,2.6867104,-4.2620654,-3.4649158,3.5364418,2.8335648,-2.9959364,4.7491074,-1.4644253,3.2827625,-4.6098566,1.5924416,-0.74020624,3.437976,4.147252,-0.5100827,-4.3597736,-4.476816,2.0257177,3.3639297,-3.5283482,-2.9743373,1.3268127,-4.6092486,-4.837701,-4.8307652,0.22742224,2.287675,-2.5201387,3.7304306,-0.9817591,-0.07642746,3.4247875,-4.516959,-0.5546713,1.7488279,-0.13436317,-2.91134,3.163537,-2.9611487,-4.7840347,2.1132417,3.0933552,3.0730543,-3.9753807,1.6856747,-1.8315463,-0.41564226,-2.7250016,4.2044287,4.976445,1.7710071,3.5467386,-0.34136105,4.678747,-1.4834344,4.659047,3.8362675,3.5951757,-0.124595165,-1.9445581,0.5635977,2.5127978,1.3174763,4.860984,0.0144376755,3.082714,4.6132555,-1.6899581,0.39339495,3.157774,3.8373737,3.6654167,-0.8313966,2.167388,2.0992813,4.990138,3.639202,-4.4703765,-3.9512002,1.1633544,0.30204058,1.1160512,-2.8582363,3.4866762,-2.4126089,1.8741298,1.1355801,4.7682543,4.3812866,-1.7138517,-0.72408247,-3.796705,-3.8134575,3.5716476,-1.216495,-1.2916481,-1.021061,-1.3297625,1.0203896,-2.0867972,1.9419646,2.4802804,-4.52308,-4.1762085,2.1501703,-1.2075055,2.4165926,4.2402,0.77770805,-2.3231678,3.4636116,3.0955944,0.04963875,-0.2998457,2.4397416,-1.2179089,1.652483,-3.917262,-3.7800355,-0.3678789,-1.601603,-1.4359522,-0.33491802,0.50747585,-2.8353124,4.4340715,4.1188774,2.830606,-1.9642358,-0.567544,1.5563908,-2.1342278,0.6264949,-2.5262618,-4.2447996,-3.4922838,-2.0091267,2.8818922,-1.5105784,3.1534815,-4.531739,-3.283949,-3.1664407,4.2657585,-1.2621343,-3.4198456,-0.33611202,4.0834484,-2.0647287,-2.5445266,-0.09800959,-4.6743145,1.4443355,4.224969,-0.33116245,1.1616249,-3.8510394,-4.623632,-2.8151524,-2.3641043,-3.2982798,-0.31480885,1.5099163,-0.3438797,-3.4461255,0.9862709,-2.1150656,3.636345,3.9640436,1.5318165,-1.0160918,3.944646,3.237876,-2.5004144,4.033345,2.6684566,0.4684205,1.3891878,3.209815,0.23665142,1.0034328,1.6352229,-0.5763917,0.87068653,2.2924905,-3.499053,4.9227467,3.2795086,-0.93901396,-2.2029095,-2.7789454,-0.20348597,2.6001005,-2.3063493,-4.4488907,-2.0664163,0.93295336,-3.6850595,-3.302631,1.1237807,-4.4880095,0.34608126,-2.5386322,4.6427784,-0.4047532,1.9835849,4.545471,1.8921385,-2.4130285,3.326911,-2.3645492,-3.5508811,3.6079865,-0.43191147,-1.0785465,1.5341048,2.749651,3.0421429,-4.654917,-1.254561,-0.6117778,2.299261,-0.37749767,4.1058836,-0.8259182,0.59768677,2.1459603,0.37760305,0.4527645,-2.0582545,2.633377,-3.9305127,-2.7981691,-2.5663269,-0.2616148,2.1895647,-0.12054491,0.8554816,-4.03235,1.2374234,4.1782084,2.531021,-4.71386,1.3117828,4.247368,-1.503262,-0.45131683,-3.5471292,-2.48002,1.2518196,2.3061252,-2.0048099,0.98344755,-4.540282,-1.7067671,-2.434135,2.9265099,-0.015685081,-1.1831784,-0.48634624,-4.222142,-2.4338598,0.40698338,2.760952,0.89023304,1.6765938,-1.6839666,-1.0005646,-3.5482888,-0.029633522,3.0243368,3.0890484,-2.9771245,3.7647228,0.5204115,-1.893013,4.052699,-0.443573,3.8526592,-3.825512,0.12874317,-0.30075502,-3.6374605,-0.068930626,-4.806233,-3.6647635,-0.85953474,2.8552847,-0.79641294,-0.5295124,-2.0030236,0.5024915,-4.6703215,-1.6700733,1.7686677,-2.73458,-2.4660695,0.49968338,-1.9441895,4.3418226,-2.2995985,-1.4656286,1.9520683,0.23109198,0.07459593,3.3944263,-1.7054284,-1.5527248,3.556551,1.6276207,4.1938295,-3.5382037,-2.9149616,-3.5168135,4.7648783,-2.0997005,0.8048706,-0.6017761,3.5959044,3.6751919,-3.8605328,-1.639678,2.7464986,-0.96992683,2.0613093,2.851112,-0.67239714,-4.265752,2.7900357,0.52724934,4.6764374,-4.9281554,-3.484449,-1.9258392,-0.44574642,-0.0961895,-3.1404905,-0.56190586,4.8030005,-0.3563571,3.16537,0.4580946,2.3331852,1.0909991,-3.009059,3.5082045,-3.0968463,3.9451866,3.5837421,-2.7166624,-0.8779173,1.8095593,-1.8642373,1.1657457,0.9209032,-2.812525,1.0673242,3.293622,-2.8672628,1.5668035,1.646841,-0.048667908,-3.2960653,-4.2460957,-0.22960186,0.6373477,-4.8068833,0.3559165,-1.2456322,-1.4460361,-4.3848486,3.9089565,-0.07414436,3.1792479,2.614645,-1.5815253,-0.5879059,-3.995124,-2.3426313,0.20268154,-1.7806559,-1.0501826,-2.776121,1.716775,-2.3261166,-0.28609514,0.70994663,-3.1853418,-1.5367908,-1.072725,1.8928571,1.6612558,-2.7374256,-0.50900173,2.8569183,1.9486532,4.776908,-0.39478493,2.2209558,3.7376528,2.3751698,-4.452965,0.09020376,2.9801202,2.1974177,-3.5479176,1.9980359,-3.5220265,2.3786182,-2.271322,4.907385,-4.2519383,4.585121,0.28867435,-3.825982,-1.8171155,2.209342,1.52003,-2.594154,3.1792564,0.5335007,-4.4747825,1.0565357,2.5792723,-1.8506866,3.9416895,-0.90353537,3.6602554,-4.249821,-4.2923923,4.146757,-2.7632756,-1.8714261,-1.731667,-3.862143,2.2265391,-0.7845583,0.23962879,-0.9787135,-4.9941306,-4.5692496,-2.8207273,-2.616746,-3.6479573,-3.1013799,3.946023,3.765133,-4.0447097,4.384197,3.5381584,-2.19559,0.07518196,3.5369444,-2.0380473,-2.5004792,3.7199726,-0.2761631,-1.5006638,-0.14573479,0.09636402,0.81809473,-4.352845,-4.16323,-3.3050232,1.9130602,-2.805026,0.26652718,3.724969,-4.0882783,3.7583046,3.8701038,2.5791268,-0.32431364,-4.3524547,1.96208,2.0791335,3.6674109,1.1929793,4.988493,3.3719358,4.5889254,-2.6289363,3.6042614,-1.0793376,-3.818273,3.0850515,0.81398296,3.050602,-3.8465948,-4.6032104,-4.6784754,2.7491813,-1.9213014,-2.3217213,-0.4912858,-2.0463634,3.0921955,-4.7878795,0.95365524,-2.5697489,-2.182598,-2.6569712,-1.4695048,4.1677217,-4.4455347
-4.500351,-1.1332636,2.390314,4.4469156,-0.61123466,3.03788,-1.2437356,4.8164387,2.886879,-3.749587,-3.3782184,-1.1015594,-0.92525244,-0.9264946,4.4391565,4.0273027,0.8640919,2.782465,3.9948902,2.0057402,-1.1182559,-4.1002827,2.7173853,-2.7574177,4.5727453,0.6672735,3.5081053,-0.6137366,3.9758396,-4.285125,2.6788497,3.2296352,-3.8047366,1.7999835,-2.6226664,4.8393726,3.4793797,2.68261,2.2238688,-3.070432,-4.171448,3.3968916,2.5640588,-4.8707576,-3.4476852,1.353817,2.8599792,4.5711985,4.7070885,2.6862283,-2.4205165,-1.2528074,-1.6134429,-2.698921,-4.5777583,1.9645624,3.9033766,-3.7906182,3.060586,2.9636574,0.8310623,3.7133026,-0.105556965,-4.7224326,-0.3780074,1.7548866,-2.2454047,-3.5366826,0.5399327,3.1565647,-2.17866,-2.7795248,2.5412922,-4.440257,-0.904541,-3.670963,2.3032517,3.1824389,-3.189547,-1.894275,-0.84391785,2.788382,-3.2227082,1.8947835,2.0151892,0.9299183,4.210973,4.377536,-0.556365,-0.5405755,-1.3498263,4.8031406,1.3935366,-2.1954894,0.53288364,-0.4811983,-3.6406703,2.6957836,-3.4719133,-3.6774092,-3.591441,-0.03449869,-1.3414848,-0.19665146,-4.640626,1.9460068,-2.0026863,3.7569332,1.9194117,-2.9799123,2.7758527,2.5160832,0.81090736,3.5392847,-3.559333,-3.9639997,4.2166176,3.0886145,-1.2806182,-0.49908638,-0.6582136,2.2746239,0.3515978,3.0836916,2.5514755,4.522464,-0.073115826,1.7038989,2.6088567,3.064559,2.2344613,-4.25504,-4.2767086,-1.7518573,-3.8519657,3.6188593,3.2104187,2.0272665,4.27899,-0.45641184,3.931075,-2.515062,-4.8212404,-3.8405676,2.8174424,2.8996878,-2.1618943,2.7135868,4.2146454,-1.1762309,4.8357325,-4.510872,2.5590663,-3.9503913,0.8711767,0.12636948,-1.3671727,-2.7456183,4.703044,-0.9781356,-0.08103323,-4.9846272,-3.5551338,-0.84869576,3.958044,1.6603203,3.9604044,-2.576909,3.016613,0.88522387,-1.6779346,-3.207963,-4.1440725,3.8574486,-2.3607163,4.0598593,0.52782154,-2.5846367,1.9148464,0.20990896,-0.66822004,-4.0032988,3.1457558,-1.4342904,-0.36456633,-0.77415943,-4.5817995,-3.093019,0.46761036,2.285448,4.518179,-4.3489943,1.0533571,3.234106,-0.71022224,3.4217558,4.8336945,-3.5798442,3.7532082,-3.2303858,2.270774,-0.82831335,-0.90338945,-0.21828365,-0.7342119,-0.11430979,2.4523544,-4.5679054,3.193758,3.5277157,-0.014069557,2.4139905,-4.368273,-1.3101029,-3.352816,-1.7298083,3.7380505,-4.1747227,3.7327175,-0.94944525,1.5001192,4.8718357,1.888874,1.5914135,2.1526456,-4.2398934,2.7742538,2.397109,-3.4918523,1.1252265,-1.0075247,-1.0856843,2.0816178,0.6336241,3.9353466,4.113549,0.61374664,4.6439714,3.201541,4.8095875,2.3032813,0.063384056,0.12218428,1.6919322,1.2872229,0.9870205,0.41387844,1.1003914,-0.6593013,-4.0590687,-0.7779112,0.73108387,-1.0956669,-1.5874882,3.991539,-4.370876,-4.100508,-4.735369,-3.0895739,-2.5844324,-4.8076973,-3.1914692,-0.370183,1.6897292,-4.832698,3.241457,0.9947338,-4.785658,-3.0821788,3.8649826,2.6629372,-3.9181328,-4.9644403,4.4969387,0.9823456,-0.6359043,1.0420709,2.8503523,-2.3131359,-0.12745905,4.401284,-2.2369547,-4.7372017,0.28396368,1.1993079,3.1733627,0.83044624,-3.0948896,0.9607749,3.7738266,2.4426928,-1.8854685,-3.6016054,-2.4853878,-3.084104,-2.505647,0.54759884,1.1252422,-3.7407577,-0.13413954,0.8239417,-2.023242,-1.6784506,0.893383,-0.06608772,-0.6100941,-3.5672193,0.84594774,-3.8177485,-1.1452479,-1.122042,3.1876965,-0.2133503,2.2201276,2.9171505,0.92610264,4.379958,0.5132489,-2.5470476,2.2740293,3.8202906,2.2038465,-2.4506402,1.6375899,4.0159664,0.97468424,4.263419,-0.8991103,-3.838365,-1.9008355,-4.3634434,-4.2554398,-2.2598047,2.0905476,2.7577944,3.3265953,-0.8085098,0.39112663,4.930895,4.1854277,-0.34015274,0.9414139,4.772129,-3.6033046,-3.5525763,3.2994375,0.15897512,2.2569141,3.829296,3.6640844,-4.2884493,0.742527,-3.092554,-4.8971243,2.2384014,4.7061462,-4.263527,1.7460194,-1.4724219,3.6483555,1.9224339,3.2000847,-4.074189,-3.906539,0.9685497,0.15643501,-3.3147085,-0.50327206,-1.816997,0.106723785,0.9896307,-3.5551524,0.1258192,0.4791479,2.162713,-3.0805504,1.3606238,2.17914,-3.7935214,4.6664486,0.7744112,3.9037971,-4.330182,2.3842554,-0.05834675,4.2776756,-4.8840294,-0.17299175,-2.2933812,-2.8928506,-0.795043,-2.8740854,-1.67148,-4.0944376,-4.8821206,-3.500023,4.8160133,2.5492978,-4.227431,4.4844904,2.7194738,4.702626,-3.8142729,-3.6616647,-3.854605,1.3376417,1.7096443,-4.180725,-1.1296744,2.2569008,4.908863,-1.4807761,-1.662333,-1.5649343,4.8260727,3.4325924,-1.6096787,-2.457971,2.85393,1.3453264,0.64763784,3.3738031,-0.79438925,1.4478211,0.4104805,0.06326437,-1.6586375,-1.5932894,0.8783436,0.9267359,-2.347082,0.19900131,-0.11350155,-3.150783,0.45514107,0.21324539,-4.307074,2.3433785,3.176548,4.6276474,-0.9238486,4.6019373,-3.0079203,4.7904997,-4.5348415,-3.7486486,-3.148036,4.838148,2.3949718,4.3784084,2.0458212,2.3533397,4.7857456,-1.9173093,-3.3372462,2.9187489,-4.0840693,-0.7905221,3.994666,3.2749853,-1.06252,-4.3011904,-3.668679,1.8968906,-3.1136072,4.435276,-3.3698301,-0.89141273,0.0974946,-1.0264282,-2.1073484,-1.3617826,-3.0743427,-4.6276813,3.9733467,2.9588885,-4.267659,-0.034935474,2.429181,3.0249882,-1.4410944,-4.9691243,0.69944096,-0.015258789,-2.6859813,-2.0866652,-1.0523629,3.517951,-4.0424204,-4.998727,-1.9267333,-1.0968204,-0.47370338,2.0950222,-1.6017056,3.3627453,1.8653708,-2.94407,-1.5273075,0.16734695,1.3250694,-4.590521,-0.6446829,2.7101417,-2.1694846,-3.997211,4.3566084,-0.22147083,0.037415028,3.4813528,-3.905363,-2.1185982,-4.7388463,1.3412838,-2.5712812,-3.1729758,2.8711777,1.272008,-2.9484463,0.2454834,3.2785835,-3.488956,4.9045153,-4.375425,4.8041162,-1.938508,-0.9311347,4.657894,-3.3263505,0.47998333,1.9259777,1.2474246,-3.9344878,4.872615,-0.5390744,-2.5167232,-4.981313,-1.1607599,-1.0382748,4.525015,1.8247337,-4.557537,2.4546375,-1.8688941,-0.34460735,-2.948625,3.4518013,0.5548134,-3.6934586,-4.2556148,-0.8386464,0.48117638,4.089758,3.5113373,-0.10947418,0.5646305,3.0839005,-4.988528,-4.2014527,-3.4715033,-1.2487841,-3.4064274,2.810378,-3.8795094,0.8399706,0.87204075,-2.6686919,-4.367275,4.7569647,-4.8681045,-0.80331516,0.36156273,-4.5252657,2.8910298,-3.9167352,-2.5369382,-2.376861,2.5252857,-2.308427,0.019245625,4.046379,2.6474438,4.174144,-1.5182877,-2.5254834,1.4986467,1.1659093,4.4908094,4.861558,4.7953577,-3.2707608,-2.2079592,3.7005148,3.8397427,-3.360314,3.5707722,-1.069253,-1.4737172,-1.0295975,-4.0794144,-2.7294981,2.2578106,-2.3924618,2.7391763,1.2621708,-3.079034,3.7615051,-3.6690764,4.7338715,-1.4082808,0.05241394,-1.3429797,3.3993216,-2.3766274,3.6107454,3.264021,-3.7785554,3.955554,-4.4502525,1.849966,0.75506306,-2.4078417,4.60375,0.73504734,-3.674119,4.327711,-4.684045,-3.220909,0.39776087,-0.33669567,2.8996687,1.3599682,2.2760053,3.3011122,-4.2796154,0.9452629,3.119691,-0.52753353,-4.588039,3.9293242,-2.5910587,-2.7832289,0.28387165,-0.44556808,-3.4419389,0.4647708,4.0567703,1.3234143,2.952217,-2.3895633,3.157711,2.610507,-4.282544,4.878169,-0.45432043,-1.1085963,-1.6973102,-3.3381379,2.051073,0.02602005,0.040816307,3.7573223,1.5168867,-1.0222673,-1.8923855,4.996234,0.5027294,-4.0039225,-1.0982406,0.5470104,-1.1220205,4.032069,-0.33968544,4.192112,0.5262203,3.10822,-1.526618,0.67541885,-3.8144708,0.5585327,3.4090052,-4.4777417,2.0289607,4.5436707,-2.7348418,0.3379364,2.082069,1.6707487,-0.3321333,-1.3584085,3.0233812,-3.4920378,0.1406269,-1.2238061,-1.4046228,4.0713015,-1.5272856,-1.7743611,4.467252,4.369439,-1.6764374,4.460394,-0.61445713,2.8569145,1.7935748,4.6404314,1.842102,-2.5389314,-1.486758,4.523155,1.0585718,2.24549,-1.8171895,2.1188135,3.4961739,2.6088262,3.1465092,3.7696419,3.3357677,3.210165,-1.3512921,4.7362156,0.41004086,4.668092,4.2727795,1.0465384,-4.2372203,3.2892332,1.9390335,-3.4156184,0.35124207,3.0548773,-4.581543,4.821658,-0.928195,-3.4161205,2.6607704,-0.43301773,4.413377,-0.7077031,-1.0934842,2.1229858,3.601303,4.822463,-2.4405031,1.3483944,0.1872387,-1.0608892,-0.40018034,-0.58075666,-1.4220757,-4.8475,-1.8232613,-2.6831002,1.219254,-3.4892154,-0.4896927,1.9487495,0.9772067,-1.0911674,-2.5523794,0.97301435,4.3364515,2.1532083,-3.9953017,-2.9444325,0.13555002,2.4120045,-3.5020905,4.0121517,-0.578742,-2.4950361,2.562232,-2.3021924,-4.7695303,-3.2803612,4.00998,1.240365,1.1700497,3.0636244,3.4659958,0.19907665,0.80519485,-1.8382728
-0.38735008,-4.5753627,3.9273129,3.1438818,-2.38908,4.8379602,-2.3999124,-0.7598047,-4.2062416,-1.8981242,1.7464781,-2.100513,-2.0802073,-1.2356119,2.731009,3.4688501,-4.102541,-0.1472044,1.4630599,2.766502,0.68147135,-4.7149773,1.0540295,0.42879534,3.5137205,2.7851229,-2.3273957,4.8478947,-3.5399027,3.2129898,3.0378513,-2.8270893,-2.1562397,1.679945,1.0760212,2.0903196,-0.08623028,1.3117199,-4.5541577,0.34870672,-1.2939305,0.6940098,2.7133055,3.1803875,-1.2085943,-4.0987883,-3.0986214,0.2492404,1.6575456,-2.0039458,-4.0840635,-1.7810416,-4.5891676,3.7052155,0.16123676,4.4300785,-1.2884088,-0.3308177,1.1719418,-0.1372428,4.0379276,0.69874716,-0.50512743,-4.9570293,4.79195,-4.5377827,1.4200392,3.2098703,3.3993998,0.69974136,2.6837358,1.0120387,4.0091496,-2.7152169,-0.39106083,-0.36766005,-1.6097884,4.335305,1.1263094,4.891981,-3.6037958,4.5046816,-1.4735312,4.4328775,4.214532,3.814064,3.4109783,-2.2410555,0.17127895,3.225049,-0.6836133,0.4909935,-0.076693535,1.2934165,4.697216,-3.2544315,3.3088665,-0.99913216,-2.7883434,-3.5964255,1.1139498,3.554142,-2.8128119,-0.4853201,-1.3951259,4.4864483,-2.7236538,-1.3672786,2.4909444,-1.6334963,-1.3038402,-3.023212,2.1324024,-3.7564654,-1.3520944,-1.7329192,4.8331842,4.599226,-0.1522646,1.0192056,-4.785275,3.0491247,4.4738503,4.280205,4.8187666,-2.9698431,1.706223,0.1497674,2.8839731,2.5025625,4.2548695,-3.308797,1.008842,-2.9846144,2.268054,-3.057609,1.0295801,3.2563038,-2.7324386,1.5033693,3.9675474,1.1313953,-4.5964146,-2.2119951,-3.0137105,-4.106109,-3.9986825,2.0483751,-3.6082964,1.3855414,3.6703224,-2.9513483,-2.4668078,0.3710847,0.78762484,-3.591845,-3.54883,-1.6732681,3.1384745,0.49332905,-3.8724136,2.5370712,-3.6946745,4.364937,1.1874046,2.0503573,-4.7127695,-3.8543785,2.923852,-0.060412884,-3.6300702,-3.6133142,0.6559086,2.7571774,3.1597338,-1.4870615,1.6689706,-3.2526338,2.865221,4.831806,-0.89010525,1.4432354,-0.8092065,2.336362,-1.4346766,1.768733,-1.0017395,-0.1614294,1.390173,-0.36132288,-1.2488394,-0.5057769,2.822033,0.39899588,-0.43183613,2.7297215,0.37919617,0.84595394,4.4636135,3.0761375,4.241082,-2.5658708,2.6070814,-0.78521633,3.6902466,1.0009499,-3.9285321,0.89472723,-3.7372208,-4.1846128,2.2966356,0.8490772,2.9793015,-1.674242,3.52458,-2.8006415,-4.132507,4.0148726,-3.7642825,-2.8727603,-4.3769617,0.02880764,4.2376566,2.8666487,-4.9021053,0.5681801,-1.392951,-2.759604,4.70862,-3.0132108,-1.0239224,-2.783546,4.780013,-1.6495109,1.4830217,4.9948463,4.106163,-4.0020638,1.9478998,0.32469034,-0.24833107,-0.83431625,-4.767244,-2.034194,1.0622239,-2.9945445,-0.29738855,-3.5823298,-4.603034,0.72524786,3.1863928,-1.7852795,-0.055464745,-4.130991,4.2058754,-3.8724608,1.0095696,0.13505459,2.3920465,-1.7015548,-0.89970064,3.8979635,-1.8835914,-2.8259735,-0.706727,1.976397,1.3118753,-1.9431634,4.336007,0.7016268,-1.0440791,-1.5320568,4.573387,-3.6870651,2.211433,-2.1956081,0.20064592,-4.756661,-2.225387,0.70278835,-1.4497614,-3.3879805,-1.4448385,-2.5831497,1.9575682,-0.9045439,-1.9059968,2.2990236,3.4597607,1.0100408,1.01192,4.2223673,-4.8171706,0.3397851,1.1318808,-3.285646,4.72517,4.4872236,-3.5464482,0.67770004,0.33094406,4.290745,4.4714622,-3.2187133,-2.1607404,1.9428167,-4.3047,-0.00044822693,-1.9780791,-1.3609445,-1.0361342,2.381446,0.5484891,2.5201244,-1.2000728,-3.2949085,-0.17185688,2.360416,-1.62152,-1.2897949,-3.8817687,2.811822,2.540988,-3.1139512,4.8163166,-1.1808271,-4.4038734,3.6771975,-2.0694184,-1.4888966,4.402998,1.895452,-4.8110557,1.0749493,-2.4519289,-2.4515617,-0.86797476,4.9621506,1.005723,-3.4789455,-1.6736138,3.1965466,0.8958311,3.7934303,-3.816331,-3.6763306,-4.7880707,1.893373,0.12199116,-1.501993,4.811657,1.9197884,-2.693544,-0.81996965,4.587579,-2.8502965,-0.08481741,1.28193,4.701371,4.925866,-4.8201613,-0.96204376,0.87197256,-3.8763733,-2.6165152,-3.2435818,-2.360462,-3.0404282,-2.4302328,0.5034981,4.845751,3.6401825,3.584978,2.7624369,1.0127468,-2.4727368,-0.94099045,-1.9905496,4.492811,-0.16252041,-1.2455618,-0.9310508,3.080183,4.2395067,-0.3965006,-1.24999,-2.474078,-0.8291931,3.9686136,-1.2636924,2.822936,-0.014317036,-0.54784393,-2.8596938,-0.8728657,-0.33826828,-4.0468884,2.213306,2.7593584,1.5088038,-3.0548387,4.679658,0.19701672,1.4919996,-0.45074844,4.047077,4.5636463,4.0192785,0.22362232,-2.340036,2.5557785,3.7568007,0.59901524,-2.060308,0.22009659,-1.8126321,-2.9566586,-0.50923395,0.8645053,-2.732994,-3.7626576,4.019657,-3.9653265,-4.401195,-2.628256,-0.63984346,-4.5061684,-3.1015892,4.9211493,-3.4078288,-4.2018266,2.1157818,-0.6907072,0.4350891,3.04247,-2.0480824,-4.9434276,-0.38288593,2.8597045,-4.036105,-4.967153,4.6810417,3.8370314,4.477684,-0.22876453,4.8197613,2.7215023,4.49724,0.3477502,3.320794,-2.5274854,-0.28287458,-0.77525187,-3.277614,3.4110613,-3.9961839,2.8554344,-4.3134623,-0.7375474,2.5874238,-4.308801,4.3467216,1.4021821,1.7499208,-3.5764532,3.1201267,3.831294,-4.402783,1.468544,-2.711906,-1.9524229,4.7180767,1.5059462,0.79660463,-3.9513297,1.0037975,2.7430058,-0.43768215,3.285924,0.71209145,-0.71883106,2.6103077,0.04760647,-2.1175241,1.7189293,-2.3885064,4.2367764,-3.5100822,-1.3804502,-0.6035824,1.5506611,3.0327158,1.116375,-4.1923437,3.492322,-1.7257733,-4.9263906,2.2960196,-0.40617418,-0.14802074,-0.039010048,-2.9196615,-3.7528949,0.5268817,-0.7382293,4.977603,-3.1791549,-4.3323846,-4.7232685,-1.0120659,0.016762733,3.3369007,2.602707,0.266325,4.663656,4.2470846,3.4899292,-4.586255,0.16783953,-1.8518722,-0.9082203,3.5546055,2.3389063,4.5380163,-3.1396146,1.447887,2.8248415,-4.528531,-0.21009636,2.165072,-2.8149276,-2.400785,-4.9443398,-0.577322,-4.9210863,2.78152,1.7109299,1.0935802,2.9343276,3.621561,-2.9498827,-2.5293307,2.201448,2.0809345,-1.9657893,0.36797285,0.5062275,-1.9436817,1.6359129,-2.4204783,4.611414,4.2913485,-4.8041863,4.829215,1.9565825,4.253271,-2.9137921,-3.4607947,4.765273,0.63445616,-3.5962958,4.322753,-2.595982,-4.8999767,-2.6464171,3.054801,3.4529572,-2.5302923,-4.3397293,-2.0605187,-0.126091,-3.6487496,-2.9823928,-0.8606343,3.839654,-0.28655148,1.5506978,2.3261528,4.8570023,-2.9255414,-0.60228825,0.36301136,-4.9624734,-1.2388456,1.7960668,4.8752365,-4.7984004,-1.5187187,-3.8155203,-3.3048491,1.7515259,3.5339966,0.92429686,-3.3696957,3.9160585,-3.6844945,-2.1847045,-1.8518443,2.9971595,-2.9216976,4.891569,-3.9365883,1.21557,-1.7137904,-1.3361521,-2.2644734,-2.0119417,-3.3272176,-0.7692747,3.0361347,-3.597951,-2.3732977,1.3062005,-2.6644206,-2.450329,-4.212042,-0.1547885,-0.57543325,0.41749716,2.9257517,1.9105191,-1.8926353,3.932519,0.024371624,-0.01917839,-1.3912821,-2.2830486,-2.6425023,-2.9801,2.0993042,-2.3783488,-1.6551697,1.9488173,-4.0724983,1.5087833,0.4620247,1.9813375,3.4436378,-3.2799602,-4.5849314,-4.99586,0.81266785,-3.2301557,-4.1230516,-3.6845708,4.566204,4.686119,-4.998071,-4.689448,2.6905718,0.03846693,-3.295784,-0.27014923,-0.64502525,-0.4746933,0.13961315,0.7786169,-0.3797679,4.897835,4.901103,-4.6730876,0.4998951,4.576293,4.9740334,2.978423,-0.111177444,1.634552,-3.412519,-0.7639146,-4.4828033,-1.0874729,-0.1569252,3.8576717,-3.8805676,3.0819645,-2.3521543,-0.75936365,-3.1138272,0.93174505,3.7281008,0.92065763,3.3138666,3.544426,4.5275526,-2.3559701,0.6917739,3.636572,1.7537885,-0.33824825,-2.75976,2.3670778,-1.7806923,0.7879658,2.6273484,-3.3818336,-4.8725643,0.9693332,3.8550587,4.2591257,-1.5284486,0.26878166,-2.026807,-0.7827802,3.5376873,1.0515165,1.508183,-4.0536547,4.1517906,-2.2053819,-3.5917974,-0.7220459,4.392763,1.3662138,-2.0316978,3.488142,4.8105745,2.4254894,-0.7097225,-2.1635866,-3.0031657,2.5391111,2.396922,3.7352886,-0.50561714,-2.0782251,-1.327991,-0.4026823,1.5985804,0.45859432,-3.7763584,-3.0056472,-4.729536,2.5502787,-4.697488,2.474218,-0.90223074,0.118575096,-4.4303555,4.0712013,-4.247216,-2.1341639,-4.850298,-1.6106474,3.6289482,-1.4370191,-3.8934338,-3.7416153,-1.9130511,2.1974525,-3.969115,-0.5245347,-2.23177,1.8003039,-1.4844942,0.57207346,-0.25329018,1.4620132,-2.8329933,3.4420843,2.7147617,0.49496222,-3.8769288,3.6777143,-0.4976201,-3.5275066,1.3244553,-4.2055626,1.6559114,-1.8515129,0.13884306,1.994987,1.9640021,-3.995719,3.0535192,1.3906817,-4.562778,-2.331581,2.622414,0.96507263,1.5093069,1.252008,3.4617605,-2.0371544,3.4598885
0.6766205,-2.1386366,3.8222475,-2.3301673,0.30036402,-2.0076447,4.573599,-4.993574,-4.7767954,1.5662804,-4.696706,2.0066452,1.3526707,1.8202782,4.2311506,-2.0121903,0.5881252,3.8949127,1.920104,-0.2776723,1.8736768,3.793788,-4.2119927,-0.61460686,1.6269593,2.1426697,-2.5351655,-4.853382,4.1374445,4.3782578,2.9741263,3.5065594,-4.0481997,-0.3920312,1.4404678,-0.28972578,-0.5340462,0.46040916,2.010672,-0.8058014,1.7543669,2.6810179,2.505947,-4.3938246,1.9330196,2.661953,0.49966335,-0.8004432,1.6619105,-0.6506705,3.5609589,-3.5075088,1.9454432,4.426566,-0.5843897,2.1818204,0.037460327,4.847535,-1.2026823,-0.82408,2.9020305,-0.8006153,1.5058498,-2.500761,4.1097345,3.3991776,1.9278073,0.19641352,4.8389587,1.1394858,-2.4906607,1.6155682,4.0132,3.9455118,0.9587836,3.4105396,-1.1071868,-1.2264447,4.075124,4.615527,-1.6614103,-0.7352109,-2.1011157,-2.617548,-1.0576224,-0.40793848,4.284502,0.9725685,2.3017597,-2.8739285,1.5751958,4.3103848,-1.0601015,-2.4207473,1.492724,-1.8940771,1.8353748,-2.8670602,1.3795853,2.5570436,4.8308907,1.8814282,2.3209343,4.4959564,-3.801968,2.9105215,-1.0634975,-1.9663291,4.033889,2.000206,1.0274296,-4.7138543,-4.9519997,0.52252054,-1.4786899,-0.58945084,3.476841,-1.8206067,-2.233678,1.418334,3.3572598,-0.91719675,-0.3055563,-0.10708523,-0.48036385,-4.454324,0.6614709,-3.077972,-1.6142607,-1.9702144,-0.9887953,0.09049463,1.5089979,3.6793861,-3.8596833,-3.3049607,-0.61886597,2.7464342,0.058089256,3.0931911,1.5326409,2.4845018,-4.198243,0.13159943,4.6117916,1.2160769,0.5003557,2.3389578,1.7390423,1.4334254,1.3401675,-2.874722,0.16256523,-3.5942907,2.8481503,0.23519468,4.011388,-1.8467026,-3.7929459,1.726747,-2.5965624,-1.0820704,1.2460189,0.27003717,-0.19717503,-2.445035,3.653635,-0.7592988,2.1829987,2.4019308,-3.9827437,-0.16465712,3.8375406,2.2684808,4.0010567,4.258443,1.7541337,-2.5187945,4.8874617,2.0904255,-1.0404229,-4.781844,-4.927804,-0.39809656,0.7690277,-3.3012743,-3.3025837,2.3512802,2.0197768,0.91306305,-4.708388,-2.3543572,2.3075671,-1.7683406,-0.011136532,2.804501,-2.355107,-2.043807,-1.7357974,0.32743073,4.3350086,-0.2105813,-2.2169495,-2.1438437,-3.0626428,0.5623579,-3.847822,-0.35912466,0.78721523,-1.4396734,4.513376,-2.2778273,-4.3433933,-4.8982925,2.5921793,-1.9751227,-1.5943222,-0.062729836,1.511509,-1.5945511,-4.234811,-3.6738415,-0.5839114,-4.330085,2.949916,1.8624444,1.0009294,-2.554456,-2.2471743,2.0056672,-1.6826959,-2.1301622,-4.349931,0.7460904,0.44045448,-4.2320037,-4.271695,0.1453247,-0.85787773,4.3716545,-3.8270307,-0.69769907,-0.5658779,3.6117468,1.4266129,1.9044085,1.2154999,3.6723413,2.2784672,1.3289013,-0.11293459,2.9757762,-2.0630753,-4.4603753,0.41323566,2.893515,-3.0091887,-4.3805647,-3.8906467,0.7398758,4.060993,-1.85607,-1.3719554,1.2851338,1.0689945,2.446743,-3.7885845,-0.47142935,1.4286351,1.1262279,-1.2804067,-1.9193382,-2.064302,0.5372567,-1.1754375,0.28270292,-1.4255989,3.569539,3.2299461,-3.4654717,-3.560689,1.9468517,-4.4217834,-4.0167766,0.38553,3.8377113,2.424479,-0.14474487,-0.5917926,-0.5473547,2.5456524,-0.12767696,2.495925,3.751562,0.98755455,2.2094584,2.419139,-4.4136343,-1.6270399,-1.4258671,-4.329916,-3.6982656,-2.9069023,-2.0093596,0.9180517,-4.9529295,-0.14270544,-0.27223969,1.5984559,-1.0201316,-3.7479968,-1.2315373,4.542779,-1.5896888,-1.261543,-0.5331559,-2.9524076,-3.9817739,4.08918,1.6156263,2.5935621,-4.574542,3.4276896,0.9769535,-4.638546,-2.8985262,4.260316,3.541235,2.084126,1.4469585,-0.52453566,1.8804498,-0.5389004,3.7410727,-4.252358,3.0446205,4.293084,1.1481314,2.9931479,-1.5942621,-4.0346694,-1.6679299,1.855752,0.5405884,4.5098457,-3.6990814,4.7487755,0.81252193,-2.404083,2.4050689,-2.4405003,4.038083,4.2965803,-3.8314886,-2.0149426,-3.5007834,-3.6762977,-0.50241995,-1.7533958,-2.4143481,-3.7373762,-3.8291752,4.232728,-0.8416681,-2.2196765,4.1255617,-4.1521,4.3589535,3.1070242,0.5361767,3.0792027,0.29451656,-4.112813,-2.9057884,-1.020782,-2.1204586,-1.7574711,-2.6793976,-0.87667465,-1.4725847,2.3476954,1.255734,0.24321938,-4.6743484,-1.8386774,-3.8088453,0.64571095,0.21821785,0.4657135,-3.649876,-4.260483,0.44250774,4.670686,4.8292704,-0.48598194,-1.087178,0.59218025,3.2305975,-1.4848762,-0.023190498,3.0533485,0.25353956,-2.1927137,2.2599864,3.3308659,-0.6793065,-2.870561,-4.636832,0.8420305,-1.5553105,3.8129406,1.9208031,-4.4057794,-1.5660529,2.8402762,-0.97873306,1.5927429,2.969709,1.4623661,-0.53326035,-4.977558,-4.2049522,3.7643929,2.4541373,-4.7932553,3.7927036,-0.46510315,-1.1083186,0.84418344,2.6983738,3.2631435,-2.6841874,-2.8507447,1.2526693,-1.1123304,-2.478454,3.199112,4.0868626,-2.7571821,3.9785004,3.277337,4.7468815,-2.3292875,-1.2269421,-2.2377257,-3.0352044,2.7662792,-3.9676654,-0.2575307,-1.7016821,-4.4520593,3.811098,2.93573,1.2459731,4.3073645,0.8001132,4.5352764,4.2125845,-4.909451,-3.8058496,3.3331451,-3.9790993,-4.495535,3.2033024,3.4466743,-1.4086103,-0.6298847,-4.945386,-2.0468462,-2.6318722,4.022278,3.6675367,3.9082928,4.7829514,3.4696207,4.8573675,-2.1019702,0.8111615,-0.8935871,0.8061342,4.4953566,1.7336636,-0.8514018,4.1136427,0.6195493,-4.2484846,1.1103368,-2.4725997,-2.9431903,3.8468857,0.9766817,0.5732651,0.71342707,3.3717556,-3.0065207,0.08047676,-1.0008745,2.4532485,-1.9435735,-2.4867105,-3.6744184,-2.4782152,-2.4497156,1.5802569,-1.6323595,-3.8193154,-0.16664505,-3.9963274,-4.234793,-2.4575286,0.9933891,-4.1227684,4.6594486,-4.1531305,1.2281199,-1.2825913,3.663002,-2.0910568,-4.4076366,2.2659636,-4.722189,-3.6832035,-2.5928843,4.489743,-3.1236637,1.8833904,3.606884,1.9280615,0.8042822,4.7527046,-2.9568756,2.1767397,1.1596861,-0.108282566,-3.7064738,-0.8822465,-0.50215006,-3.4782326,-1.3912301,2.8829985,0.44655895,0.7103243,1.8862672,-0.66752625,-4.73845,-3.8019848,0.59198,1.2705154,-0.5485053,-1.8504965,-2.2938883,-1.0952783,-1.6700773,-1.9699769,-4.937577,4.1424713,-0.06064892,3.3153505,4.6612825,-4.82611,1.3692403,2.4798636,-4.429004,2.5255642,-0.41111422,-1.3518167,-4.547992,2.7584214,-1.5644228,-0.24116898,-4.927364,1.8921466,-2.9416537,1.7417736,4.1050396,-2.6065397,-3.6129947,-1.2714791,3.3142204,4.0808163,-3.7878184,-4.485764,2.439168,-1.5285115,-3.3829224,1.1403227,-0.7070265,-3.9759903,-2.1603732,2.670968,2.2525315,1.98837,-2.3807578,-4.5575213,-2.4924862,-3.6411114,2.1420264,3.7823133,2.9385753,3.2049742,-2.9438515,4.429655,3.7144938,2.7475815,-4.2918806,0.15672684,-1.9780481,-4.0148044,-1.1158938,2.6887493,-3.122806,-1.215877,4.6081934,0.1770029,3.6634207,3.4906683,1.7593122,1.878746,-0.822875,3.4375725,-3.1629086,3.7858696,0.12337637,2.8391514,1.9343729,0.31493855,4.3284807,2.0055065,1.9532547,0.97544765,-4.366514,-0.73494244,1.7880101,-1.610359,-4.2887754,-0.96628904,2.142887,0.013213158,-1.182034,1.044383,-4.628754,2.7468162,0.52357626,0.6707525,-3.4360325,-0.7029371,-3.7626405,-4.594877,4.8398876,-4.889808,-2.0739067,-0.51449823,3.3611317,-3.0642753,-4.6262903,-0.46080637,3.071989,-0.45805264,-0.9095354,-1.3093095,2.2947268,-4.9929075,-0.33663845,4.8998804,4.2644796,-2.2379231,0.45400906,0.2788887,-1.1278152,-3.3787198,-4.6153235,0.9949856,-3.4034057,4.9790487,0.55629015,4.468648,-1.9625287,-4.395671,1.65622,-1.0383754,-0.82229376,-3.5459976,-1.6095023,1.1866255,-3.3546066,-4.433642,-0.40378666,-4.946642,-2.4897885,-2.2921891,2.383514,1.786726,-4.834807,-1.5453739,4.6947107,-1.0617704,-1.257503,-1.1234193,-1.7776394,-4.240326,-3.144343,-2.6412165,-4.762501,1.5875244,0.21168947,-4.828227,3.299798,-3.9595854,1.6922045,-1.1364012,-0.60200787,-3.6533427,-0.7514353,3.9443483,-2.6764483,1.0439577,4.850068,-4.740791,-1.3044949,-4.2187285,2.2595716,4.926263,1.8220558,-1.9500141,-3.716234,3.838111,1.8394752,4.9005003,-4.2962675,0.5941181,-4.9403853,3.802062,2.32794,4.040964,-2.5902753,2.7763796,-3.884436,4.2889194,0.71574116,-4.7068777,-0.6252966,3.6912022,-3.1387262,-4.1612954,1.8962088,1.7625289,-3.2348084,3.2415771,1.7645411,-3.4822333,-1.9961023,4.7332983,4.533243,-4.316571,-0.5601196,2.2122812,1.572464,3.448471,-0.9023199,-4.676901,1.2128973,1.2379942,-2.6859694,2.8606482,0.3695507,3.5648823,-2.9901254,-1.0854149,-3.3356314,-0.04305601,2.5345144,-0.69480324,-0.12500668,2.080667,3.1254187,-4.365485,3.4405336,0.480608,0.6471305,2.8770838,4.361642,3.0404243,4.794075,2.9977922
-4.043618,0.5810361,4.2295017,2.0081158,-4.5042925,-1.2853813,1.7437716,-0.3122573,-2.674923,0.13594437,2.1558123,4.2142954,1.7061043,0.02905941,4.248045,4.7177906,0.3589034,-1.9951243,-2.3096204,0.79360914,-4.7325797,4.8031044,-1.6534467,1.9999843,-0.08455324,-0.9067397,-0.8226228,0.95600796,-1.3939381,-1.5444355,2.7981615,0.3187709,-2.2919834,1.6918573,0.018623352,-3.8990152,0.4993868,4.3241262,-0.953495,1.8710809,-1.0322113,-4.376129,0.51732254,0.9682846,-2.2426689,-3.445642,1.1761117,-4.3558903,3.8750563,-3.546927,3.1444817,1.2453418,-3.7760258,3.1814795,-4.0454698,2.5285568,-0.34019566,2.5491266,2.811428,-2.2584133,-3.1200953,-4.2916927,4.384428,-4.535447,-4.2134953,1.3009267,-3.8565392,1.0631285,4.4923525,3.9937801,0.8266716,0.9962182,3.677785,0.5211806,3.2665768,-2.5655885,0.9818196,-0.92962265,-1.5556347,-3.5471594,2.578022,-0.8322582,3.782133,-4.8112,3.1919537,1.2263451,3.5875635,1.4100194,2.625373,-4.8761435,0.12210369,-2.0310264,-1.786912,-4.4566154,-0.85488844,-2.639813,2.8393893,-1.3296409,1.4602904,1.7376423,0.3236966,-4.4614244,-2.526244,0.6912012,0.20102262,-2.442,-3.673553,-3.2026033,0.75287867,4.2901716,-4.568532,0.7939391,-1.9189346,0.95326424,4.1193304,3.8125935,-0.2730217,-3.5053635,-4.986859,-0.39044952,3.4385185,1.2202878,-1.6695304,1.3223314,-2.24374,3.6199389,3.1822815,-0.036714554,0.07770777,2.6667852,-2.3783798,4.643422,-2.6578605,4.3414154,2.3705854,1.4456887,-1.1682177,1.5660934,3.5218182,-2.740962,-4.825835,3.5293036,-0.987504,4.9636784,-1.6241093,2.0756474,-2.939437,-1.213119,-0.58092356,-4.489293,-2.3183823,2.7540922,4.6895533,1.2504034,3.7710972,-1.2773597,4.0923424,-3.0492,-0.3081541,-0.8393421,3.592412,0.40846252,2.36453,-1.2928259,1.4262552,0.8095875,-0.9356618,-1.2861543,4.645053,-3.222717,3.2105522,-3.5868227,3.2982368,3.7828207,3.138362,1.8277717,3.1894274,0.47046185,-3.0927725,0.40825844,0.5000205,4.8946104,2.6563067,0.033423424,4.530857,-0.12307644,2.153391,0.812202,-4.446293,-3.785441,2.7049532,1.512342,-1.0172205,-4.225535,-2.0485597,0.5795021,-0.7907686,-0.62589693,-4.4050174,-1.3880963,4.294945,-4.358451,4.5207243,3.7889805,3.461691,4.21877,-2.9303093,-1.1263256,0.13889265,0.5407562,-1.1527145,0.9755764,-3.9869766,2.8179126,4.646639,-4.0301414,3.7375278,3.880433,3.360735,-4.414788,-2.6992555,2.4958878,-2.935161,-0.5270028,-2.3899186,-3.4263902,-0.42152786,-4.202491,4.3915234,1.4014506,3.7445822,3.7912607,-2.4820673,-1.455965,3.801837,-2.0965576,-4.4730926,0.89265776,0.75722694,1.0463262,3.02217,2.3040571,-0.80478954,-1.226995,0.5809517,-3.9286633,-0.78145456,4.8552303,1.3613029,2.3362808,0.385602,0.9931526,-2.3007889,1.3981462,-3.4590209,-3.6632597,2.2280693,3.8105364,1.2812734,2.7177215,4.7111425,-4.7962995,-3.8239937,0.54038143,-4.040806,0.942935,-0.63219786,2.6996756,1.8944845,-0.49672985,-3.2220268,-0.65686417,1.6823063,-2.7600908,0.21844769,-0.23443651,0.18520927,1.6314211,-2.8907962,4.424267,-0.6146169,-3.4550214,2.6841664,2.3135471,-4.8297205,-2.4307055,-4.0924883,-0.5196328,0.34679222,-1.3197584,-0.13613987,-2.613227,-2.1302395,-2.1582115,-3.7338681,1.7953272,2.4083118,3.7887297,4.1792727,-0.68235826,-2.390532,2.6085606,3.5784225,-4.980891,2.190422,-4.673908,2.7196941,2.533584,-4.0727615,-0.23867226,2.4352798,4.054761,-0.4093237,-3.493234,-4.598766,3.422493,4.3721504,0.038168907,-3.745337,-4.8536544,0.6191349,4.237171,0.9918361,1.8201857,-2.0555568,-1.5771055,-1.1199384,2.806285,0.7012725,3.1402674,1.9098759,-0.25172663,-0.7399845,1.1758304,1.7467251,-1.7506557,-0.10518122,-2.0986943,4.9108334,-1.3392794,-0.2952962,1.3082242,4.8661327,1.292274,-0.925457,4.5505733,-0.6704469,-1.8422234,-4.266753,1.5284772,1.7721224,0.36405277,2.650405,-2.2200155,0.19170284,-0.47510195,-2.934,4.177517,-2.248402,-2.6918912,-4.665175,2.5500684,4.112011,3.456956,-1.8838668,-2.5590272,3.4716558,2.077262,-2.8068495,2.0307436,-2.6412063,-0.2504301,-2.2319984,1.4152212,2.8142238,-1.4076037,1.6775322,-3.0649738,3.8459892,-4.3366265,-1.2972629,-4.0671067,4.413164,-1.4070492,-4.595973,-3.7499695,-0.07367182,-2.4090962,-4.0377,2.4391088,3.2324085,-4.5054264,-1.4180231,-4.0140486,-4.5875072,4.1339693,-0.49804735,0.13758183,3.9832163,0.4321537,2.9776201,-0.7473254,-2.3844142,1.368309,-1.1284614,4.300207,0.7512183,-2.5749803,3.3322144,0.56616545,-0.81814766,0.31611013,-0.025262356,-2.4612331,0.062660694,-2.3431146,1.8208103,3.1087456,-2.5779276,-4.183608,1.1539192,-2.196166,-4.7760153,-0.6593423,4.2475967,3.246973,-4.637045,-2.040269,-4.5411234,-1.9122851,-0.7477608,-2.992466,-4.41834,-1.1692743,-2.836947,-1.8961473,3.2199001,-1.8298948,-4.87176,-2.3020287,3.9843388,-0.36182356,-1.4451127,-2.4356055,1.4416718,4.798753,-1.9237316,3.6241589,-4.3915267,-0.85628605,3.566802,-0.23427725,0.53998375,-0.74429274,0.65971184,1.6961808,-1.9459205,0.2375884,4.905673,-1.3443894,-4.3965845,1.1004677,-1.3208146,2.0893707,-2.7578723,2.199935,3.9562912,-1.9971681,0.90531397,-3.067593,1.6781001,0.4194126,2.8653984,2.802846,3.703864,0.35863686,-4.5753593,4.5339575,0.2118969,-3.9856744,-0.9929981,0.108938694,3.7566385,2.8765888,0.34515,-1.6596425,2.3880348,0.74570084,1.0479741,-3.5411806,1.1032147,-0.52143097,0.8005595,-1.3378346,-0.7910342,0.27428675,-2.9151273,3.3539562,0.05839777,-2.5218349,1.613061,-0.073881626,4.103841,3.2670069,1.4946408,-0.63309765,-1.0451479,-2.8890443,0.93133545,1.8128996,-2.9285855,-1.4259224,1.9585638,4.119341,-4.5219793,2.229745,2.8229709,0.7355075,3.7418804,-1.6300786,1.1736622,4.2400312,0.06332302,0.78269005,-4.9145365,-2.1898155,1.7341189,2.0958357,2.1164532,-3.8517098,1.5856891,4.888919,-3.886735,2.382431,1.5085535,2.2769284,-2.3682566,-2.7661567,1.3415427,3.5560093,-0.7292962,-2.8770733,0.305336,-2.704873,-3.5238595,-2.64516,-1.3229465,-4.242535,4.9976387,-4.9602613,1.5104814,3.6001673,-2.8060937,0.16426325,-0.76987314,4.8113213,0.3098564,1.0039592,-0.034820557,2.6383438,-3.7274413,-0.8807683,-3.0880046,-0.9970274,-3.5634458,2.6630344,-1.7558265,1.7737322,2.0219903,1.9017863,-3.0495305,3.2941484,4.432106,-2.5811868,-0.3077078,-1.1172609,2.082159,-2.3696876,-0.52915764,-0.29933882,-1.6087353,2.2020192,4.2361383,-4.5499277,-0.7443447,1.3581982,-1.1508656,0.51894236,-1.4828343,-1.2407923,-0.737762,2.804163,-3.3681238,-0.46288586,-4.4500694,3.5696182,-0.27130508,-3.5197318,3.3903618,2.8210506,1.5119929,-3.8570213,-0.56772137,0.30216503,4.2558155,-4.6526237,3.9177227,-1.4231019,-0.09271622,4.663706,2.2321262,-3.8970256,-2.7942948,-4.7832055,-0.13563538,4.684126,1.461473,3.8129578,1.2802,-2.548359,-4.080797,-2.0024514,-3.3844047,-2.268219,4.6152105,0.26249218,-2.3400748,-0.085329056,-4.1964984,2.876162,-4.009049,2.435124,1.7560172,4.3243694,-2.2434883,0.043038845,-3.4364355,-0.050284863,-1.1956544,-2.7099771,1.4270239,-0.3189826,3.710535,2.929418,-4.115999,1.9382672,-3.7696486,4.5279083,4.113209,0.12955904,1.3769894,3.4258595,1.2963829,-2.8309517,0.74698067,-2.4258077,-1.3456166,-3.0121434,-3.17668,0.76318264,1.8848295,1.0366225,0.64053345,4.4162445,3.4289417,-4.5846157,-2.7432566,-4.4742727,4.820298,3.3888426,-1.287427,-2.738452,-4.051065,2.0258265,4.32393,3.6244507,-1.1726236,-4.2178707,2.925446,-3.1177032,1.3056035,-1.0989952,-0.5892086,-4.037074,-2.3902953,3.6805992,-1.7477643,2.0928454,-1.9936962,-4.1222763,1.924047,2.2878742,-4.7909727,-4.723496,-2.5208747,0.71346855,4.442319,-2.8666973,3.3284721,4.120063,0.32331038,-1.7665005,1.4532285,2.6082654,2.9322667,2.1855602,0.23372698,-0.31410408,-0.3012991,-1.999548,2.870677,3.143591,-3.407002,1.2630634,-2.0036383,3.2568874,-3.3633595,4.7907543,-3.076713,4.90174,0.515048,-3.281701,4.3164682,-4.9497514,-1.3507442,1.0675626,0.4254365,0.9590106,-0.29478645,1.2097101,-0.6498332,4.586047,-3.6925654,-3.6599517,0.8706956,2.4223428,0.4359603,0.2077856,0.7278261,-4.048727,0.080804825,-1.4625072,-3.231544,-0.85716295,2.4074583,3.8809624,4.8522644,4.8220787,1.1256027,2.0804176,4.8045473,-1.0473318,-0.26474524,-1.2119288,-2.4611628,-4.875556,4.090885,-3.8696969,1.4293394,-0.1453352,-1.1915522,-4.591145,2.7325492,-3.093999,3.5275087,4.565955,-0.7798438,-0.16618776,1.3507133,3.1714373,-3.7828755,4.597967,-1.1580157,-2.9318833,1.2029166,-2.208335,4.336954,3.946516,-0.81861734,-3.6556525,0.19599819,-4.533901,2.7142496,2.0348525
-3.4999585,-4.116474,4.6306753,-0.8225422,0.0014519691,1.1760635,-0.29264736,2.3071504,-3.1188607,-0.19182396,-2.9639387,-2.7698088,1.9325252,-0.020239353,4.5294085,4.74057,4.984104,0.66863775,-0.29221058,0.37339878,4.840683,-3.7334836,-3.060596,-1.540724,1.4161391,-3.4991348,-0.6706085,3.3283052,2.575729,-4.275849,2.6782265,-0.68310547,4.9813156,-2.06392,-2.806735,-2.7677333,-3.8181539,1.1408148,4.076803,-3.9753513,-0.09725523,-0.30645752,-3.2607265,4.2880297,-4.8896976,4.8981504,3.490366,1.067709,4.694565,-0.13366413,-2.961071,-0.83345175,-0.71288395,2.862934,1.7040515,3.7894802,-4.493264,4.084073,-4.2080183,-4.615551,3.823782,0.69743586,2.2120428,-2.1779127,-2.1507163,-1.4836068,1.6644421,4.289772,4.391453,3.0906277,-3.967435,0.80666924,4.483143,-0.8752732,3.0435429,-4.339077,1.1892357,3.9108,-3.7734377,-4.887262,2.8142524,-3.0711246,3.6184444,3.744236,1.4399891,-1.0682619,-0.24111557,2.8323965,1.5805206,-0.01603651,-1.3696444,-1.6591513,-4.551537,-0.06025791,-2.1078105,-2.1428127,-0.32840776,2.0878477,-4.6560354,-4.7710366,3.5961561,1.8089218,3.237955,-4.528366,0.1649971,-4.6213207,-1.1894786,0.48489475,1.9322295,-1.3529844,-3.422001,-4.921248,-2.1773176,-2.458812,-1.6995943,4.9665823,-0.22555923,-1.2941301,0.40550327,-1.6446381,4.0733566,-4.4741697,-2.6355124,-3.60268,-2.1029735,-2.5841265,-1.365655,4.049762,-0.20640898,-3.154031,-3.527463,-4.4014716,-3.1417842,3.942256,-1.5714192,-1.9012392,-1.4921684,1.5675569,3.7674189,2.6960878,-1.1374438,-4.4711437,3.5140142,0.3774395,-2.5950372,-3.9668024,-4.7853904,4.6164,-2.751799,-4.967577,3.142171,1.391736,1.0985231,3.0251045,3.3002138,-4.562992,2.1441975,3.7696018,-4.9273605,-0.23188496,3.593585,3.3981533,-3.4800415,-0.74576426,-2.5491123,3.5145206,-4.08078,-3.676837,4.9952507,0.5089998,-0.89744043,0.2619171,0.38537407,-4.5746145,4.9881306,1.6601858,-1.821137,-1.8481393,2.4805422,-1.5642905,3.8339891,0.1715951,-4.2330747,2.316947,-4.919386,-0.9855976,4.7989454,-2.6669364,-2.8816068,-2.106598,2.2854347,0.032961845,1.6449065,4.5000706,-3.2425523,0.12074661,1.2345972,0.01803112,-3.277357,3.0239353,-0.6261549,0.29038477,3.096158,3.1167717,-2.3309784,2.7751665,-0.44111347,0.8101063,1.841001,-2.768505,3.6537352,-3.1267369,1.9612741,-3.7600899,-1.8919778,1.8034892,-3.1985343,-2.853622,-2.6678271,3.119028,4.4896803,-1.4753163,-3.800416,-2.6122065,-4.9890447,0.80126476,3.9284496,-0.6506338,3.567913,4.3676434,-2.3341627,-3.7700427,-0.40154552,-1.1483078,-3.0164857,0.42389488,1.0102186,-0.78243256,3.525694,-2.4212937,2.960126,4.144596,3.8893204,-4.307899,0.6872778,-4.8541565,-4.9339385,1.2772613,-3.271321,-2.1127546,-2.5176878,4.819194,0.22541952,4.380003,-0.6223011,-2.7351916,-1.0300703,-2.5409098,1.7643862,-3.9394088,-1.9606214,3.9152803,-2.7692847,-0.98445606,4.8863964,2.8083558,-4.8868847,-2.5653105,0.468781,2.0088954,-1.1855626,-0.2644148,-1.4686835,3.4029598,0.14271212,1.6570206,-1.919589,-0.7595992,4.287779,-4.7744966,-1.4446001,3.1275187,3.9536362,3.4043112,1.2561712,2.491393,-2.0867248,0.6376953,-1.9468241,1.8830013,3.668024,-4.702177,-2.5628467,4.6726522,1.2190242,-4.3744493,-0.013294697,4.4507465,-0.22645521,-4.266736,-4.3227997,-3.4938927,2.9896412,-4.55462,-0.43736267,3.5400467,3.4204893,-1.0640197,-3.0540376,-2.1989064,-0.22998524,-2.828205,-4.2371254,0.9767127,-2.0269668,-1.3361759,-4.3927093,1.6055179,1.4564614,0.43605757,-1.3138664,-2.9767175,-3.4918785,2.8100896,-4.112996,-1.2397499,-2.9417157,4.03222,-2.6309335,-2.6875079,-4.267274,4.876499,-1.0465341,-1.3069172,4.824752,1.4615469,-3.5271597,-1.587656,3.3962088,-3.5534966,-1.1311965,4.7930126,-3.3043265,3.5609398,-2.3989272,1.8427925,0.786788,1.4115248,-4.7117734,-2.2693896,0.05571556,2.976873,-3.6124384,-1.5212405,-2.3988385,-4.6571608,-3.574813,3.1812372,-4.6830487,0.28558254,-3.9763432,-2.198196,0.3884964,-3.7515693,-2.2077298,3.0443316,-2.9617214,4.8300943,-1.7147799,-0.0888176,-3.4284253,3.592659,-3.1869507,0.3981185,-2.8798695,1.5383606,2.6763034,-3.8106656,3.9549408,-1.0899682,-0.7884364,-0.5239434,0.49217033,4.6938744,-0.47056103,2.31529,2.7551184,-4.005398,3.5138283,2.4978304,-3.0798264,-2.4285526,2.3104434,0.0363307,-0.778852,0.7053318,-0.98297834,-0.84335375,-4.609687,1.4852042,2.6211648,-4.585543,-2.8041143,-3.180997,-3.0042548,1.9502778,4.610358,-1.7074084,4.0484047,-1.3100779,-2.7738774,-0.78440285,1.2059059,2.8171926,3.3998165,-4.654839,3.4420748,0.12929964,2.8444552,-0.6566043,-4.510389,0.18255949,3.061142,2.8528156,0.93370867,-0.12573719,-1.4764023,3.1429157,1.6403718,-1.0949893,3.570568,1.3262177,3.9739428,-4.482798,-1.4929748,-1.2889695,2.2874646,-4.974592,-0.3198619,-3.4678817,2.267692,-1.5118794,1.962605,-1.2326355,-3.0395842,-3.5178442,-4.69971,4.5883675,1.4984274,-2.0445108,-2.5731535,2.6872706,-1.3189828,1.2476134,-1.6650133,-2.0391977,-1.6592836,1.319005,-1.2556279,2.9564853,1.579781,-0.7804413,-4.9186893,2.220439,2.049367,1.3344517,3.4922295,-3.1070387,-3.8825269,-0.9826393,0.3892684,-1.8069923,2.6257749,-0.6418266,-3.329194,-0.78598213,-2.558854,-0.7285447,-0.9125271,-3.0052037,3.230588,-4.492355,-0.35444498,-3.383087,-2.7760882,-2.9583163,-3.9485092,-3.8421404,0.17793703,3.6470833,1.077971,0.5528884,-0.0937624,-3.0590355,-1.1419315,-0.10863495,-1.409462,0.5820346,3.5249443,2.2646432,2.7974548,-0.2625885,4.3828983,-1.1857474,-2.6263494,-4.0359535,-2.834714,-1.3064022,-2.6395333,-0.81983757,2.6972013,-3.22096,-0.03997898,-2.6716547,1.2104311,-1.9765067,4.934867,0.3133769,-1.3324614,-4.3125668,2.9131975,-2.8950775,-0.9471917,-0.84908485,-2.197122,2.741763,-3.1664653,-4.3045673,-2.0720696,-0.4182167,-3.8991885,-4.2048974,-3.0553138,3.3984308,-3.2715387,-2.6951342,-4.90016,-4.140764,-4.619451,-4.258342,2.5833588,-2.9085498,4.6110563,-1.0933709,4.18575,0.45744324,-2.9226756,0.56684685,-1.4519167,4.6184998,-0.45101643,1.1480565,-4.1188693,0.68950224,2.8766112,4.074074,0.98828554,-1.1800976,-1.2064977,-0.82246494,0.16775608,-3.975103,-2.7753556,1.8972707,2.5984454,-1.1061306,0.7093234,0.7021942,0.38990307,-0.11958122,3.7140837,2.7288127,-2.735334,-2.3068023,0.886004,4.396426,-4.9303045,1.4295521,-1.2339437,-0.72746754,-4.656,2.4027338,3.5976143,-4.064352,0.29932117,4.4064045,3.0116806,-1.9830699,-2.1878493,-2.4749017,-0.11445522,-1.3985455,-1.6188269,1.6660452,-2.8160815,3.7325792,-0.48754263,-3.4603686,-4.835977,-2.1342707,0.51808786,-3.8731556,3.576065,4.2508554,0.029092789,-3.8150687,3.893406,1.626936,-1.7954249,2.0010576,-1.3177128,0.08109999,-1.067729,1.9724684,-2.7550364,-4.7748904,-0.7043934,-1.3709903,3.2289886,4.381691,-1.240232,0.3012972,-1.9134765,-2.6097322,1.030858,-4.754797,-3.367045,-4.531332,-1.8918128,-0.4124713,0.93165016,3.221323,2.1604304,-1.7482877,1.2956815,-3.8159573,-4.9726415,2.5318775,0.51385164,1.9011278,-4.9142594,2.825665,0.4949751,1.8435459,1.2639613,-4.6435337,-4.064739,-1.0490263,4.959629,-0.25461483,-0.3574505,-2.457124,-4.438792,0.6357708,4.6204367,2.306419,-1.5478067,4.369686,4.217595,-1.1969895,-2.3240156,1.6511493,-0.13918114,4.6132517,-0.12031031,2.4444127,-3.617946,-4.0177774,-0.9358759,2.952314,3.7783146,-4.971078,-2.011066,4.1204853,-3.8280373,1.1003704,-1.287657,-1.9922299,-1.9986367,1.7328243,-2.7107544,-4.55634,-2.4274647,-3.6021256,0.7116003,4.604595,-4.884508,-0.6511011,4.3671703,0.3580351,-4.6438556,1.8992224,-0.63812685,-1.8137164,-3.324412,-2.1433127,4.4074802,1.7443376,-3.310101,3.4135609,-1.5665162,-4.6961455,4.895361,4.080271,-1.9174397,3.33782,-1.4076555,2.2143373,-0.21272898,2.0500355,4.883831,-0.8336868,3.561242,0.12346172,4.610318,-3.3598447,0.70002747,-0.894927,1.8680868,3.4612875,4.536401,-1.6064608,0.9369464,-2.0678341,-3.1817012,2.3202205,0.5805774,3.7017164,-4.9142,2.5363564,-1.4250536,-2.8607316,1.1506891,-3.0614347,1.84022,-1.7492728,3.9738598,2.0837836,1.9471984,4.185032,-0.43384027,4.601425,2.4813838,4.284669,-3.4850378,1.9094486,-4.7857194,-2.2236443,-2.2450166,-0.60324764,-2.4491847,4.1645765,1.1931319,3.8133802,-4.748787,1.1353087,-1.7072487,-1.8380797,0.4127426,-0.6358094,-3.2635117,-2.3261137,3.257533,3.556635,3.5163326,0.77991533,-2.609336,-1.9466586,3.5691738,-4.398336,1.8506632,-0.36555338,-0.23958111,3.4046354,0.47383547,2.499302,-4.261003,-1.2036991,1.9103537,-3.850032,4.8894615,3.2103567,2.5868177,-2.4241972
2.9941225,0.04689741,2.111186,1.8101931,3.9768848,3.8871355,0.44526625,0.029302597,-0.16435671,3.2300463,-2.879802,0.8226018,-3.186788,2.0999422,-2.3878436,-1.3184743,3.310711,-0.6787629,1.8131943,1.8021145,-3.0356498,2.4854298,1.9909706,4.236456,-0.22237587,4.7512045,-4.9348907,3.7869492,1.5189915,1.042726,1.847856,4.2485313,1.5748444,-2.3243852,-2.3300993,0.42510986,4.1760902,4.4835396,-4.8218603,-4.71056,-3.9062417,4.2803783,-2.9969323,3.3484402,3.7333565,-3.47827,-1.5637369,-2.3510993,1.6015697,-2.2696507,-0.18708754,0.97230196,-3.5841255,2.4566321,3.443429,-3.8953412,4.6409693,-0.66014004,3.404047,-0.19676447,-1.4642625,1.2287369,0.608428,2.3673205,-4.0138583,-4.263048,2.8393621,3.1082973,1.573822,4.0537624,-0.8964181,-3.1928105,3.2732344,-0.20114374,-1.4670956,0.09246874,2.683268,2.4542146,3.7809925,-3.5057707,1.8476634,1.1069322,-3.6351614,-2.2428675,1.5873456,-1.1365438,0.35532045,-3.960765,1.6320324,4.989747,4.1544895,3.9984474,4.5379715,-3.5594683,2.112526,4.9750433,3.5456467,2.997365,4.973116,3.5665903,2.2189693,-0.59229136,0.73564005,2.7884502,0.18075085,-3.7754285,0.5925169,-0.7897496,4.221019,-1.7097616,0.47501278,-3.5368319,2.7707071,-0.55547667,1.822586,-0.9435873,0.46224165,-1.2402744,0.12306881,2.1460676,-4.079737,3.3144674,-3.6538477,0.95026016,-2.9034324,3.0929098,1.6201787,1.0224586,-2.3016822,3.5869322,4.911357,-0.43166685,2.487822,-4.721011,-4.1075554,0.573318,0.7556534,4.958432,-0.53593254,4.2341585,-1.5431781,-1.6260176,1.2020879,-3.5492873,2.439137,0.7379503,4.7553244,3.7018814,-3.4346156,-3.2882547,1.4337783,0.54730177,4.5345716,-3.8582814,0.7891054,4.2120094,3.2766733,-0.06730509,-1.7741017,1.4000645,-2.8102791,-1.6872172,-3.7097712,4.736021,-3.5190086,-1.5128012,2.6750307,4.111987,-3.0703247,-1.3801556,0.5491805,-2.4775047,0.7820358,0.25566053,4.8452206,2.3967638,-3.8190775,-0.12417221,-4.055951,1.3674507,2.8156667,0.29965925,4.48368,-3.3030324,-4.6401668,-0.6067953,1.8086238,-4.717774,-3.8944764,2.8340282,-3.3688116,3.4142036,-0.37171745,3.285201,3.3589687,4.787778,-4.608614,3.6006145,-3.006171,-3.0116117,2.0789537,0.48541307,-3.747272,-2.7062404,4.338455,-0.033867836,2.3488483,0.71708727,-4.883501,-1.7312407,-2.5619447,-1.96895,1.9141836,-0.19599533,-4.9555387,2.6516628,4.9228325,-4.645334,2.2161617,-0.5129461,-2.399077,-0.2131424,4.8437614,0.27554274,1.6213884,2.9890256,4.730441,-2.0602226,-1.4567876,0.41211033,-1.55213,-1.2291384,0.30962563,1.0615273,-4.1262937,2.9163465,-0.58161545,0.2058959,-4.024586,1.920949,-4.2050447,2.8611593,-4.168498,0.6291175,-1.7033072,0.46627712,0.22603607,1.0047607,3.1590157,-4.49718,-1.5785794,2.2398005,3.8021984,1.2051063,-4.8739853,0.022883415,1.575861,4.3978157,2.8392324,4.9519453,3.904561,-4.0520835,1.3455348,-0.7248726,3.1542978,-1.8741398,-0.40094185,2.5528336,-3.5673885,-2.2652578,3.398983,-3.599896,0.7793765,-1.0503001,-2.8291583,0.28722715,-2.1564083,4.5297127,-3.822111,-0.24677515,4.368224,4.707247,0.49982786,-1.2319088,1.986237,-3.0765736,-4.8760037,-1.7135482,-0.6724348,4.72892,-4.903516,-1.9055867,-3.901157,-2.3213649,1.9328685,-3.4412403,2.8325338,-4.0750413,1.8397498,2.9601007,1.6465769,-0.95196486,-3.838756,1.694551,-2.2223938,3.9618282,0.42042828,-2.1482384,4.5948887,-1.6764026,-0.29499245,4.927643,0.4513669,2.1478271,1.062644,0.8137646,-2.4076188,-2.166,3.3727922,-2.5122178,3.579854,1.9520826,1.3162894,4.897629,-0.2893324,-3.463399,3.4925337,1.3337831,2.1337166,1.7242599,-3.846898,-2.3741496,1.9313393,4.9559355,-0.012024879,1.2600355,0.24227428,-0.716372,2.955604,-2.47865,4.7488003,3.05235,2.3125248,-1.9529085,0.18749237,-3.661133,-2.2369056,1.6340952,-2.5111032,4.2109575,-0.19579697,4.184696,0.9299302,1.8145995,-3.472746,3.8049307,-2.675126,-1.4075904,0.3578701,0.6375365,-4.7258368,-0.35182905,-4.1958017,-2.169382,0.20557833,3.0894594,-0.2587366,0.36975145,3.133276,1.4929581,1.5974989,1.3029013,2.6555777,-0.39994907,-4.622801,0.4371271,1.7405062,-2.7706103,2.3276901,-4.1488256,-2.258875,-0.75926113,3.949544,-3.3060825,-0.70436764,-1.9846768,1.6539469,0.080323696,-3.361677,4.072357,2.2526402,3.4555626,0.21046162,-2.061593,-3.07513,3.4172,-3.5807781,4.6041603,0.8407364,3.6722126,2.7262964,2.1621776,-3.55062,-0.7146025,-4.381689,2.3343616,1.7896233,-0.9928055,-3.1088638,0.8609867,2.7691865,2.6999645,-0.26270914,2.827076,1.406548,0.9017439,2.7305121,0.41350937,-1.6069512,1.1017866,3.1049843,0.14925289,0.9974723,3.8665857,1.1187439,-3.485598,3.2613153,-0.58591795,-4.278878,-2.6271963,2.1227527,-1.7447531,-0.87466717,-0.029678822,-4.57946,-1.0019236,0.3072443,0.41758728,1.9199848,-4.87259,1.3776898,0.50071764,1.2525458,4.6736984,-3.968721,3.7520895,1.6305637,3.3300285,-3.4331293,4.5668526,4.2394104,-1.6736107,-4.755638,-3.564967,-4.5704813,3.4042253,-2.054609,-3.5755324,-3.4217536,0.92844534,-3.330747,-0.29412746,0.8276777,3.8850794,4.055641,-0.38401413,-0.5669813,4.5758533,-0.8787613,1.8924336,0.6750183,2.219366,-4.5580173,-1.4323382,-1.8170743,3.00111,2.7504306,4.597933,1.7161374,-3.0019922,4.268488,-4.199466,2.3940792,3.3562965,-1.6994524,-0.80759525,-2.7465625,-4.205247,-2.6135695,1.6334586,-2.3850298,-1.9787383,-3.1817317,-3.1433182,3.7290344,1.2872629,-2.5488238,3.8891726,-3.0612755,0.7536788,0.6560111,-3.6397357,3.735816,1.3612132,4.4150906,-0.08369732,3.3848724,-3.8283992,-1.9879003,-1.5346365,-4.4694543,-3.4010715,0.3664074,-1.4120412,3.0961065,1.79669,-3.071295,4.651677,-0.9587722,-2.9752784,3.9871416,-0.842154,3.9363623,-2.762199,0.014679432,4.3941565,-3.8745356,-0.31630516,-2.9568756,-4.692588,-1.6908467,-2.1635385,4.244173,-3.085599,-3.3325195,-0.42838478,-4.621661,-2.0025473,2.693603,2.3827815,-4.751253,3.2476454,-2.3828864,0.7275605,1.4474087,-1.3585234,4.253395,-3.001737,1.3544412,1.6319027,3.0136433,2.6952796,1.7132497,-4.4817667,0.67882156,-3.1334758,3.81318,-2.8589244,1.2293425,4.4518604,1.7922764,-1.4674449,3.7594395,-4.826972,-3.337952,-4.2612753,4.9028893,3.8121233,3.725976,4.00508,2.599358,-0.59013414,4.570648,2.7333517,2.6290922,-4.178919,-1.5168004,3.0417814,-1.4544182,0.20475864,1.148756,-0.27842712,-2.6228256,-0.38162422,0.35577774,3.3642626,-2.4542193,-1.1232967,2.5123806,-1.7824883,0.6559901,0.625576,4.295313,0.21223783,-2.363404,2.3827715,4.5064583,3.8550892,-2.1172805,-1.8186169,-4.864608,-4.935975,1.2176776,-2.1132028,2.316145,-0.20424747,1.7916722,1.2286587,-1.6664629,-2.7511442,-1.9882078,0.0398345,-4.6517916,-1.5130072,1.9287348,-4.4907017,0.7483907,-2.840829,-2.4229121,0.8003187,0.805531,-1.1308031,-2.3989546,-2.9124837,-1.1116214,-3.615549,0.38508844,2.966208,4.484681,-2.9210873,-3.8906848,-2.3605692,-2.7504122,-4.204482,1.3877716,-1.2379093,-4.062719,4.2313633,0.3081169,1.2684832,-1.3804281,4.2980556,-3.0050974,-1.7912645,4.13286,-0.93004656,-4.440892,-0.11480427,-4.407529,-4.1156487,3.9829712,1.6103325,-0.65927553,-1.0190983,2.424047,-3.9129806,-0.23553467,1.3062406,-0.85659456,-1.5288205,-1.358732,4.909848,-1.0367846,-4.4737787,2.4735785,-2.5146394,3.3476696,4.5744123,-2.014593,-2.499909,-0.36558247,-1.2507558,-0.50741625,-1.206286,3.06991,-3.0109334,-3.5176725,0.05433321,3.6478357,-4.893709,2.7748132,-4.4662695,-2.6992054,-4.9671435,4.866026,2.9364262,-3.508402,-3.5057812,2.0225143,-2.6298726,-4.0623446,-2.6429617,1.1058831,-4.4206004,-0.5325365,-3.6576557,2.4089975,0.7792163,0.06403971,3.6271448,-2.569009,-1.5877819,0.0019316673,-0.31732607,-3.0460691,-0.96323204,-4.288741,1.0334439,-3.808394,3.1209745,-2.64013,-2.018352,1.0506825,-3.1865067,0.34225655,4.3596344,0.21066475,4.741994,-2.5521326,3.179946,3.9505234,0.8550019,3.2223625,-4.551359,1.8741293,-3.9035625,-0.5804205,-3.95369,-0.14352989,-2.2620285,1.2057514,-2.036568,2.0345397,4.781498,-3.2643008,-2.8479493,1.7090855,-0.2584319,3.2813282,4.7130404,4.2290735,3.0879002,-2.2495408,-3.3233023,3.5659933,-2.0350604,4.932311,1.4272623,3.9672184,4.301862,-4.9371767,-0.89935684,-1.3298345,-0.22507238,-4.001243,-4.054323,-3.9017992,4.2652807,0.10585785,1.171833,-4.9315453,1.2041969,-0.14827442,-3.0289226,-2.752831,2.9779625,-4.716837,1.7770715,-1.7167993,-0.53301764,-0.53638935,4.323865,1.5272574,-3.5636187,-0.8475771,3.6539145,-3.025177,0.07186651,-0.3220749,0.27038813,-0.20173788,0.9651594,-0.53393745,3.6110516
0.9850097,2.3969421,4.6591005,-3.8313162,3.9168673,-4.218407,-0.81706333,1.9837384,-3.0748224,-0.57850313,1.9023747,-4.4998355,-1.4758987,0.9637952,3.1851444,0.75901747,-4.127536,2.528266,3.104107,-3.3036642,-4.747838,-3.8417034,-1.366796,-2.0715685,2.7917976,0.57199955,3.9279642,3.8591928,-1.4214742,2.5677042,0.9238167,-4.7821054,-4.3337145,-4.888423,-0.6239791,-2.5974483,-3.9016938,3.9288025,4.8412285,3.8966465,3.3450613,-2.3435898,-1.8623157,3.4068499,3.1810627,4.0355606,-2.6011772,-1.8873258,2.0147967,0.8554039,-0.49770164,4.759428,2.2418165,1.9502602,-2.3246753,4.006816,0.4847951,-1.1050229,1.9797735,4.2813654,-4.994961,3.313281,-3.1082332,-1.4301581,0.5770092,-3.090033,2.3654847,2.405167,-0.3439932,-3.2937336,4.8572245,0.4676361,-4.497143,4.3672037,1.8708868,-0.9493618,-2.8430872,-0.7377558,-3.0534058,-0.66419315,4.250971,-1.7479639,1.0844035,-3.6819787,3.559805,0.22422028,2.1372004,-2.099852,-1.3724935,-0.032016754,3.7531652,-4.780746,-3.6324012,4.148204,-0.07026243,1.5965834,4.920334,-1.1562185,-3.426752,0.039876938,-2.0468717,0.58252716,-0.418787,4.7356806,-4.5845156,-1.2688279,1.185782,3.4886465,1.823595,-1.9584167,-2.3692644,-4.7600865,-0.8674288,-4.4395823,0.3490305,-1.1139715,2.138207,2.2328987,3.6038704,2.9983978,-1.645462,2.6504273,-1.3919406,1.8733444,1.833745,3.4485254,-2.4809766,0.83140755,-0.6586952,-2.6554084,2.1226025,-4.8070917,2.3269587,-0.9808035,1.2961388,-4.745126,-2.2479196,-3.3977504,-0.91503525,0.86977386,-2.8650868,1.7239165,-2.1298676,-1.0314126,2.4994154,0.32250118,1.6012316,-1.7396426,2.0476036,-0.4608388,2.240706,-0.75622463,3.2715387,-2.3771281,2.0561028,-1.4532514,1.6289158,2.9051542,1.7506361,-4.856779,-4.8113356,-3.5346441,4.424017,-4.333039,0.3889413,-4.7714705,1.1863203,2.8164792,3.9640179,1.4094424,-2.6312213,-0.5321889,1.4540095,-3.290429,3.751523,-3.105009,-0.7928219,-0.884871,-3.949378,-4.2371798,0.8053546,-4.0363173,2.9168315,0.09792328,0.15409088,0.03872919,3.120388,4.4195633,0.29116058,0.40703106,0.8147154,4.010248,3.024004,-0.11260891,-0.009900093,-1.7220438,-0.85091543,-2.529059,0.011625767,-0.49811268,-4.3798137,1.1347351,0.86640596,-0.972476,-3.5761614,-3.0878997,-3.9862669,4.8431234,-0.5713377,2.422121,1.099226,3.2087555,-0.17864418,1.0316525,-1.0185063,-2.414184,-2.2143483,-1.3661475,0.3319769,3.7267675,-0.8061147,-1.4250314,4.2300034,3.0621605,-3.5437126,2.1277227,-3.7034483,0.8453808,4.5347567,1.7782364,-2.4127893,-3.0816627,4.9266577,-2.8176224,-3.0358381,1.8015423,-4.5813236,-3.284129,-2.6522737,4.260297,2.488741,1.6233387,0.5215025,1.9630518,-1.0416989,4.486185,0.964241,2.6017456,4.828497,-3.70673,-1.0392964,-0.229249,3.7974405,3.2876472,-3.0980647,1.7377944,4.0726624,-4.5176845,2.3550434,3.0720234,1.7933183,-2.4338074,3.6558647,-4.853965,2.9749737,4.957098,2.8616734,-4.9555864,-0.27169657,2.531701,2.9261951,3.8514652,3.0188103,-4.5757394,-0.71148443,-2.7910542,-3.36348,-1.6057503,-1.8439496,1.1948996,-0.32820225,-1.4520884,-4.4627895,2.9638748,-3.637876,-2.698294,1.0840759,0.27876377,1.8588614,0.15980911,1.7415957,-0.82092094,-4.2545443,-2.0574331,3.236785,-4.1588883,-2.018069,3.2718925,-0.4195547,-0.6973791,-1.5740271,-1.3976824,-0.7195635,3.9435616,2.679791,3.827279,-4.6361165,2.3646317,-0.70753765,2.3110619,-3.9504158,-1.8226576,-1.746767,4.0266,0.6128192,3.742054,-0.816926,0.50920725,-2.0043607,-1.9026656,0.74261284,3.4959707,3.736476,3.5193453,-4.0917535,4.6403,-1.8373227,0.5061121,2.4075503,2.416337,-2.1637237,-0.3078227,3.5356016,1.8602471,4.6801414,-1.6256051,-2.8706431,4.757827,-0.71837616,0.7658863,-3.7071137,4.0085516,-2.1872795,4.1668015,-1.5777044,2.6705713,-4.43315,4.627283,-4.961152,-0.17402744,-2.3446167,2.8969984,-2.7321095,-4.781107,-0.69972944,2.2950988,-0.52881193,0.74153185,2.921136,-1.6750062,-0.16285229,-2.3477387,0.05385971,1.3806252,1.9777589,-4.3878026,-3.1190252,2.2960114,1.7918634,-3.1701117,-4.3040805,-2.30725,-4.529445,-1.7239571,0.6723256,1.7929502,0.7303772,-2.6510186,1.4513206,-2.000351,1.9963093,-1.2815733,3.6326609,-1.4181232,0.30242395,4.469061,-4.4205947,0.97572136,1.7024632,0.12248421,-1.0229027,1.3741755,-2.8466754,3.539503,0.7516217,0.19630861,3.1937895,0.7407551,0.9200506,-2.0917141,1.2665291,-2.6274037,1.1437693,3.0894136,3.4975138,-0.09089041,1.6348338,-0.7373662,-3.753273,0.103816986,-3.5521972,0.32326937,0.21721268,0.53251076,-0.50203085,-3.3648963,1.8357987,3.3723793,-1.8263221,0.13987064,-1.6801767,4.916008,-0.7853179,-0.23650122,1.4739084,0.47187138,-1.474278,-0.8669925,2.5244627,1.1025991,-0.16582537,-1.6662037,4.3523245,4.3948812,0.76566505,-0.8328843,2.7560587,2.864933,3.893691,-3.9368505,-4.781268,-1.4805241,-1.4065909,-1.9611073,-4.987529,-2.4838285,3.548582,-3.2457108,-3.2417548,0.10518837,-4.225049,4.2492847,2.100646,-0.4496441,2.1158867,-3.0055153,4.8242292,-2.8269494,4.9808626,4.219569,-2.5218499,-2.3845882,-4.9327855,0.8836136,-1.969744,0.11027384,3.9492292,1.7065992,1.8219137,0.80671215,3.712801,3.6649609,0.14393806,-3.7974148,1.2684708,4.616765,2.3720784,1.8948107,0.7988024,-4.1996245,-3.6281347,1.4353628,-2.7006853,-1.8901377,-2.2823424,2.009427,4.0493975,1.0451083,1.2821541,1.396771,1.623075,3.0472832,-0.6480689,-1.3487096,-1.7001386,4.265401,-0.1778822,-0.46557522,-3.9778495,0.5973854,-0.15316486,-3.3094187,-1.6631608,4.3712215,3.3466835,2.7549024,2.7328038,-3.2827573,-1.6526704,0.8207264,1.859416,4.075675,1.5629311,1.1372895,2.524428,-2.22223,-4.536898,-3.3307,3.7680779,0.35633516,4.3388376,2.8470187,4.382247,-0.97776175,0.50345707,-1.9845433,-1.2416828,-0.48181534,1.4689035,4.9766064,3.8621092,3.0388136,-4.74737,-0.39906263,-1.5242033,-4.94382,0.42040586,-3.1878037,1.492754,3.4116583,-3.9256425,0.36241913,-0.6850872,0.41333246,2.14748,1.0015769,-3.7441015,4.6636057,-3.7561,2.483117,0.66834927,-0.60705376,1.1075659,3.7010279,-3.5294569,0.485178,-3.3558166,-2.6417756,-4.6838336,-2.015891,0.8407397,1.5683908,0.69981146,0.13525295,-3.922919,0.21823215,-1.1795783,3.0299807,-3.0067892,-0.75026894,-4.0127773,-4.15825,-2.9213734,3.1353588,-1.1024504,-3.9969344,1.7081552,2.8594866,-2.5138652,-4.370845,3.5546923,-1.3833337,0.6927848,-4.6428847,0.82324314,-1.6222942,-3.3947392,-2.754784,-1.8223119,1.6589398,2.5909395,-1.9297724,3.488184,0.13911963,-2.9829109,-2.2889888,2.8247523,4.577667,1.270566,-4.1749067,3.422223,4.345007,-2.3816257,3.2685575,-3.234675,4.623273,4.6713953,2.3656445,-3.8119042,-1.7653,2.4379702,4.7222605,2.7685585,0.88633585,0.96798134,1.2519746,1.2031326,1.6863484,-4.620717,3.5778465,-3.4219546,-0.8696742,-2.0043163,3.8748875,-0.30644512,-0.7149677,-2.7837176,2.0135994,3.965992,-0.36442947,4.2641134,2.123351,4.1405125,4.8948593,2.0797706,1.2309508,2.7759504,4.7263355,0.86831856,-4.563048,3.096898,1.5308814,2.1931167,-3.995771,-0.23546028,-2.7633672,-3.6155927,-2.8180342,-3.3676105,-2.3143435,-1.8211806,-0.6159477,4.249716,-0.08444023,2.7599425,3.0025501,-0.1573348,0.7144375,-0.73476505,-4.413973,-1.741857,-2.5593674,0.3496275,3.2232656,1.2188921,3.6324148,4.4328423,0.7815099,-2.9910426,-2.7579002,-2.760812,-0.5590267,-1.7529087,-3.7083423,-3.3611946,-2.201891,1.4273362,3.461503,-0.45327234,1.7617636,-3.9062686,-1.0083385,-2.108304,0.79862785,4.8438873,4.1346455,2.8956337,0.29993248,4.666934,-2.4465723,2.3059697,-2.8544927,-0.21729565,-3.812068,2.1177673,4.4447536,0.99564266,-4.6167583,3.7677422,3.9960995,4.0492105,3.3762035,3.1770134,1.1392856,0.4994831,-4.9491267,2.4686193,4.680278,4.5624075,1.8208017,3.1008348,-4.7690125,2.023168,-2.6551974,-1.8246169,-4.4094415,-1.3633573,-0.022445679,4.280547,-4.205802,-4.56205,3.2872057,-2.6283598,-4.882767,3.4444885,-1.7446499,-3.0976224,-1.9057035,-0.34444046,4.6714973,0.5638895,4.106969,4.611659,-2.5618947,-2.959364,2.566114,-0.2588644,3.2074537,4.011344,0.6332536,2.40302,-0.8291869,-4.8675356,-1.1075516,-3.7514405,3.3142786,-1.5579557,3.139514,-2.602778,-3.8949127,4.582019,-3.1917393,0.109808445,2.8849273,-3.38484,0.23019743,0.2757578,0.7910342,-2.4750721,0.557724,2.7223043,0.49270105,-0.8778305,-0.2629652,2.022254,2.6138306,-2.9639478,-3.0463986,2.254126,1.286418,-4.960175,-1.3646746,3.6035404,2.985221,-0.27773333,-3.4496207,-3.4227295,-0.8195882,0.9647584,-2.1805043,3.2957973,3.5176287,2.4250274,4.1175003
-3.094077,2.5255423,-4.572772,-4.407397,4.0288916,4.2336473,2.0626307,-4.2093906,-1.4132297,4.232913,-1.7168915,-4.176874,0.853765,-3.7646437,-0.5431247,4.0846367,0.8729024,2.201582,-0.5755415,-2.3013086,-4.357949,4.8190823,2.6588373,0.62550163,-3.135252,-1.4144402,3.219905,3.3846092,-3.9888668,1.7372332,1.2290807,-0.43434048,-2.1372967,-0.5656681,3.931549,1.867785,4.984623,-0.4251213,1.4464931,-4.5545454,-1.0049229,1.8515692,3.4603605,-1.8358822,2.5754142,-0.12631607,-1.1066504,2.2635837,-0.00940752,3.982314,4.537586,4.2384043,4.465229,-4.921501,1.0687485,4.7431507,3.5484943,-2.2947402,-1.1031075,0.0013685226,1.9167209,4.470065,2.2547684,1.2075491,1.6297107,-2.4149752,1.8005743,1.0234852,-3.0040312,-4.1197658,-4.0702677,1.9480557,2.357973,-3.330499,-3.094473,-3.5486972,3.182622,-2.6644206,3.7572746,3.0817585,3.7147655,-3.732283,-0.9864831,-1.4331341,-1.4240332,-1.7557459,-0.97411585,-2.1089208,-1.9753051,-1.6330338,1.7797632,4.2008324,2.8281875,-2.231145,2.260211,-2.7670364,3.7691097,-4.750518,0.9855561,2.4275703,3.673359,-4.164974,-1.4723527,-3.6340256,1.5798907,3.4353514,4.4615,-4.6792936,-0.45512295,-4.944725,4.6751585,4.6717834,-1.8180704,1.9491673,0.48562336,-3.4530382,-1.0617952,0.9889388,-3.802985,2.1529508,4.700613,0.3057599,4.630205,4.7002544,2.2695947,-3.8428564,-2.425146,-3.9231312,-2.0309448,1.171792,2.3117876,-2.3472552,2.1485634,-1.3328462,3.690321,-3.6349015,4.903248,-0.36065674,1.9616694,0.17122793,4.146577,-0.6040554,0.5174966,2.3250914,4.196972,-0.44617414,3.9742546,-0.1575489,-0.21920633,0.10556936,0.24496603,-2.5809908,3.3129873,-3.2865179,4.7526827,3.6624918,2.210116,2.781973,0.5209546,-1.5678251,-3.1341581,-4.4242644,3.8472662,4.073127,-0.9252329,-4.3199615,2.6738782,1.7919912,2.8769593,4.567425,-1.4445634,-1.5461254,3.9821596,3.6326456,3.7378016,-4.4708977,3.869337,-2.5004153,4.6253977,1.4832621,-3.829904,-4.312991,-2.4637933,-4.972823,-2.8575702,2.4559407,2.9206,-4.822581,-2.303522,-3.346806,2.2338638,3.2320757,3.214198,3.5034475,-1.2973695,2.087028,3.644,0.34590483,3.7540846,2.5359592,4.642729,-3.9996128,1.8190756,-3.8438773,-0.9289813,0.115569115,4.006212,-1.3498993,-4.404726,3.913147,4.4732084,1.0425382,2.1113205,4.506254,-1.4736681,3.198762,-0.47281933,-0.44999647,0.94891644,4.188896,-3.998183,4.9256496,4.8320065,-2.3984325,-1.7804801,-2.5603623,-1.953054,1.8801842,-0.51811934,-2.5512438,-3.0648894,-2.4616492,-1.1002088,1.8740916,-0.87056446,-4.450407,-2.7236576,-1.4824157,4.7506104,-3.1423247,-1.3083696,3.475583,2.304132,-2.9441535,3.2544603,-3.4955037,-1.9986105,-0.25639486,-4.5170794,-2.2287126,4.6208344,0.9746971,4.9415274,2.7257342,3.9644547,3.2591114,0.24708843,-1.1452298,3.5807915,-0.40421772,0.2558937,2.1111364,3.0138054,2.8373818,-3.0524743,0.6856723,4.7409973,-1.3310905,4.5989056,1.1686487,-4.4170847,0.024276257,-0.9386301,1.5282197,1.7868023,0.20997143,-1.0408723,0.67810535,-3.6983716,-0.6517463,-0.4280753,-4.175647,0.2859087,3.5272923,-4.5447483,-2.20335,4.57378,-0.033804893,2.9136925,1.2661228,2.7207232,3.4985514,-2.6214175,2.186007,-3.3259618,1.6042166,-1.9068961,-4.5556755,2.9912734,-3.8543015,1.7075167,3.9669075,-4.825299,4.6442976,-4.7267528,2.0680733,-1.4555974,-0.24087906,3.6890135,-4.3381286,-2.720337,-0.53906965,-2.1913993,-2.9655404,-3.8876634,2.2204428,1.5324278,-1.8602324,2.777277,4.9221134,-3.4702067,-0.929399,0.46975183,3.4452734,-2.2749162,0.7949791,2.0464473,2.3580842,2.3427038,-3.6451566,-4.1224995,-2.484786,4.4157906,4.501007,1.2176423,-1.1283822,-1.4117873,1.5353942,-0.33435822,0.29849958,1.5085678,-4.4192863,4.596612,4.5580406,2.750658,-2.172736,3.4153786,-2.7534313,4.611001,0.61666775,4.5411234,4.0324,1.0676026,-3.496459,-1.1835182,-4.90962,-1.034133,-4.240515,-4.0617733,-1.1983628,0.3408184,4.334646,4.0165644,2.0331507,4.396702,1.4565458,2.3840852,4.1471176,3.1663198,-4.3009706,-2.0666928,1.6858864,-2.5468926,2.2552786,4.5748425,1.5309043,0.3959694,3.8029022,-3.7704344,-1.7612033,-1.7106044,3.6602297,0.61238575,-0.5687847,-0.097328186,4.634451,2.6954803,4.6465178,1.4030399,0.43912363,3.0771885,0.4085598,0.39194107,4.2168665,0.012694359,0.32892418,3.559391,1.0521388,-4.8291306,-3.955741,2.2820911,-1.2270081,0.3906498,-2.0330107,-2.453833,2.5145054,-1.9665921,-2.5504775,-4.320581,-0.18381691,-2.2608066,4.66158,4.1815634,-0.6373844,4.413497,-3.6738153,3.0121708,3.7019053,1.9476418,-2.0662637,-0.91567326,-3.7163687,0.012976646,-0.6208124,-3.1314068,-0.34332228,-3.4836435,4.9737997,1.3782558,-4.2748623,-2.1445,-0.36427402,-3.9804416,-3.42031,-3.9504993,-4.891261,4.5707808,1.6170306,3.9198093,1.8062615,2.597795,1.5180292,-4.7905293,4.750267,4.695674,-2.414785,0.6763973,4.1332264,1.6416101,3.9254932,-2.9957044,-3.814578,0.4694624,2.643723,0.7144203,3.521161,-0.18664455,-1.9312267,-3.894475,-4.243689,3.1822386,-0.13245821,0.54356194,-1.5723169,-3.2360048,-0.5116315,1.2493696,3.7752419,4.2185507,-2.8311105,-4.34147,0.95245934,-4.982757,-2.3010647,-4.4241023,0.3951764,2.2902036,-2.7340384,-3.9474952,3.240817,-3.7577128,-2.5985897,0.63908815,0.010900974,-2.0982873,4.4490843,1.1239433,0.6102128,-3.2047033,1.867518,-0.15070343,1.6594973,-3.2009053,1.176857,-3.1759655,1.0735369,3.6986475,1.1935482,-3.0455832,-3.0066216,1.4206467,-0.32365322,-1.7583518,3.0558023,-1.6502671,2.7657561,2.591515,2.6631122,2.240179,2.624731,-2.9204469,4.961009,3.2745314,1.4093237,-1.165539,-1.2325549,-0.09486961,3.7620087,-3.5570395,-0.24426508,4.783744,2.973225,2.7501369,1.862287,1.8308301,-3.234148,2.1595569,2.8116698,1.9587317,-0.47618103,2.6181908,2.9490685,-4.5216923,-3.0615015,4.615777,-3.2313104,0.21958351,-1.6644478,-0.5514264,-1.0090327,1.6085005,-4.406574,2.3381863,1.6462111,-4.163574,3.8569279,0.73399544,2.0224981,-3.3283882,4.027128,-3.5010612,-4.038885,-2.2147214,-4.587142,2.197259,0.8003073,-0.4282055,4.6884403,-4.6292515,-1.4200985,2.4094467,-1.0888755,3.2538242,-0.25859165,2.3837938,2.1325312,0.15182877,3.6681976,-2.1002288,-4.2646847,-4.782316,-2.3469834,-4.92443,-1.9786925,-1.7756093,4.133422,4.589203,-1.9783287,3.7148972,2.722003,2.9533072,2.4726353,-4.667881,2.5804944,-3.1037097,-0.27469063,2.051437,-1.6172595,-0.7568841,-4.9457145,3.8692646,-3.1754227,1.0790658,-0.1417346,2.433919,4.445841,0.48391628,2.7076645,-4.5065475,4.731228,2.6630454,-3.3970876,0.7930808,-0.87451935,0.48120117,1.9477706,-4.224514,-2.036475,3.9351168,3.040841,4.830518,3.3510284,4.7245007,-0.09449959,-2.8048623,0.01939392,2.8083892,-3.6226285,4.443322,-2.9798055,-3.507721,-1.283288,4.0100784,-2.142002,2.872069,-0.7291031,-2.1231651,-0.31013298,-1.7707472,-4.989882,3.2985668,-0.9513664,0.5663309,-0.4816246,2.4189591,1.3227224,-2.2873516,4.258295,1.4451866,4.956538,-4.193824,4.2886887,2.8784695,2.7260075,-4.1599255,0.567904,4.083723,0.19460249,1.2841053,-1.6734993,4.8095064,-2.9358392,2.3575268,4.2236767,1.1466556,0.82230186,-1.5258563,0.40818405,2.066183,-0.47385693,1.2811661,2.2369814,2.6691656,2.598126,4.1128244,-1.1434131,-3.8781781,-0.40171385,-2.5198483,2.572752,0.49576712,1.2898989,-1.53405,-4.5290117,-3.3711612,0.1432662,-0.42675543,2.9509873,1.0012379,-4.1104,-1.716289,4.9171925,0.83099747,0.9840064,3.4168816,-2.7257233,-2.587431,-2.864945,1.5313144,2.9303985,4.3081837,0.94708204,-4.9629745,-3.489149,0.21055269,1.5959268,2.73061,0.28750896,2.4569936,2.4913416,-4.3598533,4.899336,2.6743054,-4.5487933,4.1876945,-4.619906,3.624546,1.1699152,-2.4458194,-0.50156784,1.6092105,-1.8191862,3.7606773,1.3545094,4.8165493,-3.9339077,0.22338438,0.43676138,3.2143135,-1.5573664,-4.6119328,1.2099571,-0.8517475,1.7308497,-0.4155469,2.622838,-0.02920723,-1.2687297,3.1896572,3.8377275,3.4437637,4.008209,1.1193886,1.0273771,3.52989,3.5779343,2.2172995,0.43988752,-3.2943769,-1.666584,-4.4076414,-1.2541687,-4.047349,-3.0810642,-4.249392,1.2725382,3.96797,1.6759834,-4.506889,-0.7641578,3.3118916,1.0063434,-2.321313,0.6481848,-3.5565238,-0.34378052,-4.75384,-3.4353547,-0.95180035,2.667522,-0.73620844,4.5295105,0.52986336,0.9857793,-4.42652,-0.7646084,4.5499115,-0.3116045,1.7029123,2.5679135,0.47630835,-4.811459,-0.0144023895,-3.5505772,-0.5133381,-0.1071887,0.509171,0.3843379,-4.870199,-1.5119381,-1.9928598,3.7161837,0.9608488,4.5345592
1.3530879,-0.8424206,3.4785452,4.4747887,-4.5089197,-4.29245,4.104124,-4.9123344,-2.2655625,-3.8749437,-4.91462,-2.8731978,3.076314,-4.5760703,-0.16747046,-3.0848045,-3.9572048,0.9589462,-3.7292647,0.5792866,0.40478182,4.763694,-0.8258505,-0.9128566,1.6746135,4.1092644,3.5531864,4.0483837,-4.0441318,-2.055128,-3.1194162,-2.3679638,2.6014032,-2.6949306,2.8899393,-4.590686,-1.1296983,-1.4127059,-0.33666086,-4.417792,-1.8260443,-1.8106155,1.5677252,4.554804,1.7067771,-4.718823,-4.552193,1.1590757,3.3505669,3.4770317,-2.4786015,4.006956,3.8739834,2.4673982,-1.7161989,-3.9574628,-1.9213545,-3.6220288,-3.7231607,2.7626934,4.902215,-3.6988358,0.39685202,-3.3817334,4.3162184,-2.23769,2.7029414,3.237442,-1.1513734,-3.9570296,0.96243095,-1.718152,3.5743608,1.5391598,4.2047234,-0.795619,-2.650456,3.4286594,-0.11728287,4.3697367,4.0621777,-0.79725266,1.6793227,3.2263527,-2.2979379,2.9158492,3.0888605,3.5499249,-4.716631,4.1064186,-1.3227506,-1.3851671,0.4392376,-4.6023173,-3.9143353,1.7991676,-4.970043,-3.8622022,0.7311716,0.9007044,4.2582254,-2.1560645,-3.4533274,-2.1596189,-1.9098878,-0.51350546,-2.6808906,-4.646253,-4.005494,-1.5451992,0.6093216,3.4772472,-3.08774,1.7114506,1.1643405,-0.4126668,-3.838991,2.697402,3.456997,-2.6685011,-0.03432703,-0.71353483,4.2249765,-2.527994,2.6841898,-2.1623707,3.1450033,-1.7526464,-1.8154705,0.119296074,2.8172598,-4.9558525,-2.2998881,-1.8734193,-1.9651127,0.85103893,0.87535,3.8182125,-0.19867659,-2.438397,-2.04704,-4.092302,4.4398155,0.37778616,1.4790492,4.251624,-2.4327226,2.0265155,0.8421545,2.3070817,2.8575416,1.090527,-1.5114851,-1.9516225,2.7148442,-0.59760094,-4.336153,2.9588027,3.1137161,0.24615669,-4.316315,-3.4989,4.731662,-0.8874397,0.64006233,1.6811275,-4.192188,1.9249592,-1.1749899,-4.6582384,4.0776567,-3.7721686,1.0121737,4.089368,0.7444072,3.7935648,1.0216913,-0.646595,-3.0623746,-2.1367974,-1.4898033,-4.6907907,-2.5470061,-0.14491129,0.15361881,4.704092,1.1187053,-2.7754092,0.54864025,-3.6105335,4.33477,-1.4740033,-3.0080743,-3.5628748,3.4114323,0.27620697,-3.5662656,-1.840527,-0.42555237,-3.4641612,-4.4192867,2.5542078,4.549135,3.7406998,-3.4769177,1.7245145,-4.575554,-2.8089647,4.8197546,4.6682224,-3.078009,-4.402314,2.6129055,0.13212156,2.8904562,-1.1390245,-4.8734627,-3.132683,1.9470401,3.671749,-3.2868874,-4.364341,2.464302,-3.340931,4.8005667,1.7080193,-2.6803498,4.5990725,-0.5122433,-2.5412083,4.5618916,-0.56410027,2.8751235,0.060634613,0.055013657,-4.2150683,0.5711527,2.823225,4.971096,1.6450863,-4.627515,-3.794793,0.73110867,-2.7138197,4.7114096,-2.0139444,2.3074656,3.5410852,0.84721947,0.46537495,0.88083935,-4.071863,0.60842514,-4.3178797,0.27480125,-1.2305844,-2.0074081,-2.4230552,1.3798084,1.0038977,0.4133892,4.7705545,-2.138015,3.8461199,-2.4580698,4.5945005,0.49125195,3.6311264,4.0463333,-1.52385,2.9791808,3.0500917,-1.8892086,2.9021673,-4.1976852,2.6786156,4.6764574,-4.4000964,2.0380325,-4.7758226,-1.5063894,-4.7522616,4.3116417,2.9005375,3.4278126,4.2835665,0.15986538,-3.1103265,-1.1217241,0.310544,0.58802795,-1.3884358,2.1370225,-3.434896,-1.2384934,1.1646819,-0.08450413,-1.2078028,3.8267612,-2.9707713,-2.0213647,3.3133335,0.92768,-2.201652,-1.5788369,4.379615,4.17167,0.06833601,-3.5395498,-1.6093886,-2.3306437,-2.1639628,-3.1334352,-4.2870407,-3.7160182,3.4384327,-0.98189354,-1.8287272,4.730749,-3.4270911,-1.7929721,1.8921967,3.0214005,0.67632866,2.144857,1.5035686,3.44878,-0.14212608,2.6125746,2.5297413,-2.3307114,-2.31605,-4.157009,4.230897,2.675086,-0.4728155,-4.1510196,-0.7647114,-3.6791348,-2.793322,0.2717347,-2.1286988,-4.799658,-4.3684173,4.5195036,-3.1110215,-4.8638096,-3.668521,3.0224857,0.21230602,-4.6062307,-2.5989819,1.5902166,3.904395,4.9788094,-0.6541233,-2.8935556,3.1597633,-3.2447445,-3.6327748,-3.207537,-1.2643564,-1.8663144,3.9681807,4.9282665,3.3236704,4.158202,-4.0836577,-0.19069481,-1.7847829,-3.3381968,-1.2046111,0.122486115,4.001686,1.0689044,3.3378592,2.4317074,-3.305626,-3.1263847,3.1532536,2.1443415,-0.6216631,-3.1680517,0.0215168,1.9600701,-1.7119181,-3.9804535,-0.024213314,1.3971181,1.9686146,2.566094,0.007809639,3.5908308,-1.1383228,4.295699,-4.7862053,-4.5972066,3.640686,2.1704602,-1.35889,-3.7090528,4.848692,-3.9901865,3.321766,0.55289984,3.2718477,3.5136118,-4.932088,3.911152,3.1495104,-2.3561926,1.588139,-1.2589784,2.0584373,3.1711655,4.269412,-2.8444195,-0.43833733,-4.912832,-3.1572568,2.7248592,-3.4112763,-3.855414,1.119309,4.6830482,-4.415837,-2.3578386,-4.264907,-2.8054583,1.021431,1.2160435,-2.5343914,3.44129,4.7503614,4.8176517,-3.5474145,-1.9525445,3.3355894,3.8396254,2.828395,-4.999492,1.5982652,-1.8900919,-0.37048864,-3.5915213,-4.820284,-1.7540073,4.2551956,3.8972292,-3.6846793,-4.828382,-2.876237,-2.4670596,4.3547,1.4140673,2.003736,4.039666,1.9308395,2.1678696,0.19524288,2.8552675,2.1112561,-0.7891226,3.8873158,-0.53997755,2.7138624,3.6631622,-2.1181207,-3.6108935,2.9701638,-3.2515204,-4.3373113,3.1071405,3.100813,-3.1081252,-4.871792,-4.9533725,-3.2852979,2.3409219,3.623973,-2.611996,-3.014686,1.969163,-4.27171,-2.4993932,2.8521876,4.3528214,4.619793,4.9715166,-3.5291295,-0.49884748,-2.5809736,0.015210152,1.8131061,2.8148122,4.436844,-0.98507166,2.6379747,2.0206013,4.4676504,-3.6370623,0.2609892,1.8575549,-0.62576056,2.8787804,3.0360832,-0.50619984,4.360239,3.996893,3.714199,3.1785126,-0.48411655,-2.2504444,0.43240595,-2.9642339,-4.0831947,4.816225,3.0767498,0.2859993,-2.2238743,4.813526,-4.148009,-3.5069323,-1.6180623,-1.5330386,2.8407931,3.2596903,4.3152027,3.0237255,1.2989225,-2.3093963,0.6653743,1.0797172,3.9525852,-3.6148934,4.6188717,-4.427142,-4.4920774,-2.8202815,-0.97446203,-1.704957,1.7281494,4.3504963,0.6369839,-3.447094,2.2891212,1.2326508,0.8691015,-4.7091246,0.9105258,3.6051426,1.106379,-1.1908488,4.88146,1.798109,-3.191319,0.431386,-0.3358183,0.74566317,1.4294472,4.388073,-1.2840934,1.4743223,3.1749926,-1.811552,3.675786,-0.48456907,-3.6243315,-4.632639,-3.0008423,-2.0672166,4.45576,-4.985371,-0.41910124,-2.6869245,2.9471068,3.627345,1.060895,-2.312457,3.0186567,-2.1609461,-1.1736541,2.4833274,0.33593464,3.74236,3.034217,3.4466705,-3.4271753,2.8817368,-3.50132,-1.6352034,-2.0818663,0.808856,-1.481601,-3.5445027,-3.8918514,-0.7250824,-1.1710703,3.9442673,-2.0487118,0.3486848,-0.14026833,-4.131499,0.7060485,2.9377012,-4.993333,1.4983869,-2.3862772,-4.5381885,-3.9514232,3.3708324,-2.1642952,-3.272707,-0.477283,2.5427933,-4.691217,-3.2840073,-1.4984643,-0.3953228,4.424137,-1.0820456,-4.4627266,-1.8093104,2.7696948,4.8879375,-1.0203223,2.7390294,-1.2416434,-4.108201,-1.3440979,3.811182,0.42358398,3.9990425,2.553338,-1.6764541,-3.3039446,1.116199,1.0081286,-2.6844282,-4.900625,-2.8056307,4.2025185,-4.2607403,0.45150566,-2.6643019,-3.047974,0.77723074,-2.0612204,-2.4453087,0.8862705,-3.399384,2.0187883,-1.526537,-3.9616752,-0.63567257,1.0382342,1.6715236,-1.5976083,4.296158,0.94019794,-4.2833586,-4.40361,-0.72622967,3.5968866,2.2453032,0.5689521,-1.6142755,4.701723,-1.2200265,2.8314505,1.9816756,1.8644581,-1.8340123,-3.7221594,1.2988801,-4.834629,-3.2139432,-3.0424361,4.577194,-1.6199832,-1.431282,-0.6503959,-1.1823618,2.8828917,4.071043,0.3711052,1.0441475,4.735568,-4.960578,-3.7975883,-1.0710068,1.1357107,1.2224479,2.6817918,2.09903,0.31626177,-2.4826324,-1.35642,3.8251915,-2.6880288,2.5566192,-3.2537282,-0.8186488,-3.858636,4.83782,-2.0745707,-1.7872727,-2.0223231,-1.2788177,2.4043522,-2.7717013,-4.013032,-3.5952592,-4.6198254,-0.3572483,2.348308,3.7564697,-1.5905404,4.7912617,0.4181242,-3.1092591,-3.2764947,-1.2344384,-0.17142344,0.33334923,2.1996713,0.5988445,2.8362694,-3.8958569,-4.5190525,3.9746532,4.965843,0.21628809,0.55282116,-4.272985,2.0522733,-3.741268,3.115859,-1.254524,1.227953,-0.61754704,-1.9244874,-3.2181554,4.4412594,-2.7997046,2.0098853,0.7781024,4.4211836,-2.0591826,-2.848093,-1.8302174,-0.8235159,3.4117594,4.212227,-3.5694904,0.3136773,3.854393,-4.333271,-4.2475133,-0.64160156,-3.2573617,2.2750425,2.8988447,1.6239381,-3.058194,-2.0767741,-1.6080718,-1.2263088,0.08739281,-3.1478019,-2.7218485,4.646558,0.82795095,1.2023349,-4.055629,4.4135866,3.7062101,2.3794246,-1.5050001,4.333144,2.0096684,2.7997737,-4.577202,1.4370823
